tree
version=v2
num_class=1
num_tree_per_iteration=1
label_index=0
max_feature_idx=15
objective=binary sigmoid:1
feature_names=Column_0 Column_1 Column_2 Column_3 Column_4 Column_5 Column_6 Column_7 Column_8 Column_9 Column_10 Column_11 Column_12 Column_13 Column_14 Column_15
feature_infos=none [-1:1] [-1:1] [-1:1] [-1:1] [-1:1] [-1:1] [-1:1] [-1:1] [-1:1] [-1:1] [-1:1] [-1:1] [-1:1] [-1:1] [-1:1]
tree_sizes=937 946 944 952 938 953 951 952 949 946 950 950 949 951 949

Tree=0
num_leaves=10
num_cat=0
split_feature=1 2 2 3 3 3 3 10 9
split_gain=53441.1 36989.2 21035.9 14571.5 13005.9 8088.48 4323.81 1018.81 2127.1
threshold=1.0000000180025095e-35 1.0000000180025095e-35 1.0000000180025095e-35 1.0000000180025095e-35 1.0000000180025095e-35 1.0000000180025095e-35 1.0000000180025095e-35 1.0000000180025095e-35 1.0000000180025095e-35
decision_type=2 2 2 2 2 2 2 2 2
left_child=1 4 3 -2 -1 -3 -4 8 -7
right_child=2 5 6 -5 -6 7 -8 -9 -10
leaf_value=-0.38159027547908103 -0.43624786022748974 -0.36515515603971155 -0.44095785233857299 -0.37815084795357062 -0.43632665346136718 -0.31010756367989378 -0.47261268843713811 -0.31071974673566516 -0.35407933348670051
leaf_count=90588 90083 89881 90840 89750 90238 22520 88926 43854 23320
internal_value=0 0.555804 -0.55628 -0.0627362 -0.0957832 1.21193 -1.05001 1.64554 1.43278
internal_count=720000 360401 359599 179833 180826 179575 179766 89694 45840
shrinkage=1


Tree=1
num_leaves=10
num_cat=0
split_feature=1 2 2 3 3 3 3 10 9
split_gain=48252.4 32857.4 19332.5 13179.2 11775.6 7064.42 4044.73 880.421 1847.85
threshold=1.0000000180025095e-35 1.0000000180025095e-35 1.0000000180025095e-35 1.0000000180025095e-35 1.0000000180025095e-35 1.0000000180025095e-35 1.0000000180025095e-35 1.0000000180025095e-35 1.0000000180025095e-35
decision_type=2 2 2 2 2 2 2 2 2
left_child=1 4 3 -2 -1 -3 -4 8 -7
right_child=2 5 6 -5 -6 7 -8 -9 -10
leaf_value=0.021303992894610088 -0.030734012394796745 0.036732881586577754 -0.035275905363959442 0.024540557956477152 -0.030809910058233653 0.087797197727682116 -0.066065079017569847 0.087233924430275445 0.047079825200072978
leaf_count=90588 90083 89881 90840 89750 90238 22520 88926 43854 23320
internal_value=0 0.525163 -0.531837 -0.0597336 -0.0911743 1.13829 -1.00904 1.53982 1.34314
internal_count=720000 360401 359599 179833 180826 179575 179766 89694 45840
shrinkage=0.05


Tree=2
num_leaves=10
num_cat=0
split_feature=1 2 2 3 3 3 3 8 9
split_gain=43618.1 29291.3 17789.8 11924.5 10665.1 6240.36 3802.74 805.347 1251.63
threshold=1.0000000180025095e-35 1.0000000180025095e-35 1.0000000180025095e-35 1.0000000180025095e-35 1.0000000180025095e-35 1.0000000180025095e-35 1.0000000180025095e-35 1.0000000180025095e-35 1.0000000180025095e-35
decision_type=2 2 2 2 2 2 2 2 2
left_child=1 4 3 -2 -1 -3 -4 -7 -9
right_child=2 5 6 -5 -6 7 -8 8 -10
leaf_value=0.020157787922711529 -0.029402452428207805 0.034670999581615798 -0.03378654546263446 0.023207497402189574 -0.029475620413316431 0.081971243118006132 -0.063823437196926874 0.079815091187646209 0.046274236821579794
leaf_count=90588 90083 89881 90840 89750 90238 44502 88926 22302 22890
internal_value=0 0.496962 -0.508783 -0.0568918 -0.086811 1.07199 -0.970573 1.44698 1.25748
internal_count=720000 360401 359599 179833 180826 179575 179766 89694 45192
shrinkage=0.05


Tree=3
num_leaves=10
num_cat=0
split_feature=1 2 2 3 3 3 3 8 9
split_gain=39466.3 26187.1 16387.9 10792.7 9661.74 5561.09 3590.5 783.084 1552.56
threshold=1.0000000180025095e-35 1.0000000180025095e-35 1.0000000180025095e-35 1.0000000180025095e-35 1.0000000180025095e-35 1.0000000180025095e-35 1.0000000180025095e-35 1.0000000180025095e-35 1.0000000180025095e-35
decision_type=2 2 2 2 2 2 2 2 2
left_child=1 4 3 -2 -1 -3 -4 -6 -9
right_child=2 5 6 -5 7 -7 -8 8 -10
leaf_value=0.019081331033592462 -0.028132135894649076 0.032757014801474436 -0.032367237492566973 0.021958344750727953 -0.037668740459250685 0.068212489456147649 -0.061744892923012995 -0.037981882210817081 0.00055147101855220653
leaf_count=90588 90083 89881 90840 89750 45773 89694 88926 21936 22529
internal_value=0 0.470854 -0.486978 -0.0541985 -0.0826753 1.01173 -0.934311 -0.564055 -0.369165
internal_count=720000 360401 359599 179833 180826 179575 179766 90238 44465
shrinkage=0.05


Tree=4
num_leaves=10
num_cat=0
split_feature=1 2 2 3 3 3 3 10 9
split_gain=35737.7 23469 15109.8 9770.93 8755.67 4991.59 3402.29 780.208 1560.25
threshold=1.0000000180025095e-35 1.0000000180025095e-35 1.0000000180025095e-35 1.0000000180025095e-35 1.0000000180025095e-35 1.0000000180025095e-35 1.0000000180025095e-35 1.0000000180025095e-35 1.0000000180025095e-35
decision_type=2 2 2 2 2 2 2 2 2
left_child=1 4 3 -2 -1 -3 -4 8 -7
right_child=2 5 6 -5 -6 7 -8 -9 -10
leaf_value=0.018069195180843961 -0.026918938871935322 0.030975251662068399 -0.031012619855711011 0.020786086525965367 -0.026990321110912464 0.074096312933515554 -0.05980738976009993 0.074026318637348432 0.03711000651155099
leaf_count=90588 90083 89881 90840 89750 90238 22520 88926 43854 23320
internal_value=0 0.44658 -0.466305 -0.0516432 -0.0787705 0.956601 -0.9 1.28978 1.10678
internal_count=720000 360401 359599 179833 180826 179575 179766 89694 45840
shrinkage=0.05


Tree=5
num_leaves=10
num_cat=0
split_feature=1 2 2 3 3 3 3 8 7
split_gain=32264.6 21161.1 13911.5 8740.52 7898.47 4509.17 3205.67 776.352 1278.88
threshold=1.0000000180025095e-35 1.0000000180025095e-35 1.0000000180025095e-35 1.0000000180025095e-35 1.0000000180025095e-35 1.0000000180025095e-35 1.0000000180025095e-35 1.0000000180025095e-35 1.0000000180025095e-35
decision_type=2 2 2 2 2 2 2 2 2
left_child=1 4 3 -2 -1 -3 7 -4 -9
right_child=2 5 6 -5 -6 -7 -8 8 -10
leaf_value=0.016889431757104778 -0.025644722352164862 0.029271066959054473 -0.039285140845765024 0.019534307674174974 -0.025969685811030624 0.061068099038110703 -0.05792610679042412 -0.037799385842402639 -0.0026434190724490478
leaf_count=90593 90108 90074 46022 89628 90123 89620 88941 22210 22681
internal_value=0 0.421782 -0.447247 -0.0500106 -0.0784704 0.904481 -0.867344 -0.595616 -0.400739
internal_count=720000 360410 359590 179736 180716 179694 179854 90913 44891
shrinkage=0.05


Tree=6
num_leaves=10
num_cat=0
split_feature=1 2 2 3 3 3 3 8 9
split_gain=29255.2 19040.2 12844.6 7916.24 7159.95 4095.97 3053.59 773.173 1500.33
threshold=1.0000000180025095e-35 1.0000000180025095e-35 1.0000000180025095e-35 1.0000000180025095e-35 1.0000000180025095e-35 1.0000000180025095e-35 1.0000000180025095e-35 1.0000000180025095e-35 1.0000000180025095e-35
decision_type=2 2 2 2 2 2 2 2 2
left_child=1 4 3 -2 -1 -3 -4 -6 -9
right_child=2 5 6 -5 7 -7 -8 8 -10
leaf_value=0.016004335775825392 -0.024539333793955093 0.027717991875590195 -0.028543109820797302 0.018506287170731679 -0.034392808558756448 0.057997158790848449 -0.056218503696143542 -0.034620087665147875 0.0036398028914021567
leaf_count=90593 90108 90074 90913 89628 45706 89620 88941 21860 22557
internal_value=0 0.40073 -0.428535 -0.0476647 -0.0747657 0.857757 -0.836358 -0.497054 -0.30176
internal_count=720000 360410 359590 179736 180716 179694 179854 90123 44417
shrinkage=0.05


Tree=7
num_leaves=10
num_cat=0
split_feature=1 2 2 3 3 3 3 12 7
split_gain=26538.3 17159.2 11863.9 7170.68 6492.6 3737.74 2915.24 771.618 881.826
threshold=1.0000000180025095e-35 1.0000000180025095e-35 1.0000000180025095e-35 1.0000000180025095e-35 1.0000000180025095e-35 1.0000000180025095e-35 1.0000000180025095e-35 1.0000000180025095e-35 1.0000000180025095e-35
decision_type=2 2 2 2 2 2 2 2 2
left_child=1 4 3 -2 -1 -3 -4 8 -6
right_child=2 5 6 -5 7 -7 -8 -9 -10
leaf_value=0.015169650043452977 -0.02348110340758678 0.026262344925973919 -0.027354623305449306 0.017538026916030455 -0.048280382827355306 0.055178900285123081 -0.054604274988295766 -0.014112061403087506 -0.019017428836670545
leaf_count=90593 90108 90074 90913 89628 22255 89620 88941 45056 22812
internal_value=0 0.380991 -0.410675 -0.0454332 -0.0712681 0.814408 -0.806728 -0.475793 -0.669334
internal_count=720000 360410 359590 179736 180716 179694 179854 90123 45067
shrinkage=0.05


Tree=8
num_leaves=10
num_cat=0
split_feature=1 2 2 3 3 3 3 8 9
split_gain=24082.8 15485.1 10961.6 6496 5887.1 3423.97 2787.54 732.782 1277.61
threshold=1.0000000180025095e-35 1.0000000180025095e-35 1.0000000180025095e-35 1.0000000180025095e-35 1.0000000180025095e-35 1.0000000180025095e-35 1.0000000180025095e-35 1.0000000180025095e-35 1.0000000180025095e-35
decision_type=2 2 2 2 2 2 2 2 2
left_child=1 4 3 -2 -1 -3 7 -4 -9
right_child=2 5 6 -5 -6 -7 -8 8 -10
leaf_value=0.014381909760595394 -0.022467471740144147 0.024895596179748646 -0.035596717474437933 0.016625212749332232 -0.022767433629252671 0.052577645012897037 -0.053072085908158574 -0.034106024149798242 0.0014349432768101078
leaf_count=90593 90108 90074 46022 89628 90123 89620 88941 22853 22038
internal_value=0 0.362422 -0.393618 -0.0433089 -0.0679293 0.774032 -0.778361 -0.524308 -0.333117
internal_count=720000 360410 359590 179736 180716 179694 179854 90913 44891
shrinkage=0.05


Tree=9
num_leaves=10
num_cat=0
split_feature=1 2 2 3 3 3 3 10 9
split_gain=21862.6 13990.1 10131.6 5885.25 5337.7 3146.57 2667.71 738.915 1459.15
threshold=1.0000000180025095e-35 1.0000000180025095e-35 1.0000000180025095e-35 1.0000000180025095e-35 1.0000000180025095e-35 1.0000000180025095e-35 1.0000000180025095e-35 1.0000000180025095e-35 1.0000000180025095e-35
decision_type=2 2 2 2 2 2 2 2 2
left_child=1 4 3 -2 -1 -3 -4 8 -7
right_child=2 5 6 -5 -6 7 -8 -9 -10
leaf_value=0.013637979314598586 -0.021496116735913909 0.023610299874078335 -0.02512673749047413 0.015763943853636411 -0.021785388240605209 0.059645042167574797 -0.051612223009182071 0.059522706004539641 0.023820789909962684
leaf_count=90593 90108 90074 90913 89628 90123 22454 88941 43774 23392
internal_value=0 0.34493 -0.377325 -0.0412856 -0.0647343 0.736295 -0.751198 1.00329 0.825384
internal_count=720000 360410 359590 179736 180716 179694 179854 89620 45846
shrinkage=0.05


Tree=10
num_leaves=10
num_cat=0
split_feature=1 2 2 3 3 3 3 10 9
split_gain=19811.1 12693.1 9384.12 5425.1 4724.35 2941.54 2556.21 739.642 1221.52
threshold=1.0000000180025095e-35 1.0000000180025095e-35 1.0000000180025095e-35 1.0000000180025095e-35 1.0000000180025095e-35 1.0000000180025095e-35 1.0000000180025095e-35 1.0000000180025095e-35 1.0000000180025095e-35
decision_type=2 2 2 2 2 2 2 2 2
left_child=1 4 3 7 -1 -3 -4 8 -2
right_child=2 5 6 -5 -6 -7 -8 -9 -10
leaf_value=0.012736170675777973 -0.02886933240548549 0.022353777850093178 -0.024051546040443031 0.015152929807453612 -0.02064652778040443 0.048052695158411811 -0.050211837437062992 -0.030142827682018675 0.0059887895483175836
leaf_count=90579 21917 89973 90795 89718 90048 89783 88766 45430 22991
internal_value=0 0.329091 -0.360338 -0.0382154 -0.061796 0.702126 -0.72462 -0.412768 -0.220469
internal_count=720000 360383 359617 180056 180627 179756 179561 90338 44908
shrinkage=0.05


Tree=11
num_leaves=10
num_cat=0
split_feature=1 2 2 3 3 3 3 12 7
split_gain=17992.3 11489 8672.68 4915.98 4283.41 2716.06 2450.73 737.303 825.91
threshold=1.0000000180025095e-35 1.0000000180025095e-35 1.0000000180025095e-35 1.0000000180025095e-35 1.0000000180025095e-35 1.0000000180025095e-35 1.0000000180025095e-35 1.0000000180025095e-35 1.0000000180025095e-35
decision_type=2 2 2 2 2 2 2 2 2
left_child=1 4 3 -2 -1 -3 -4 8 -6
right_child=2 5 6 -5 7 -7 -8 -9 -10
leaf_value=0.012082001670821121 -0.0197455912533019 0.021214876379746585 -0.023044998366966874 0.014373852165481189 -0.044103895596677399 0.045942002620989075 -0.048872608539170276 -0.010196116311590503 -0.015307271503099795
leaf_count=90579 90338 89973 90795 89718 22108 89783 88766 45069 22871
internal_value=0 0.313443 -0.345439 -0.0364523 -0.0588888 0.668814 -0.699423 -0.395018 -0.587778
internal_count=720000 360383 359617 180056 180627 179756 179561 90048 44979
shrinkage=0.05


Tree=12
num_leaves=10
num_cat=0
split_feature=1 2 2 3 3 3 3 8 10
split_gain=16342.1 10406.9 8015.48 4454.04 3884.32 2512.26 2350.4 736.623 1161.08
threshold=1.0000000180025095e-35 1.0000000180025095e-35 1.0000000180025095e-35 1.0000000180025095e-35 1.0000000180025095e-35 1.0000000180025095e-35 1.0000000180025095e-35 1.0000000180025095e-35 1.0000000180025095e-35
decision_type=2 2 2 2 2 2 2 2 2
left_child=1 4 3 -2 -1 -3 -4 8 -7
right_child=2 5 6 -5 -6 7 -8 -9 -10
leaf_value=0.011463155175092032 -0.018886503697805933 0.020139795810011116 -0.022078068230966232 0.013637344392246974 -0.018895902209058357 0.037271997801863375 -0.047583765054166768 0.034845193038556842 0.070044782830974456
leaf_count=90579 90338 89973 90795 89718 90048 22754 88766 45195 21834
internal_value=0 0.298625 -0.331136 -0.0347514 -0.0561377 0.637421 -0.675118 0.879185 1.06445
internal_count=720000 360383 359617 180056 180627 179756 179561 89783 44588
shrinkage=0.05


Tree=13
num_leaves=10
num_cat=0
split_feature=1 2 2 3 3 3 3 7 8
split_gain=14845.8 9434.12 7407.37 4035.49 3521.55 2329.1 2254.46 697.235 1330.38
threshold=1.0000000180025095e-35 1.0000000180025095e-35 1.0000000180025095e-35 1.0000000180025095e-35 1.0000000180025095e-35 1.0000000180025095e-35 1.0000000180025095e-35 1.0000000180025095e-35 1.0000000180025095e-35
decision_type=2 2 2 2 2 2 2 2 2
left_child=1 4 3 -2 -1 -3 -4 -8 -9
right_child=2 5 6 -5 -6 -7 7 8 -10
leaf_value=0.010877459544976494 -0.018062429900213336 0.019123968271895938 -0.021148928416219449 0.012940705502618118 -0.018071663383559668 0.042102299379216425 -0.05682523172981227 -0.056409383250301183 -0.016213165092949535
leaf_count=90579 90338 89973 90795 89718 90048 89783 43819 22257 22690
internal_value=0 0.284598 -0.317411 -0.033129 -0.0534947 0.607861 -0.651643 -0.926797 -0.722353
internal_count=720000 360383 359617 180056 180627 179756 179561 88766 44947
shrinkage=0.05


Tree=14
num_leaves=10
num_cat=0
split_feature=1 2 2 3 3 3 3 10 9
split_gain=13487.4 8554.81 6845.24 3656.19 3192.49 2163.07 2159.63 709.01 1231.9
threshold=1.0000000180025095e-35 1.0000000180025095e-35 1.0000000180025095e-35 1.0000000180025095e-35 1.0000000180025095e-35 1.0000000180025095e-35 1.0000000180025095e-35 1.0000000180025095e-35 1.0000000180025095e-35
decision_type=2 2 2 2 2 2 2 2 2
left_child=1 4 3 -2 -1 -4 -3 8 -7
right_child=2 6 5 -5 -6 7 -8 -9 -10
leaf_value=0.010322940876261033 -0.017271877058320794 0.018163304235853033 -0.020255913714686186 0.01228144634714055 -0.017280929458319872 -0.055088330420843656 0.040334881228928338 -0.055793275542513711 -0.015812173014683701
leaf_count=90579 90338 89973 90795 89718 90048 21472 89783 44024 23270
internal_value=0 0.271258 -0.304249 -0.031581 -0.0509744 -0.628982 0.5798 -0.902817 -0.693135
internal_count=720000 360383 359617 180056 180627 179561 179756 88766 44742
shrinkage=0.05


end of trees

feature importances:
Column_3=60
Column_2=30
Column_1=15
Column_9=10
Column_8=7
Column_10=7
Column_7=4
Column_12=2

parameters:
[boosting: gbdt]
[objective: binary]
[metric: binary_error]
[tree_learner: serial]
[device_type: cpu]
[data: ]
[valid: ]
[num_iterations: 100]
[learning_rate: 0.05]
[num_leaves: 10]
[num_threads: 0]
[max_depth: -1]
[min_data_in_leaf: 20]
[min_sum_hessian_in_leaf: 0.001]
[bagging_fraction: 0.9]
[bagging_freq: 5]
[bagging_seed: 3]
[feature_fraction: 1]
[feature_fraction_seed: 2]
[early_stopping_round: 0]
[max_delta_step: 0]
[lambda_l1: 0]
[lambda_l2: 0]
[min_gain_to_split: 0]
[drop_rate: 0.1]
[max_drop: 50]
[skip_drop: 0.5]
[xgboost_dart_mode: 0]
[uniform_drop: 0]
[drop_seed: 4]
[top_rate: 0.2]
[other_rate: 0.1]
[min_data_per_group: 100]
[max_cat_threshold: 32]
[cat_l2: 10]
[cat_smooth: 10]
[max_cat_to_onehot: 4]
[top_k: 20]
[monotone_constraints: ]
[feature_contri: ]
[forcedsplits_filename: ]
[refit_decay_rate: 0.9]
[verbosity: 1]
[max_bin: 255]
[min_data_in_bin: 3]
[bin_construct_sample_cnt: 200000]
[histogram_pool_size: -1]
[data_random_seed: 1]
[output_model: LightGBM_model.txt]
[snapshot_freq: -1]
[input_model: ]
[output_result: LightGBM_predict_result.txt]
[initscore_filename: ]
[valid_data_initscores: ]
[pre_partition: 0]
[enable_bundle: 1]
[max_conflict_rate: 0]
[is_enable_sparse: 1]
[sparse_threshold: 0.8]
[use_missing: 1]
[zero_as_missing: 0]
[two_round: 0]
[save_binary: 0]
[enable_load_from_binary_file: 1]
[header: 0]
[label_column: ]
[weight_column: ]
[group_column: ]
[ignore_column: ]
[categorical_feature: ]
[predict_raw_score: 0]
[predict_leaf_index: 0]
[predict_contrib: 0]
[num_iteration_predict: -1]
[pred_early_stop: 0]
[pred_early_stop_freq: 10]
[pred_early_stop_margin: 10]
[convert_model_language: ]
[convert_model: gbdt_prediction.cpp]
[num_class: 1]
[is_unbalance: 0]
[scale_pos_weight: 1]
[sigmoid: 1]
[boost_from_average: 1]
[reg_sqrt: 0]
[alpha: 0.9]
[fair_c: 1]
[poisson_max_delta_step: 0.7]
[tweedie_variance_power: 1.5]
[max_position: 20]
[label_gain: ]
[metric_freq: 1]
[is_provide_training_metric: 0]
[eval_at: ]
[num_machines: 1]
[local_listen_port: 12400]
[time_out: 120]
[machine_list_filename: ]
[machines: ]
[gpu_platform_id: -1]
[gpu_device_id: -1]
[gpu_use_dp: 0]

end of parameters

pandas_categorical:null
