tree
version=v2
num_class=1
num_tree_per_iteration=1
label_index=0
max_feature_idx=110
objective=binary sigmoid:1
feature_names=Column_0 Column_1 Column_2 Column_3 Column_4 Column_5 Column_6 Column_7 Column_8 Column_9 Column_10 Column_11 Column_12 Column_13 Column_14 Column_15 Column_16 Column_17 Column_18 Column_19 Column_20 Column_21 Column_22 Column_23 Column_24 Column_25 Column_26 Column_27 Column_28 Column_29 Column_30 Column_31 Column_32 Column_33 Column_34 Column_35 Column_36 Column_37 Column_38 Column_39 Column_40 Column_41 Column_42 Column_43 Column_44 Column_45 Column_46 Column_47 Column_48 Column_49 Column_50 Column_51 Column_52 Column_53 Column_54 Column_55 Column_56 Column_57 Column_58 Column_59 Column_60 Column_61 Column_62 Column_63 Column_64 Column_65 Column_66 Column_67 Column_68 Column_69 Column_70 Column_71 Column_72 Column_73 Column_74 Column_75 Column_76 Column_77 Column_78 Column_79 Column_80 Column_81 Column_82 Column_83 Column_84 Column_85 Column_86 Column_87 Column_88 Column_89 Column_90 Column_91 Column_92 Column_93 Column_94 Column_95 Column_96 Column_97 Column_98 Column_99 Column_100 Column_101 Column_102 Column_103 Column_104 Column_105 Column_106 Column_107 Column_108 Column_109 Column_110
feature_infos=[-1:1] [-1:1] [-1:1] [-1:1] [-1:1] [-1:1] [-1:1] [-1:1] [-1:1] [-1:1] [-1:1] [-1:1] [-1:1] [-1:1] [-1:1] [-1:1] [-1:1] [-1:1] [-1:1] [-1:1] [-1:1] [-1:1] [-1:1] [-1:1] [-1:1] [-1:1] [-1:1] [-1:1] [-1:1] [-1:1] [-1:1] [-1:1] [-1:1] [-1:1] [-1:1] [-1:1] [-1:1] [-1:1] [-1:1] [-1:1] [-1:1] [-1:1] [-1:1] [-1:1] [-1:1] [-1:1] [-1:1] [-1:1] [-1:1] [-1:1] [-1:1] [-1:1] [-1:1] [-1:1] [-1:1] [-1:1] [-1:1] [-1:1] [-1:1] [-1:1] [-1:1] [-1:1] [-1:1] [-1:1] [-1:1] [-1:1] [-1:1] [-1:1] [-1:1] [-1:1] [-1:1] [-1:1] [-1:1] [-1:1] [-1:1] [-1:1] [-1:1] [-1:1] [-1:1] [-1:1] [-1:1] [-1:1] [-1:1] [-1:1] [-1:1] [-1:1] [-1:1] [-1:1] [-1:1] [-1:1] [-1:1] [-1:1] [-1:1] [-1:1] [-1:1] [-1:1] [-1:1] [-1:1] [-1:1] [-1:1] [-1:1] [-1:1] [-1:1] [-1:1] [-1:1] [-1:1] [-1:1] [-1:1] [-1:1] [-1:1] [-1:1]
tree_sizes=4725 4737 4735 4779 4717 4800

Tree=0
num_leaves=56
num_cat=0
split_feature=91 74 63 54 40 75 66 95 83 24 72 89 11 90 71 65 17 20 29 27 85 7 28 57 69 80 12 62 104 11 48 88 80 49 8 57 53 37 13 40 64 4 44 30 24 64 99 69 96 0 106 82 109 41 94
split_gain=15.3309 8.80051 8.06879 7.06902 6.42613 8.83213 9.72285 10.6122 9.10209 9.3373 9.63823 15.6575 9.6135 10.197 7.71996 8.67301 7.30103 9.9515 9.47014 8.4517 7.70259 7.25802 8.03834 7.4636 8.36084 11.2691 7.73023 7.98524 11.898 6.86105 7.5481 7.17536 6.74391 6.40365 7.71613 7.03837 12.6125 12.3246 11.2357 16.4499 10.4037 10.1541 8.98549 8.51591 8.26941 8.16549 8.53276 8.31168 8.09151 7.77212 7.72741 7.65003 8.42417 10.0519 7.4853
threshold=1.0000000180025095e-35 1.0000000180025095e-35 1.0000000180025095e-35 1.0000000180025095e-35 1.0000000180025095e-35 1.0000000180025095e-35 1.0000000180025095e-35 1.0000000180025095e-35 1.0000000180025095e-35 1.0000000180025095e-35 1.0000000180025095e-35 1.0000000180025095e-35 1.0000000180025095e-35 1.0000000180025095e-35 1.0000000180025095e-35 1.0000000180025095e-35 1.0000000180025095e-35 1.0000000180025095e-35 1.0000000180025095e-35 1.0000000180025095e-35 1.0000000180025095e-35 1.0000000180025095e-35 1.0000000180025095e-35 1.0000000180025095e-35 1.0000000180025095e-35 1.0000000180025095e-35 1.0000000180025095e-35 1.0000000180025095e-35 1.0000000180025095e-35 1.0000000180025095e-35 1.0000000180025095e-35 1.0000000180025095e-35 1.0000000180025095e-35 1.0000000180025095e-35 1.0000000180025095e-35 1.0000000180025095e-35 1.0000000180025095e-35 1.0000000180025095e-35 1.0000000180025095e-35 1.0000000180025095e-35 1.0000000180025095e-35 1.0000000180025095e-35 1.0000000180025095e-35 1.0000000180025095e-35 1.0000000180025095e-35 1.0000000180025095e-35 1.0000000180025095e-35 1.0000000180025095e-35 1.0000000180025095e-35 1.0000000180025095e-35 1.0000000180025095e-35 1.0000000180025095e-35 1.0000000180025095e-35 1.0000000180025095e-35 1.0000000180025095e-35
decision_type=2 2 2 2 2 2 2 2 2 2 2 2 2 2 2 2 2 2 2 2 2 2 2 2 2 2 2 2 2 2 2 2 2 2 2 2 2 2 2 2 2 2 2 2 2 2 2 2 2 2 2 2 2 2 2
left_child=3 33 -3 -1 -4 -6 14 -8 9 12 11 -11 -9 -14 15 21 -12 18 -18 -20 -19 22 32 24 26 29 -23 28 -28 30 -26 -31 -7 34 -2 -35 44 45 41 43 -41 -39 -43 -40 -37 47 -47 48 49 51 -44 54 53 -53 -38
right_child=1 2 4 -5 5 6 7 8 -10 10 16 -13 13 -15 -16 -17 17 20 19 -21 -22 23 -24 -25 25 -27 27 -29 -30 31 -32 -33 -34 35 -36 36 37 38 39 40 -42 42 50 -45 -46 46 -48 -49 -50 -51 -52 52 -54 -55 -56
leaf_value=0.076751990927012584 0.075218281616318147 0.075209757738896724 0.075705431670930634 0.075865814165518339 0.075994440291895199 0.095292954550941916 0.077819832436405237 0.074167883658021683 0.079989755918175628 0.12037632643371846 0.096056574092365038 0.088496679209665668 0.078314136970294546 0.10204476072522986 0.074088702929506103 0.075454096549179436 0.068520652470020815 0.040050391040808674 0.079758520167269559 0.14138553657153685 0.082596606449045026 0.076636890251367135 0.070398627450230469 0.096186203756961297 0.072055143116736151 0.052026362785349278 0.12713428902805002 0.13111436717082564 0.052878651310089148 0.097673350517347254 0.13292692647683349 0.04019117440771159 0.075949628181172485 0.076377178350508154 0.073366312437027334 0.071030924055529632 0.10509754721673986 0.072795904629520791 0.070825939991705181 0.082153687821637095 0.070123993498007381 0.075774014796303996 0.079654138364416802 0.059718575521316694 0.074851374670091925 0.077478865932138249 0.085296713928310564 0.072090896027002818 0.085192300108290972 0.066722035927905321 0.094293605012264706 0.080638906115901951 0.084636035284692726 0.028402673163713484 0.075858076091050108
leaf_count=180380 45210 89458 44828 180201 22422 362 5698 711 2865 286 363 335 352 374 5614 2799 85 97 39 52 76 153 665 664 34 170 40 78 47 43 51 44 360 44835 44910 11342 197 2839 1385 1428 1452 1508 738 1380 11353 2825 2768 2801 1395 676 707 70 199 78 158
internal_value=0 -0.00931545 0.000618265 0.00915553 0.014031 0.030961 0.0590162 0.100275 0.161862 0.243669 0.364318 0.546548 0.131751 0.293753 0.0169818 0.0702024 0.205379 -0.00131829 0.333756 0.782452 -0.342203 0.150887 0.0497071 0.25688 0.106156 -0.111062 0.339768 0.640257 0.223357 0.250126 0.654537 -0.144989 0.195935 -0.0191891 -0.0311193 -0.00726081 -0.0248562 0.00860724 -0.0375722 -0.101115 0.00474741 0.0243582 0.106526 -0.211381 -0.0581854 0.0559032 0.109932 0.00169016 0.0793658 -0.0294131 0.21931 0.118087 -0.09324 -0.454847 0.324652
internal_count=720000 359419 179165 360581 89707 44879 22457 11333 5635 2770 1333 621 1437 726 11124 5510 712 349 176 91 173 2711 1387 1324 660 342 318 165 87 172 85 87 722 180254 90120 90134 45299 22604 11437 5645 2880 5792 2953 2765 22695 11167 5593 5574 2773 1378 1445 702 347 148 355
shrinkage=1


Tree=1
num_leaves=56
num_cat=0
split_feature=91 74 63 9 46 26 88 41 101 44 57 96 22 63 27 107 70 18 8 47 92 7 37 107 2 76 20 53 87 77 32 44 64 23 58 90 108 60 7 43 59 14 36 109 86 64 36 99 87 93 79 66 7 10 76
split_gain=13.8357 7.94214 7.2825 6.80151 10.3577 9.78762 8.19435 7.43201 7.39586 7.63002 13.4503 14.3968 9.63435 6.25481 7.21159 8.94939 6.93759 14.64 8.69014 13.7624 7.78748 7.51142 7.35816 7.81697 9.6264 7.79983 7.08349 8.25936 7.07642 6.82404 6.55235 9.54108 8.3703 9.89256 7.89962 12.0586 11.026 8.70059 7.97303 7.72512 7.18525 6.40726 6.35006 6.16196 7.389 7.27928 12.1414 9.25453 8.00552 7.88361 7.33351 6.82704 6.81156 6.41254 6.25808
threshold=1.0000000180025095e-35 1.0000000180025095e-35 1.0000000180025095e-35 1.0000000180025095e-35 1.0000000180025095e-35 1.0000000180025095e-35 1.0000000180025095e-35 1.0000000180025095e-35 1.0000000180025095e-35 1.0000000180025095e-35 1.0000000180025095e-35 1.0000000180025095e-35 1.0000000180025095e-35 1.0000000180025095e-35 1.0000000180025095e-35 1.0000000180025095e-35 1.0000000180025095e-35 1.0000000180025095e-35 1.0000000180025095e-35 1.0000000180025095e-35 1.0000000180025095e-35 1.0000000180025095e-35 1.0000000180025095e-35 1.0000000180025095e-35 1.0000000180025095e-35 1.0000000180025095e-35 1.0000000180025095e-35 1.0000000180025095e-35 1.0000000180025095e-35 1.0000000180025095e-35 1.0000000180025095e-35 1.0000000180025095e-35 1.0000000180025095e-35 1.0000000180025095e-35 1.0000000180025095e-35 1.0000000180025095e-35 1.0000000180025095e-35 1.0000000180025095e-35 1.0000000180025095e-35 1.0000000180025095e-35 1.0000000180025095e-35 1.0000000180025095e-35 1.0000000180025095e-35 1.0000000180025095e-35 1.0000000180025095e-35 1.0000000180025095e-35 1.0000000180025095e-35 1.0000000180025095e-35 1.0000000180025095e-35 1.0000000180025095e-35 1.0000000180025095e-35 1.0000000180025095e-35 1.0000000180025095e-35 1.0000000180025095e-35 1.0000000180025095e-35
decision_type=2 2 2 2 2 2 2 2 2 2 2 2 2 2 2 2 2 2 2 2 2 2 2 2 2 2 2 2 2 2 2 2 2 2 2 2 2 2 2 2 2 2 2 2 2 2 2 2 2 2 2 2 2 2 2
left_child=3 -2 -3 -1 5 -5 7 -7 -6 -10 11 12 -11 -9 15 30 17 22 -19 21 -21 -20 23 24 25 28 -22 -28 -16 -18 32 -32 34 40 35 -15 -37 42 -39 -40 -34 -38 -36 45 -45 46 52 48 -47 50 -50 -51 53 -17 -48
right_child=1 2 -4 4 8 6 -8 13 9 10 -12 -13 -14 14 16 43 29 18 19 20 26 -23 -24 -25 -26 -27 27 -29 -30 -31 31 -33 33 -35 37 36 41 38 39 -41 -42 -43 -44 44 -46 47 54 -49 49 51 -52 -53 -54 -55 -56
leaf_value=6.5760374098694783e-07 -0.00091144429049869278 -0.00060949608219867946 0.00066652384873706807 0.0005838587772723638 0.001012128524638566 -0.00049229883678312311 0.0040219820431765503 0.00081337429588132211 0.00049721808647718718 -0.0039968936142159052 0.00037396778096973881 -0.00097392904854547071 -0.01228669902192793 0.060979736863767932 -0.03987614935102269 -0.025592889076598471 -0.010495526075269539 0.0078540003210646869 -0.01574391950823404 0.023878398674369656 -0.052461981799546344 -0.05916401808612657 0.026659844682538705 0.021505038949004081 0.017729244967687241 -0.058065675163114554 0.041075949544781776 -0.040237825905159175 0.034691774170436708 0.0036251507818750653 0.0098474902236165979 0.032903323135442232 -0.037895663923837711 0.013596533005293739 0.060982221730677182 -0.025584051963232719 0.0062042347916228752 -0.043883820441754519 -0.027657966917590555 0.058178803031286509 0.0022139879059429159 0.086307799914311423 0.0014516746494308724 -0.013549374506441128 0.0072427003621702698 0.059234737926312314 0.00018490505543399455 0.0038848479836590503 0.00019287843364311719 0.023489346254345803 0.072048135464637439 -0.056281896615679533 0.040144092659941739 0.029567731798777769 -0.035779559522574375
leaf_count=180453 180254 89458 89707 44967 45312 11289 22504 5729 22506 2813 10986 5632 2803 85 25 46 660 326 84 94 35 76 368 174 79 48 29 22 26 713 359 360 97 184 34 46 20 50 21 21 83 20 38 350 335 81 100 182 25 22 33 21 82 39 94
internal_value=0 -0.00884931 0.000587641 0.00869787 0.0173983 0.0325732 0.0534035 0.0264882 0.00221923 -0.0160345 -0.0423312 -0.0909816 -0.162688 0.0627357 0.110385 0.18141 0.0375843 0.137476 -0.0764017 -0.30027 0.0793746 -0.72737 0.335312 0.128433 -0.166457 -0.582238 -0.355859 0.11999 -0.0372233 -0.0632529 0.293682 0.427829 0.155697 -0.0544144 0.383997 0.684986 0.156596 0.0701609 -0.337662 0.305208 -0.388012 0.925116 0.591267 0.0684998 -0.0676195 0.197109 -0.00427188 0.39683 0.715964 0.340051 0.821519 -0.309374 0.39134 -0.00567629 -0.344824
internal_count=720000 359419 179165 360581 180128 90076 45109 22605 90052 44740 22234 11248 5616 11316 5587 2828 2759 1386 666 340 180 160 720 352 178 99 86 51 51 1373 1418 719 699 364 335 171 86 164 92 42 180 40 72 1410 685 725 361 364 182 101 58 43 167 85 194
shrinkage=0.05


Tree=2
num_leaves=56
num_cat=0
split_feature=91 74 63 54 40 75 66 95 83 24 72 89 11 90 4 29 71 65 7 28 17 100 51 101 72 2 5 26 103 9 24 80 90 67 102 104 108 31 54 17 2 6 77 98 70 97 6 51 19 37 38 59 73 80 24
split_gain=12.4871 7.16742 6.57244 6.38911 5.80077 7.97373 8.77849 9.58547 8.22617 8.44419 8.72093 14.194 8.68433 9.22157 7.22334 7.72077 6.96903 7.83285 6.55937 7.25714 7.03112 6.95403 6.89527 6.42376 6.35159 8.12687 8.71622 8.29674 7.45933 8.1793 6.53461 6.93819 6.33455 6.29469 8.78975 9.49871 10.4647 9.56895 8.11023 9.79092 7.81706 7.16706 7.09812 10.5551 8.46941 7.98651 6.18089 6.16214 8.60881 7.66587 8.31808 6.12159 11.7389 6.09449 6.05764
threshold=1.0000000180025095e-35 1.0000000180025095e-35 1.0000000180025095e-35 1.0000000180025095e-35 1.0000000180025095e-35 1.0000000180025095e-35 1.0000000180025095e-35 1.0000000180025095e-35 1.0000000180025095e-35 1.0000000180025095e-35 1.0000000180025095e-35 1.0000000180025095e-35 1.0000000180025095e-35 1.0000000180025095e-35 1.0000000180025095e-35 1.0000000180025095e-35 1.0000000180025095e-35 1.0000000180025095e-35 1.0000000180025095e-35 1.0000000180025095e-35 1.0000000180025095e-35 1.0000000180025095e-35 1.0000000180025095e-35 1.0000000180025095e-35 1.0000000180025095e-35 1.0000000180025095e-35 1.0000000180025095e-35 1.0000000180025095e-35 1.0000000180025095e-35 1.0000000180025095e-35 1.0000000180025095e-35 1.0000000180025095e-35 1.0000000180025095e-35 1.0000000180025095e-35 1.0000000180025095e-35 1.0000000180025095e-35 1.0000000180025095e-35 1.0000000180025095e-35 1.0000000180025095e-35 1.0000000180025095e-35 1.0000000180025095e-35 1.0000000180025095e-35 1.0000000180025095e-35 1.0000000180025095e-35 1.0000000180025095e-35 1.0000000180025095e-35 1.0000000180025095e-35 1.0000000180025095e-35 1.0000000180025095e-35 1.0000000180025095e-35 1.0000000180025095e-35 1.0000000180025095e-35 1.0000000180025095e-35 1.0000000180025095e-35 1.0000000180025095e-35
decision_type=2 2 2 2 2 2 2 2 2 2 2 2 2 2 2 2 2 2 2 2 2 2 2 2 2 2 2 2 2 2 2 2 2 2 2 2 2 2 2 2 2 2 2 2 2 2 2 2 2 2 2 2 2 2 2
left_child=3 -2 -3 -1 -4 -6 16 -8 9 12 11 -11 -9 -14 15 -12 17 18 19 53 22 -22 23 -20 25 -19 -27 28 29 -28 32 -32 46 40 35 36 -35 -38 41 -40 -21 -36 45 -44 -45 -42 -29 48 -10 -50 -51 52 -26 -7 -37
right_child=1 2 4 -5 5 6 7 8 47 10 14 -13 13 -15 -16 -17 -18 24 20 33 21 -23 -24 -25 51 26 27 30 -30 -31 31 -33 -34 34 38 54 37 -39 39 -41 42 -43 43 44 -46 -47 -48 -49 49 50 -52 -53 -54 -55 -56
leaf_value=0.00083421613709282129 -0.00086584193763431763 -0.00057900569011353148 -0.00017195178864053178 -8.282073235822659e-06 0.00010261523244579814 0.018452537742618472 0.0018369242913572181 -0.0016325557662267101 -0.0085262744939503792 0.042361770901958924 -0.016074935894932977 0.0119864935918957 0.0023066096219831571 0.024880976694546437 0.01995352398608782 0.013298166785819222 -0.0017077650765778677 -0.012658418829088159 0.028659292324468455 -0.030419401053043912 0.029724974743443145 0.0096140506032522006 -0.0059407892689325656 0.00018155434983043749 -0.0013803165115593814 0.013694133261709025 -0.042996854791407253 0.0033435009327831933 0.027269752638561698 0.01930066007993602 -0.011929567514678087 -0.069862747157566504 0.027664412460512672 -0.030863420137826777 0.075490835380428195 -0.0085625616046070985 -0.0083241656436105812 0.081736530732851587 0.029819188115832215 -0.040746016339136958 0.045525274957955719 0.015515430456041167 -0.05862571341387577 -0.028587822328314569 0.058426703435414312 -0.012658637661729082 -0.067538300043754593 0.0085355383375373788 -0.0037468620041870059 0.0019184327862533661 0.031849991072849623 -0.0023541134299030915 0.024421058226408068 6.0042966681474972e-05 -0.063632028594802631
leaf_count=180380 180254 89458 44828 180201 22422 362 5698 711 714 286 166 335 352 374 351 195 5614 713 165 164 328 363 315 153 371 349 46 28 87 39 37 47 35 33 38 40 21 27 45 35 51 42 40 24 21 44 22 1434 345 185 187 688 337 360 40
internal_value=0 -0.00840669 0.000558268 0.00826338 0.0126642 0.0287505 0.0554107 0.0946216 0.153169 0.230972 0.345777 0.519262 0.124541 0.278595 0.194574 -0.00427119 0.0154697 0.0660442 0.142745 0.0465645 0.243557 0.383202 0.0911167 0.299113 -0.0082144 -0.103318 0.0515269 -0.176045 0.133412 -0.288266 -0.490996 -0.886891 -0.0997577 -0.104249 0.0973118 -0.23282 0.250268 0.8467 0.429507 -0.0210618 -0.292334 0.880075 -0.00437406 -0.424512 0.240379 0.371539 -0.55689 0.0779783 -0.0149486 0.139977 0.339293 0.0873663 0.218017 0.185559 -0.721946
internal_count=720000 359419 179165 360581 89707 44879 22457 11333 5635 2770 1333 621 1437 726 712 361 11124 5510 2711 1387 1324 691 633 318 2799 1403 690 341 172 85 169 84 85 665 321 161 81 48 160 80 344 80 180 85 45 95 50 2865 1431 717 372 1396 708 722 80
shrinkage=0.05


Tree=3
num_leaves=56
num_cat=0
split_feature=91 74 13 104 15 57 106 19 26 73 5 1 18 109 86 76 8 105 6 69 1 85 4 109 97 72 6 64 107 79 4 54 64 31 42 89 88 46 110 106 53 42 56 39 49 3 10 95 24 36 86 72 21 10 63
split_gain=11.2693 6.46865 6.20967 11.2006 8.53504 7.812 7.73438 7.41635 6.79939 11.6902 8.54746 8.84115 8.45014 10.1127 7.34963 8.29646 8.71545 8.33669 8.43547 7.67039 12.1328 10.0842 7.786 7.89194 7.10129 7.09069 8.89373 7.93721 7.24517 8.82123 6.76704 6.73426 8.14632 7.76382 6.72822 7.19205 6.50326 7.71915 6.50301 6.41917 9.31895 8.1211 10.5107 9.68954 7.76759 7.30922 9.98223 8.95815 7.8328 7.59882 7.28562 7.028 6.8966 10.5368 8.16379
threshold=1.0000000180025095e-35 1.0000000180025095e-35 1.0000000180025095e-35 1.0000000180025095e-35 1.0000000180025095e-35 1.0000000180025095e-35 1.0000000180025095e-35 1.0000000180025095e-35 1.0000000180025095e-35 1.0000000180025095e-35 1.0000000180025095e-35 1.0000000180025095e-35 1.0000000180025095e-35 1.0000000180025095e-35 1.0000000180025095e-35 1.0000000180025095e-35 1.0000000180025095e-35 1.0000000180025095e-35 1.0000000180025095e-35 1.0000000180025095e-35 1.0000000180025095e-35 1.0000000180025095e-35 1.0000000180025095e-35 1.0000000180025095e-35 1.0000000180025095e-35 1.0000000180025095e-35 1.0000000180025095e-35 1.0000000180025095e-35 1.0000000180025095e-35 1.0000000180025095e-35 1.0000000180025095e-35 1.0000000180025095e-35 1.0000000180025095e-35 -1.0000000180025095e-35 1.0000000180025095e-35 1.0000000180025095e-35 1.0000000180025095e-35 1.0000000180025095e-35 1.0000000180025095e-35 1.0000000180025095e-35 1.0000000180025095e-35 1.0000000180025095e-35 1.0000000180025095e-35 1.0000000180025095e-35 1.0000000180025095e-35 1.0000000180025095e-35 1.0000000180025095e-35 1.0000000180025095e-35 1.0000000180025095e-35 1.0000000180025095e-35 1.0000000180025095e-35 1.0000000180025095e-35 1.0000000180025095e-35 1.0000000180025095e-35 1.0000000180025095e-35
decision_type=2 2 2 2 2 2 2 2 2 2 2 2 2 2 2 2 2 2 2 2 2 2 2 2 2 2 2 2 2 2 2 2 2 2 2 2 2 2 2 2 2 2 2 2 2 2 2 2 2 2 2 2 2 2 2
left_child=-1 -2 3 4 39 -6 -4 -8 9 -7 14 -12 -11 25 15 -10 19 18 -18 24 22 -22 23 -21 -17 -14 27 28 29 -27 -9 32 33 -19 -29 -36 37 -26 -15 40 41 43 52 -3 45 50 47 -47 -48 -49 -41 -44 -43 -54 -55
right_child=1 2 6 -5 5 8 7 30 10 12 11 -13 13 38 -16 16 17 31 -20 20 21 -23 -24 -25 36 26 -28 34 -30 -31 -32 -33 -34 -35 35 -37 -38 -39 -40 44 -42 42 51 -45 -46 46 48 49 -50 -51 -52 -53 53 54 -56
leaf_value=0.00039251739014075569 -0.00082252326535689935 -0.0032038739988729374 -0.00031968957780309504 -0.0016786979951147658 0.001061861287335767 -0.0048036408145059224 0.00025940383686037549 0.0045546073988620072 0.0013318587269851791 -0.0012198018592955153 -0.0035972992707961008 -0.014874206825776441 0.011551999012685575 0.0092393192545463555 0.0037438458599506489 -0.064985330024043705 0.030227230283533787 0.056254436182710643 -0.011117205892198631 -0.063861954044982044 -0.0060380964516560378 -0.074648071604967878 0.04028349952147138 0.021253253292757696 0.048680311350351002 0.010523234665038659 0.0072064146131174157 -0.068542142479022086 0.033365852329052974 -0.075275525549872824 0.0010811697694522446 -0.041604871125357115 -0.044612502338326664 -0.022014848282602754 -0.058452853540746391 0.019291389196453811 -0.049272807251447795 -0.037121534261948287 0.028348732830214808 -0.011334436392447552 0.00075558648614776163 0.011376829040340918 0.0097858557882723306 0.0084810792744209138 0.0028637475484581776 -0.013020444366899395 0.014264141108988417 -0.0074240459788223788 -0.00052583603384278568 0.014035450820547369 -0.0010794991925640383 0.024335276774163965 -0.015178763920425387 0.024202600066338321 -0.0054506863241261215
leaf_count=360581 180254 1392 44518 44907 11038 2808 22581 11296 683 1396 1431 1356 345 384 1436 72 103 30 95 20 45 41 50 24 21 28 182 51 35 21 11173 77 27 22 22 26 44 21 333 1345 5649 714 692 1452 5612 683 732 330 703 331 1433 640 343 183 189
internal_value=0 -0.00798602 0.000530865 -0.0112502 0.0111821 -0.0165741 0.0123157 0.0308042 -0.0537422 -0.00463611 -0.103138 -0.181681 0.0863149 0.194622 -0.0252654 -0.129851 -0.284305 -0.0648217 0.207797 -0.514169 -0.231689 -0.774949 0.265321 -0.348712 -0.835975 0.0253051 -0.16915 -0.480716 -0.0282026 -0.524966 0.0565481 -0.410865 -0.000321935 0.462812 -0.864666 -0.326828 -0.447744 0.115576 0.362286 0.0387452 0.0724809 0.1303 0.207621 0.0552364 0.00475235 -0.0482897 0.0242843 -0.0996635 0.140373 0.0664359 -0.120891 0.335531 0.0883994 -0.0505456 0.182757
internal_count=720000 359419 179165 89597 44690 22267 89568 45050 11229 5631 5598 2787 2823 1427 2811 1375 692 354 198 338 180 86 94 44 158 710 365 183 84 49 22469 156 79 52 99 48 86 42 717 22423 11254 5605 2761 2844 11169 5557 2779 1344 1435 661 2778 1332 1429 715 372
shrinkage=0.05


Tree=4
num_leaves=56
num_cat=0
split_feature=91 9 46 26 88 83 41 54 77 27 57 110 104 85 53 80 45 63 13 93 10 21 45 73 26 56 74 82 17 33 75 32 13 44 13 85 52 50 8 67 103 21 39 17 29 25 28 28 100 10 51 6 68 17 40
split_gain=10.1702 6.1401 9.35018 8.83628 7.3965 7.18013 6.70943 6.23893 8.51245 13.1112 6.6419 8.22964 13.5983 7.53991 8.25743 7.53239 9.40309 16.4002 7.59446 11.1761 7.44304 7.35961 7.09244 6.98865 7.17876 7.6601 6.88298 6.8777 6.67799 7.01725 12.6631 6.59862 9.16364 7.0134 9.00617 7.76389 6.79613 9.10152 6.57616 10.2034 8.06191 6.44736 6.40653 8.89133 8.16088 6.40878 9.03685 6.40068 6.26487 6.16383 6.12971 8.89564 12.9746 10.5002 8.25933
threshold=1.0000000180025095e-35 1.0000000180025095e-35 1.0000000180025095e-35 1.0000000180025095e-35 1.0000000180025095e-35 1.0000000180025095e-35 1.0000000180025095e-35 1.0000000180025095e-35 1.0000000180025095e-35 1.0000000180025095e-35 1.0000000180025095e-35 1.0000000180025095e-35 1.0000000180025095e-35 1.0000000180025095e-35 1.0000000180025095e-35 1.0000000180025095e-35 1.0000000180025095e-35 1.0000000180025095e-35 1.0000000180025095e-35 1.0000000180025095e-35 1.0000000180025095e-35 1.0000000180025095e-35 1.0000000180025095e-35 1.0000000180025095e-35 1.0000000180025095e-35 1.0000000180025095e-35 1.0000000180025095e-35 1.0000000180025095e-35 1.0000000180025095e-35 1.0000000180025095e-35 1.0000000180025095e-35 1.0000000180025095e-35 1.0000000180025095e-35 1.0000000180025095e-35 1.0000000180025095e-35 1.0000000180025095e-35 1.0000000180025095e-35 1.0000000180025095e-35 1.0000000180025095e-35 1.0000000180025095e-35 1.0000000180025095e-35 1.0000000180025095e-35 1.0000000180025095e-35 1.0000000180025095e-35 1.0000000180025095e-35 1.0000000180025095e-35 1.0000000180025095e-35 1.0000000180025095e-35 1.0000000180025095e-35 1.0000000180025095e-35 1.0000000180025095e-35 1.0000000180025095e-35 1.0000000180025095e-35 1.0000000180025095e-35 1.0000000180025095e-35
decision_type=2 2 2 2 2 2 2 2 2 2 2 2 2 2 2 2 2 2 2 2 2 2 2 2 2 2 2 2 2 2 2 2 2 2 2 2 2 2 2 2 2 2 2 2 2 2 2 2 2 2 2 2 2 2 2
left_child=1 -1 3 -3 6 -4 -5 -7 9 10 11 12 -9 14 -14 50 -17 18 19 -18 26 -15 49 24 25 -19 42 -22 -16 -30 -31 32 -29 47 35 -35 -34 -38 -28 48 -41 -36 45 -44 -45 46 -13 -33 -40 -23 -12 53 54 -52 -53
right_child=-2 2 5 4 -6 7 -8 8 -10 -11 15 20 13 21 28 16 17 23 -20 -21 27 22 -24 -25 -26 -27 38 31 29 30 -32 33 36 34 41 -37 37 -39 39 40 -42 -43 43 44 -46 -47 -48 -49 -50 -51 51 52 -54 -55 -56
leaf_value=-3.968825111988204e-05 -0.00037931951594797318 0.00051446632637154838 -0.00083303151794374684 -0.00050777723764269941 0.0037813574633463508 0.0021305400908855666 0.0029405863904860717 -0.017145552269388339 0.0017100943698611659 -0.0055505377361624014 0.0063536401256053662 0.050553361368697342 0.026206004418775811 -0.023592815705564461 -0.024778053330409246 0.01804165931149939 -0.023884234209844223 -0.049377126040131399 0.031461163084064096 0.027901406090636644 0.0204037951596754 -0.039970036005740318 0.024084114982768121 -0.029677920858370583 0.021183603068897161 0.011960617576603055 -0.00013918218593108822 0.012288679136365728 0.038080547095174985 0.037927311911130281 -0.06383839964156543 0.068476654342475227 -0.056548019219277469 -0.063808050388229662 -0.008454301104798459 0.01445796581084708 0.041731164253746567 -0.049296086314771934 -0.0303336145009175 0.027985925354324499 -0.034035287780502972 0.069064270461407992 0.04171096029968558 -0.031481779947784408 0.031349179877547602 -0.027097816089713657 -0.016312912420761893 0.0079296190265827054 -0.086240586088247306 0.012459570679729517 0.022689841848567135 0.026062543143563717 -0.036510553785524508 -0.012851236986479955 -0.016834024972888485
leaf_count=180453 359419 44967 44796 11289 22504 22603 11316 720 11387 5688 677 35 197 167 81 709 85 44 173 82 356 47 97 159 80 38 164 81 55 24 25 36 55 30 21 22 22 22 49 41 43 22 88 47 37 86 48 34 34 43 166 77 184 167 108
internal_value=0 0.00745794 0.0157249 0.0301439 0.0499381 0.0013029 0.0243655 0.0190839 -0.00438959 -0.0433956 0.0255528 -0.0425264 -0.147353 0.0439537 0.238962 0.0956164 0.200728 0.0289973 0.335326 0.0308692 0.0686367 -0.166482 0.106231 -0.295463 -0.00288872 -0.419046 -0.0818707 0.212916 -0.0646906 0.270897 -0.279895 0.011536 -0.253473 0.300639 -0.0535468 -0.613917 -0.661941 -0.0756528 -0.287463 -0.56702 -0.0752621 0.624105 0.117695 0.389626 -0.0761369 -0.159062 0.23767 0.781362 -1.0647 -0.298424 -0.00880973 -0.139853 -0.353886 0.0973188 0.0204044
internal_count=720000 360581 180128 90076 45109 90052 22605 45256 22653 11266 5578 2829 1456 736 382 2749 1370 661 340 167 1373 354 187 321 162 82 672 701 185 104 49 345 180 165 95 52 99 44 331 167 84 43 341 172 84 169 83 70 83 90 1379 702 369 333 185
shrinkage=0.05


Tree=5
num_leaves=56
num_cat=0
split_feature=91 66 108 10 44 48 33 110 90 14 49 47 21 96 54 87 39 35 63 58 46 92 27 96 19 32 83 43 95 78 28 58 8 87 72 92 1 29 110 20 81 12 53 19 24 85 104 16 51 18 82 23 89 37 49
split_gain=7.69597 6.02491 8.56399 8.83859 9.21044 8.01581 8.15663 7.54243 7.43098 8.32769 11.6076 10.8954 15.2131 8.56888 9.09195 7.4758 7.36905 7.54273 8.78502 7.47169 7.39102 8.62183 7.35226 9.76143 7.32457 7.29521 9.0974 9.49521 7.07264 9.71581 7.03932 8.8256 11.5716 8.85271 9.48687 9.41405 9.43721 8.73961 8.69652 11.3017 9.04401 7.65734 8.47568 7.73925 7.38869 7.3126 7.20527 9.42968 6.94163 10.9812 8.42835 7.88576 11.8853 7.60866 6.90265
threshold=1.0000000180025095e-35 1.0000000180025095e-35 1.0000000180025095e-35 1.0000000180025095e-35 1.0000000180025095e-35 1.0000000180025095e-35 1.0000000180025095e-35 1.0000000180025095e-35 1.0000000180025095e-35 1.0000000180025095e-35 1.0000000180025095e-35 1.0000000180025095e-35 1.0000000180025095e-35 1.0000000180025095e-35 1.0000000180025095e-35 1.0000000180025095e-35 1.0000000180025095e-35 1.0000000180025095e-35 1.0000000180025095e-35 1.0000000180025095e-35 1.0000000180025095e-35 1.0000000180025095e-35 1.0000000180025095e-35 1.0000000180025095e-35 1.0000000180025095e-35 1.0000000180025095e-35 1.0000000180025095e-35 1.0000000180025095e-35 1.0000000180025095e-35 1.0000000180025095e-35 1.0000000180025095e-35 1.0000000180025095e-35 1.0000000180025095e-35 1.0000000180025095e-35 1.0000000180025095e-35 1.0000000180025095e-35 1.0000000180025095e-35 1.0000000180025095e-35 1.0000000180025095e-35 1.0000000180025095e-35 1.0000000180025095e-35 1.0000000180025095e-35 1.0000000180025095e-35 1.0000000180025095e-35 1.0000000180025095e-35 1.0000000180025095e-35 1.0000000180025095e-35 1.0000000180025095e-35 1.0000000180025095e-35 1.0000000180025095e-35 1.0000000180025095e-35 1.0000000180025095e-35 1.0000000180025095e-35 1.0000000180025095e-35 1.0000000180025095e-35
decision_type=2 2 2 2 2 2 2 2 2 2 2 2 2 2 2 2 2 2 2 2 2 2 2 2 2 2 2 2 2 2 2 2 2 2 2 2 2 2 2 2 2 2 2 2 2 2 2 2 2 2 2 2 2 2 2
left_child=1 -1 -3 4 5 8 -7 -8 9 16 13 -12 -13 14 15 -11 17 18 -4 -20 -19 -22 -5 -24 -17 -15 -27 -28 -23 -30 41 -32 33 35 -35 44 37 -37 40 -40 -34 42 43 -10 -33 -45 47 -46 50 -50 51 52 -25 -54 -6
right_child=-2 2 3 22 54 6 7 -9 30 10 11 12 -14 25 -16 24 -18 20 19 -21 21 28 23 48 -26 26 27 -29 29 -31 31 32 38 34 -36 36 -38 -39 39 -41 -42 -43 -44 45 46 -47 -48 -49 49 -51 -52 -53 53 -55 -56
leaf_value=0.00072286320032894128 -0.0003401066478367851 0.00059529200854561743 -0.0076190731704609826 0.0015018007599497708 0.0014146624497380616 -0.0040011024477297537 0.005046779580156059 -0.0022948404324534518 -0.0067304679680643201 -0.0089006858426504912 -0.0086770695144152542 0.024445145958936716 -0.005672216299593455 -0.010730946599897904 -0.016227478385213663 0.0402200206846383 0.0063378638360710926 -0.02172111489959333 0.029874917203190361 0.00020345867827963396 -0.015986700403642567 0.033809747723890511 0.00099849112870823743 -0.011160640266573206 -0.00042321343129493144 -0.047331118666379547 -0.03898470823579165 0.0093321973820403581 0.021738390671461896 -0.054012610962606039 -0.0054344454494414732 -0.029665153673236595 -0.020691466024377114 -0.035090854162106451 -0.0039162301392390323 0.036137152590500786 0.047496942734270138 -0.024669505630656171 -0.032768454891409608 0.00094800096079458447 -0.053050832510105117 0.0013123766902995669 -0.0018090540793437129 -0.044098262019993763 0.029533284101478381 -0.01379043081656818 0.036586350590825559 -0.062292094211742415 -0.010056440264465427 -0.0011818091105217513 -0.0045797779014866763 0.0084238858155640684 -0.0030489657027991876 0.017898068689541132 -0.0020827855619539488
leaf_count=180414 359730 89880 351 22225 11212 5663 2809 2797 323 162 693 332 340 352 356 93 1437 343 169 171 182 93 11423 718 85 173 80 83 43 28 1440 105 173 180 214 40 74 58 191 208 173 1365 715 157 21 162 47 24 2817 2769 2793 1423 355 340 11396
internal_value=0 0.00628486 -0.0019129 -0.0157169 -0.0354994 -0.0641639 -0.0264449 0.0276767 -0.101994 -0.050042 -0.128414 0.00254932 0.184142 -0.257578 -0.100996 0.133096 0.0264377 -0.0780252 0.0697352 0.299037 -0.226213 -0.0198149 0.00417592 -0.0212119 0.416238 -0.415983 -0.626939 -0.287636 0.313024 -0.162687 -0.152992 -0.220759 -0.327775 -0.154523 -0.363167 0.068255 0.410403 0.00299663 -0.50521 -0.303833 -0.737429 -0.0795991 -0.186071 -0.353007 -0.230464 -0.574136 0.183637 -0.388796 -0.0631577 -0.113145 -0.0135527 0.0633068 -0.0426092 0.14397 -0.00696585
internal_count=720000 360270 179856 89976 45113 22505 11269 5606 11236 5566 2749 1365 672 1384 696 340 2817 1380 691 340 689 346 44863 22638 178 688 336 163 164 71 5670 2948 1508 763 394 369 172 98 745 399 346 2722 1357 642 197 319 92 45 11215 5586 5629 2836 1413 695 22608
shrinkage=0.05


end of trees

feature importances:
Column_24=7
Column_63=7
Column_10=6
Column_17=6
Column_54=6
Column_64=6
Column_72=6
Column_91=6
Column_6=5
Column_7=5
Column_8=5
Column_13=5
Column_26=5
Column_28=5
Column_44=5
Column_53=5
Column_57=5
Column_74=5
Column_80=5
Column_85=5
Column_90=5
Column_104=5
Column_4=4
Column_19=4
Column_21=4
Column_27=4
Column_29=4
Column_37=4
Column_40=4
Column_46=4
Column_49=4
Column_51=4
Column_66=4
Column_83=4
Column_87=4
Column_88=4
Column_89=4
Column_95=4
Column_96=4
Column_109=4
Column_110=4
Column_1=3
Column_2=3
Column_9=3
Column_11=3
Column_18=3
Column_20=3
Column_32=3
Column_36=3
Column_39=3
Column_41=3
Column_58=3
Column_69=3
Column_73=3
Column_75=3
Column_76=3
Column_77=3
Column_82=3
Column_86=3
Column_92=3
Column_106=3
Column_107=3
Column_108=3
Column_5=2
Column_12=2
Column_14=2
Column_23=2
Column_31=2
Column_33=2
Column_42=2
Column_43=2
Column_45=2
Column_47=2
Column_48=2
Column_56=2
Column_59=2
Column_65=2
Column_67=2
Column_70=2
Column_71=2
Column_79=2
Column_93=2
Column_97=2
Column_99=2
Column_100=2
Column_101=2
Column_103=2
Column_0=1
Column_3=1
Column_15=1
Column_16=1
Column_22=1
Column_25=1
Column_30=1
Column_35=1
Column_38=1
Column_50=1
Column_52=1
Column_60=1
Column_62=1
Column_68=1
Column_78=1
Column_81=1
Column_94=1
Column_98=1
Column_102=1
Column_105=1

parameters:
[boosting: gbdt]
[objective: binary]
[metric: binary_error]
[tree_learner: serial]
[device_type: cpu]
[data: ]
[valid: ]
[num_iterations: 100]
[learning_rate: 0.05]
[num_leaves: 56]
[num_threads: 0]
[max_depth: -1]
[min_data_in_leaf: 20]
[min_sum_hessian_in_leaf: 0.001]
[bagging_fraction: 0.9]
[bagging_freq: 5]
[bagging_seed: 3]
[feature_fraction: 1]
[feature_fraction_seed: 2]
[early_stopping_round: 0]
[max_delta_step: 0]
[lambda_l1: 0]
[lambda_l2: 0]
[min_gain_to_split: 0]
[drop_rate: 0.1]
[max_drop: 50]
[skip_drop: 0.5]
[xgboost_dart_mode: 0]
[uniform_drop: 0]
[drop_seed: 4]
[top_rate: 0.2]
[other_rate: 0.1]
[min_data_per_group: 100]
[max_cat_threshold: 32]
[cat_l2: 10]
[cat_smooth: 10]
[max_cat_to_onehot: 4]
[top_k: 20]
[monotone_constraints: ]
[feature_contri: ]
[forcedsplits_filename: ]
[refit_decay_rate: 0.9]
[verbosity: 1]
[max_bin: 255]
[min_data_in_bin: 3]
[bin_construct_sample_cnt: 200000]
[histogram_pool_size: -1]
[data_random_seed: 1]
[output_model: LightGBM_model.txt]
[snapshot_freq: -1]
[input_model: ]
[output_result: LightGBM_predict_result.txt]
[initscore_filename: ]
[valid_data_initscores: ]
[pre_partition: 0]
[enable_bundle: 1]
[max_conflict_rate: 0]
[is_enable_sparse: 1]
[sparse_threshold: 0.8]
[use_missing: 1]
[zero_as_missing: 0]
[two_round: 0]
[save_binary: 0]
[enable_load_from_binary_file: 1]
[header: 0]
[label_column: ]
[weight_column: ]
[group_column: ]
[ignore_column: ]
[categorical_feature: ]
[predict_raw_score: 0]
[predict_leaf_index: 0]
[predict_contrib: 0]
[num_iteration_predict: -1]
[pred_early_stop: 0]
[pred_early_stop_freq: 10]
[pred_early_stop_margin: 10]
[convert_model_language: ]
[convert_model: gbdt_prediction.cpp]
[num_class: 1]
[is_unbalance: 0]
[scale_pos_weight: 1]
[sigmoid: 1]
[boost_from_average: 1]
[reg_sqrt: 0]
[alpha: 0.9]
[fair_c: 1]
[poisson_max_delta_step: 0.7]
[tweedie_variance_power: 1.5]
[max_position: 20]
[label_gain: ]
[metric_freq: 1]
[is_provide_training_metric: 0]
[eval_at: ]
[num_machines: 1]
[local_listen_port: 12400]
[time_out: 120]
[machine_list_filename: ]
[machines: ]
[gpu_platform_id: -1]
[gpu_device_id: -1]
[gpu_use_dp: 0]

end of parameters

pandas_categorical:null
