tree
version=v2
num_class=1
num_tree_per_iteration=1
label_index=0
max_feature_idx=126
objective=binary sigmoid:1
feature_names=Column_0 Column_1 Column_2 Column_3 Column_4 Column_5 Column_6 Column_7 Column_8 Column_9 Column_10 Column_11 Column_12 Column_13 Column_14 Column_15 Column_16 Column_17 Column_18 Column_19 Column_20 Column_21 Column_22 Column_23 Column_24 Column_25 Column_26 Column_27 Column_28 Column_29 Column_30 Column_31 Column_32 Column_33 Column_34 Column_35 Column_36 Column_37 Column_38 Column_39 Column_40 Column_41 Column_42 Column_43 Column_44 Column_45 Column_46 Column_47 Column_48 Column_49 Column_50 Column_51 Column_52 Column_53 Column_54 Column_55 Column_56 Column_57 Column_58 Column_59 Column_60 Column_61 Column_62 Column_63 Column_64 Column_65 Column_66 Column_67 Column_68 Column_69 Column_70 Column_71 Column_72 Column_73 Column_74 Column_75 Column_76 Column_77 Column_78 Column_79 Column_80 Column_81 Column_82 Column_83 Column_84 Column_85 Column_86 Column_87 Column_88 Column_89 Column_90 Column_91 Column_92 Column_93 Column_94 Column_95 Column_96 Column_97 Column_98 Column_99 Column_100 Column_101 Column_102 Column_103 Column_104 Column_105 Column_106 Column_107 Column_108 Column_109 Column_110 Column_111 Column_112 Column_113 Column_114 Column_115 Column_116 Column_117 Column_118 Column_119 Column_120 Column_121 Column_122 Column_123 Column_124 Column_125 Column_126
feature_infos=[-1:1] [-1:1] [-1:1] [-1:1] [-1:1] [-1:1] [-1:1] [-1:1] [-1:1] [-1:1] [-1:1] [-1:1] [-1:1] [-1:1] [-1:1] [-1:1] [-1:1] [-1:1] [-1:1] [-1:1] [-1:1] [-1:1] [-1:1] [-1:1] [-1:1] [-1:1] [-1:1] [-1:1] [-1:1] [-1:1] [-1:1] [-1:1] [-1:1] [-1:1] [-1:1] [-1:1] [-1:1] [-1:1] [-1:1] [-1:1] [-1:1] [-1:1] [-1:1] [-1:1] [-1:1] [-1:1] [-1:1] [-1:1] [-1:1] [-1:1] [-1:1] [-1:1] [-1:1] [-1:1] [-1:1] [-1:1] [-1:1] [-1:1] [-1:1] [-1:1] [-1:1] [-1:1] [-1:1] [-1:1] [-1:1] [-1:1] [-1:1] [-1:1] [-1:1] [-1:1] [-1:1] [-1:1] [-1:1] [-1:1] [-1:1] [-1:1] [-1:1] [-1:1] [-1:1] [-1:1] [-1:1] [-1:1] [-1:1] [-1:1] [-1:1] [-1:1] [-1:1] [-1:1] [-1:1] [-1:1] [-1:1] [-1:1] [-1:1] [-1:1] [-1:1] [-1:1] [-1:1] [-1:1] [-1:1] [-1:1] [-1:1] [-1:1] [-1:1] [-1:1] [-1:1] [-1:1] [-1:1] [-1:1] [-1:1] [-1:1] [-1:1] [-1:1] [-1:1] [-1:1] [-1:1] [-1:1] [-1:1] [-1:1] [-1:1] [-1:1] [-1:1] [-1:1] [-1:1] [-1:1] [-1:1] [-1:1] [-1:1]
tree_sizes=5352

Tree=0
num_leaves=64
num_cat=0
split_feature=31 16 75 2 19 52 99 94 97 68 63 2 3 100 12 61 86 117 36 57 39 90 37 9 0 58 113 78 54 122 11 110 53 111 21 113 6 50 71 125 62 35 114 38 28 56 28 53 117 65 96 105 102 115 45 1 58 122 75 104 13 102 30
split_gain=8.36145 8.17763 8.08017 12.7912 7.28581 11.3715 9.93279 9.42813 9.26235 10.2556 9.13928 8.74744 16.4144 11.6811 11.1914 12.0736 8.69073 8.31142 10.1003 9.31417 9.03687 13.2976 9.90922 8.29772 8.06954 9.81281 9.28621 8.08667 7.70852 8.1266 9.45956 15.3561 10.3438 8.08657 7.81797 8.02312 7.76942 11.1597 9.7954 7.59071 8.52023 7.37269 7.26709 9.54259 7.49286 7.21827 8.98473 7.96781 8.88069 7.82144 10.269 8.57049 7.78625 8.25879 7.77207 8.21082 8.42712 7.11552 10.3459 7.80986 9.84272 7.77214 7.13602
threshold=1.0000000180025095e-35 1.0000000180025095e-35 1.0000000180025095e-35 1.0000000180025095e-35 1.0000000180025095e-35 1.0000000180025095e-35 1.0000000180025095e-35 1.0000000180025095e-35 1.0000000180025095e-35 1.0000000180025095e-35 1.0000000180025095e-35 1.0000000180025095e-35 1.0000000180025095e-35 1.0000000180025095e-35 1.0000000180025095e-35 1.0000000180025095e-35 1.0000000180025095e-35 1.0000000180025095e-35 1.0000000180025095e-35 1.0000000180025095e-35 1.0000000180025095e-35 1.0000000180025095e-35 1.0000000180025095e-35 1.0000000180025095e-35 1.0000000180025095e-35 1.0000000180025095e-35 1.0000000180025095e-35 1.0000000180025095e-35 1.0000000180025095e-35 1.0000000180025095e-35 1.0000000180025095e-35 1.0000000180025095e-35 1.0000000180025095e-35 1.0000000180025095e-35 1.0000000180025095e-35 1.0000000180025095e-35 1.0000000180025095e-35 1.0000000180025095e-35 1.0000000180025095e-35 1.0000000180025095e-35 1.0000000180025095e-35 1.0000000180025095e-35 1.0000000180025095e-35 1.0000000180025095e-35 1.0000000180025095e-35 1.0000000180025095e-35 1.0000000180025095e-35 1.0000000180025095e-35 1.0000000180025095e-35 1.0000000180025095e-35 1.0000000180025095e-35 1.0000000180025095e-35 1.0000000180025095e-35 1.0000000180025095e-35 1.0000000180025095e-35 1.0000000180025095e-35 1.0000000180025095e-35 1.0000000180025095e-35 1.0000000180025095e-35 1.0000000180025095e-35 1.0000000180025095e-35 1.0000000180025095e-35 1.0000000180025095e-35
decision_type=2 2 2 2 2 2 2 2 2 2 2 2 2 2 2 2 2 2 2 2 2 2 2 2 2 2 2 2 2 2 2 2 2 2 2 2 2 2 2 2 2 2 2 2 2 2 2 2 2 2 2 2 2 2 2 2 2 2 2 2 2 2 2
left_child=2 4 3 -1 5 -2 7 8 9 -6 16 12 13 -8 -15 -16 24 19 -19 20 22 39 23 -17 25 -7 57 -28 -11 34 -31 32 33 -32 42 -36 37 38 -37 40 -22 -33 44 -44 -30 46 -9 -48 -49 51 54 -50 53 -47 -51 -56 -57 58 59 60 62 -60 -26
right_child=1 -3 -4 -5 6 10 11 45 -10 28 -12 -13 -14 14 15 17 -18 18 -20 -21 21 -23 -24 -25 26 -27 27 -29 29 30 31 41 -34 -35 35 36 -38 -39 -40 -41 -42 -43 43 -45 -46 52 47 48 49 50 -52 -53 -54 -55 55 56 -58 -59 61 -61 -62 -63 -64
leaf_value=0.16617534411559648 0.16552289709018383 0.16696685443918771 0.16628124949265652 0.16448286569503673 0.16384791773015742 0.16286845538691441 0.15912583337064717 0.1667665267415811 0.16489957516730555 0.1615213055100799 0.16921842522489916 0.16781134543531956 0.16771148313142337 0.17024616748527899 0.15469408190689821 0.12070838553584828 0.16834675129455048 0.17210648981064786 0.14773616929900127 0.18673335832959756 0.10506204946380829 0.17742061833655634 0.20400508474593451 0.18407275497205516 0.18188380402789531 0.17120511809108743 0.15220337788775321 0.16306591301934503 0.1703291923276285 0.14037515629565048 0.21043966407216275 0.12700551623960479 0.154251517403383 0.16717201744970453 0.14190664731087022 0.23612114408874552 0.14786048009336095 0.15126691874399681 0.16787451798527211 0.092136815317340456 0.19442052307172003 0.15716399495786054 0.16014701209402865 0.1932443371403228 0.14214218355281491 0.16101348029020301 0.16481089588502426 0.1628834575039485 0.14821565379153151 0.14207225873098758 0.13143369655297249 0.17127366601193567 0.17017161444143875 0.1688040372056204 0.19572820805134802 0.18620557896892889 0.12424142916501861 0.17091357787792752 0.14259669489469257 0.15887653240204472 0.19433077998488282 0.16304683165637157 0.14214218355281491
leaf_count=89997 44869 180325 179622 89857 5649 2824 5719 5798 11298 2791 22365 22793 11364 2679 1424 38 11109 345 340 362 21 77 85 46 92 2863 1402 1359 201 699 88 170 170 86 380 45 162 77 40 46 22 157 172 179 180 2762 2889 1388 336 192 336 314 5716 2719 77 39 51 1375 384 376 204 365 90
internal_value=0 0.00675865 -0.00691964 -0.0164284 -0.00280283 0.0100183 -0.0155043 -0.0365733 -0.0656176 -0.106391 0.032633 0.00547188 -0.022536 -0.0770455 -0.0108767 -0.099454 0.00402097 0.0341753 -0.122818 0.188466 -0.0526993 -0.385284 0.273982 -0.214865 -0.0350776 0.0182838 -0.0888169 -0.172022 -0.167277 -0.241556 -0.352131 -0.181923 0.114083 0.458066 -0.136064 -0.28706 -0.055037 0.25574 0.757078 -0.91362 -0.307417 -0.493318 0.00915624 0.21749 -0.182774 -0.00762284 -0.0431241 -0.10029 -0.17797 -0.294185 -0.442189 -0.135935 0.0285855 -0.0254596 -0.206184 0.110438 -0.301172 -0.0092152 -0.104276 0.0603664 0.260893 -0.271776 -0.0783965
internal_count=720000 360524 359476 179854 180199 89677 90522 45161 22544 11246 44808 45361 22568 11204 5485 2806 22443 1382 685 697 335 166 169 84 11334 5687 5647 2761 5597 2806 1370 671 344 174 1436 704 324 162 85 89 43 327 732 351 381 22617 11420 5622 2733 1345 695 650 11197 5481 359 167 90 2886 1511 762 386 749 182
shrinkage=1


end of trees

feature importances:
Column_2=2
Column_28=2
Column_53=2
Column_58=2
Column_75=2
Column_102=2
Column_113=2
Column_117=2
Column_122=2
Column_0=1
Column_1=1
Column_3=1
Column_6=1
Column_9=1
Column_11=1
Column_12=1
Column_13=1
Column_16=1
Column_19=1
Column_21=1
Column_30=1
Column_31=1
Column_35=1
Column_36=1
Column_37=1
Column_38=1
Column_39=1
Column_45=1
Column_50=1
Column_52=1
Column_54=1
Column_56=1
Column_57=1
Column_61=1
Column_62=1
Column_63=1
Column_65=1
Column_68=1
Column_71=1
Column_78=1
Column_86=1
Column_90=1
Column_94=1
Column_96=1
Column_97=1
Column_99=1
Column_100=1
Column_104=1
Column_105=1
Column_110=1
Column_111=1
Column_114=1
Column_115=1
Column_125=1

parameters:
[boosting: gbdt]
[objective: binary]
[metric: binary_error]
[tree_learner: serial]
[device_type: cpu]
[data: ]
[valid: ]
[num_iterations: 100]
[learning_rate: 0.05]
[num_leaves: 64]
[num_threads: 0]
[max_depth: -1]
[min_data_in_leaf: 20]
[min_sum_hessian_in_leaf: 0.001]
[bagging_fraction: 0.9]
[bagging_freq: 5]
[bagging_seed: 3]
[feature_fraction: 1]
[feature_fraction_seed: 2]
[early_stopping_round: 0]
[max_delta_step: 0]
[lambda_l1: 0]
[lambda_l2: 0]
[min_gain_to_split: 0]
[drop_rate: 0.1]
[max_drop: 50]
[skip_drop: 0.5]
[xgboost_dart_mode: 0]
[uniform_drop: 0]
[drop_seed: 4]
[top_rate: 0.2]
[other_rate: 0.1]
[min_data_per_group: 100]
[max_cat_threshold: 32]
[cat_l2: 10]
[cat_smooth: 10]
[max_cat_to_onehot: 4]
[top_k: 20]
[monotone_constraints: ]
[feature_contri: ]
[forcedsplits_filename: ]
[refit_decay_rate: 0.9]
[verbosity: 1]
[max_bin: 255]
[min_data_in_bin: 3]
[bin_construct_sample_cnt: 200000]
[histogram_pool_size: -1]
[data_random_seed: 1]
[output_model: LightGBM_model.txt]
[snapshot_freq: -1]
[input_model: ]
[output_result: LightGBM_predict_result.txt]
[initscore_filename: ]
[valid_data_initscores: ]
[pre_partition: 0]
[enable_bundle: 1]
[max_conflict_rate: 0]
[is_enable_sparse: 1]
[sparse_threshold: 0.8]
[use_missing: 1]
[zero_as_missing: 0]
[two_round: 0]
[save_binary: 0]
[enable_load_from_binary_file: 1]
[header: 0]
[label_column: ]
[weight_column: ]
[group_column: ]
[ignore_column: ]
[categorical_feature: ]
[predict_raw_score: 0]
[predict_leaf_index: 0]
[predict_contrib: 0]
[num_iteration_predict: -1]
[pred_early_stop: 0]
[pred_early_stop_freq: 10]
[pred_early_stop_margin: 10]
[convert_model_language: ]
[convert_model: gbdt_prediction.cpp]
[num_class: 1]
[is_unbalance: 0]
[scale_pos_weight: 1]
[sigmoid: 1]
[boost_from_average: 1]
[reg_sqrt: 0]
[alpha: 0.9]
[fair_c: 1]
[poisson_max_delta_step: 0.7]
[tweedie_variance_power: 1.5]
[max_position: 20]
[label_gain: ]
[metric_freq: 1]
[is_provide_training_metric: 0]
[eval_at: ]
[num_machines: 1]
[local_listen_port: 12400]
[time_out: 120]
[machine_list_filename: ]
[machines: ]
[gpu_platform_id: -1]
[gpu_device_id: -1]
[gpu_use_dp: 0]

end of parameters

pandas_categorical:null
