tree
version=v2
num_class=1
num_tree_per_iteration=1
label_index=0
max_feature_idx=86
objective=binary sigmoid:1
feature_names=Column_0 Column_1 Column_2 Column_3 Column_4 Column_5 Column_6 Column_7 Column_8 Column_9 Column_10 Column_11 Column_12 Column_13 Column_14 Column_15 Column_16 Column_17 Column_18 Column_19 Column_20 Column_21 Column_22 Column_23 Column_24 Column_25 Column_26 Column_27 Column_28 Column_29 Column_30 Column_31 Column_32 Column_33 Column_34 Column_35 Column_36 Column_37 Column_38 Column_39 Column_40 Column_41 Column_42 Column_43 Column_44 Column_45 Column_46 Column_47 Column_48 Column_49 Column_50 Column_51 Column_52 Column_53 Column_54 Column_55 Column_56 Column_57 Column_58 Column_59 Column_60 Column_61 Column_62 Column_63 Column_64 Column_65 Column_66 Column_67 Column_68 Column_69 Column_70 Column_71 Column_72 Column_73 Column_74 Column_75 Column_76 Column_77 Column_78 Column_79 Column_80 Column_81 Column_82 Column_83 Column_84 Column_85 Column_86
feature_infos=[-1:1] [-1:1] [-1:1] [-1:1] [-1:1] [-1:1] [-1:1] [-1:1] [-1:1] [-1:1] [-1:1] [-1:1] [-1:1] [-1:1] [-1:1] [-1:1] [-1:1] [-1:1] [-1:1] [-1:1] [-1:1] [-1:1] [-1:1] [-1:1] [-1:1] [-1:1] [-1:1] [-1:1] [-1:1] [-1:1] [-1:1] [-1:1] [-1:1] [-1:1] [-1:1] [-1:1] [-1:1] [-1:1] [-1:1] [-1:1] [-1:1] [-1:1] [-1:1] [-1:1] [-1:1] [-1:1] [-1:1] [-1:1] [-1:1] [-1:1] [-1:1] [-1:1] [-1:1] [-1:1] [-1:1] [-1:1] [-1:1] [-1:1] [-1:1] [-1:1] [-1:1] [-1:1] [-1:1] [-1:1] [-1:1] [-1:1] [-1:1] [-1:1] [-1:1] [-1:1] [-1:1] [-1:1] [-1:1] [-1:1] [-1:1] [-1:1] [-1:1] [-1:1] [-1:1] [-1:1] [-1:1] [-1:1] [-1:1] [-1:1] [-1:1] [-1:1] [-1:1]
tree_sizes=3789 3811 3760 3758 3817 3836

Tree=0
num_leaves=44
num_cat=0
split_feature=86 43 16 58 17 40 41 53 47 37 83 71 6 2 68 9 47 18 46 1 0 19 3 45 69 26 79 50 12 20 64 20 16 57 62 82 73 31 51 39 59 48 21
split_gain=7.16576 8.72677 6.72304 7.17995 7.9293 10.5705 9.81724 6.62813 7.8169 9.75407 7.48103 8.7359 8.27151 10.2219 9.00781 6.80248 6.78258 7.15215 8.05831 6.76443 6.61781 7.68896 11.2473 9.07038 9.4664 16.8438 12.2518 8.45238 11.3646 7.78527 7.38983 10.9638 6.93237 6.74296 7.02526 11.6222 8.68611 8.13707 8.97115 7.92012 9.32008 7.26713 6.62384
threshold=1.0000000180025095e-35 1.0000000180025095e-35 1.0000000180025095e-35 1.0000000180025095e-35 1.0000000180025095e-35 1.0000000180025095e-35 1.0000000180025095e-35 1.0000000180025095e-35 1.0000000180025095e-35 1.0000000180025095e-35 1.0000000180025095e-35 1.0000000180025095e-35 1.0000000180025095e-35 1.0000000180025095e-35 1.0000000180025095e-35 1.0000000180025095e-35 1.0000000180025095e-35 1.0000000180025095e-35 1.0000000180025095e-35 1.0000000180025095e-35 1.0000000180025095e-35 1.0000000180025095e-35 1.0000000180025095e-35 1.0000000180025095e-35 1.0000000180025095e-35 1.0000000180025095e-35 1.0000000180025095e-35 1.0000000180025095e-35 1.0000000180025095e-35 1.0000000180025095e-35 1.0000000180025095e-35 1.0000000180025095e-35 1.0000000180025095e-35 1.0000000180025095e-35 1.0000000180025095e-35 1.0000000180025095e-35 1.0000000180025095e-35 1.0000000180025095e-35 1.0000000180025095e-35 1.0000000180025095e-35 1.0000000180025095e-35 1.0000000180025095e-35 1.0000000180025095e-35
decision_type=2 2 2 2 2 2 2 2 2 2 2 2 2 2 2 2 2 2 2 2 2 2 2 2 2 2 2 2 2 2 2 2 2 2 2 2 2 2 2 2 2 2 2
left_child=2 -2 3 4 -1 -6 7 10 9 -9 11 -7 -13 16 -15 19 17 18 -14 -16 -3 22 23 -22 25 -25 33 -28 -29 32 31 -27 -30 -26 35 42 -37 -36 -39 41 -41 -40 -35
right_child=1 20 -4 -5 5 6 -8 8 -10 -11 -12 12 13 14 15 -17 -18 -19 -20 -21 21 -23 -24 24 26 30 27 28 29 -31 -32 -33 -34 34 37 36 -38 38 39 40 -42 -43 -44
leaf_value=-0.0080550181088055658 -0.0070556803028013967 -0.0074335691988405795 -0.0086123178573503465 -0.0083794786168872471 -0.0077253947827220894 -0.0068854387033802896 -0.0067247125940434801 0.0094188432524958902 -0.0039347614722852302 -0.002257644160755282 -0.0086096159007401901 0.011820896225095618 0.03831537900769804 0.0011235248868350679 -0.039155838973355131 -0.048042717703685907 0.024578600099359152 -0.023931804722231879 -0.020268744837865366 0.016996784385756615 -0.0099690823394701124 -0.0077196333559145201 -0.011142629688796115 -0.014358273776323609 -0.0033526633763306599 -0.0074480352425825725 -0.013228470782652272 0.0075521949838982944 0.012765040949129237 -0.021408363468557168 -0.008310689491395894 0.010379536428629601 -0.01523258585911955 -0.00034410107339308965 0.024370634934801086 -0.0034931722826817791 0.027748035679886505 0.017957760095961596 0.036738689455578115 -0.00047118397445193756 -0.064895725471658228 -0.026198323025683659 -0.027930277318901832
leaf_count=45142 179687 89867 179856 90184 22354 1422 11475 1417 2761 1445 2841 711 59 175 41 101 153 91 39 45 11424 44920 22628 2793 1343 664 1384 640 188 351 1507 718 167 183 352 177 179 185 43 43 47 32 166
internal_value=0 0.00582721 -0.00679189 0.001833 0.0144425 0.0331895 0.0635136 0.105355 0.154028 0.22727 0.057154 0.129802 0.241059 0.0873868 -0.146858 -0.45206 0.335331 0.0819153 0.456827 -0.0386722 -0.00401557 -0.0161246 -0.0345368 -0.00296322 0.0375843 -0.0196154 0.0968926 0.0019792 0.114825 -0.0601496 0.0874536 0.193082 0.148687 0.191116 0.287873 0.146849 0.401105 0.429499 0.213558 -0.125495 -0.525501 0.354512 -0.112506
internal_count=720000 359688 360312 180456 90272 45130 22776 11301 5623 2862 5678 2837 1415 704 362 187 342 189 98 86 180001 90134 45214 22586 11162 5682 5480 2730 1346 706 2889 1382 355 2750 1407 705 356 702 350 165 90 75 349
shrinkage=1


Tree=1
num_leaves=44
num_cat=0
split_feature=86 43 16 58 17 40 41 12 24 66 0 84 14 34 36 22 4 3 82 62 72 30 56 6 27 40 69 78 76 19 84 38 4 16 41 21 47 83 27 45 44 32 33
split_gain=6.46717 7.87592 6.0676 6.47988 7.15618 9.53995 8.86025 6.28688 6.22315 8.33995 7.77587 7.99105 7.39176 9.33793 7.18675 10.2803 6.66669 6.21225 6.05306 7.23364 8.78253 6.92922 6.04677 10.1669 8.96195 12.3819 10.3381 8.85614 15.4097 8.51104 8.03888 7.78326 8.08391 8.29437 11.0202 6.55127 6.4104 6.46471 6.43024 13.668 8.45044 7.57725 7.22133
threshold=1.0000000180025095e-35 1.0000000180025095e-35 1.0000000180025095e-35 1.0000000180025095e-35 1.0000000180025095e-35 1.0000000180025095e-35 1.0000000180025095e-35 1.0000000180025095e-35 1.0000000180025095e-35 1.0000000180025095e-35 1.0000000180025095e-35 1.0000000180025095e-35 1.0000000180025095e-35 1.0000000180025095e-35 1.0000000180025095e-35 1.0000000180025095e-35 1.0000000180025095e-35 1.0000000180025095e-35 1.0000000180025095e-35 1.0000000180025095e-35 1.0000000180025095e-35 1.0000000180025095e-35 1.0000000180025095e-35 1.0000000180025095e-35 1.0000000180025095e-35 1.0000000180025095e-35 1.0000000180025095e-35 1.0000000180025095e-35 1.0000000180025095e-35 1.0000000180025095e-35 1.0000000180025095e-35 1.0000000180025095e-35 1.0000000180025095e-35 1.0000000180025095e-35 1.0000000180025095e-35 1.0000000180025095e-35 1.0000000180025095e-35 1.0000000180025095e-35 1.0000000180025095e-35 1.0000000180025095e-35 1.0000000180025095e-35 1.0000000180025095e-35 1.0000000180025095e-35
decision_type=2 2 2 2 2 2 2 2 2 2 2 2 2 2 2 2 2 2 2 2 2 2 2 2 2 2 2 2 2 2 2 2 2 2 2 2 2 2 2 2 2 2 2
left_child=2 -2 3 4 -1 -6 -7 8 18 10 -10 12 14 16 -12 -16 -14 -15 -8 -20 -21 -22 23 -3 26 27 -24 28 30 36 -26 -32 33 34 35 -33 -25 38 40 -40 -38 -42 -41
right_child=1 22 -4 -5 5 6 7 -9 9 -11 11 -13 13 17 15 -17 -18 -19 19 20 21 -23 24 29 25 -27 -28 -29 -30 -31 31 32 -34 -35 -36 -37 37 -39 39 42 41 -43 -44
leaf_value=-0.00020422827642683673 0.00074514320332287089 -0.0018329564324686999 -0.00073366753451182675 -0.00051246512013750078 0.00010891126823407834 0.005004408692067897 0.0019868742154532794 -0.001292788642040044 -0.0021383182897219285 -0.0054371714586370322 0.056586871944705824 0.0027235314584471457 0.019086448374401991 0.06033691430173619 -0.01966398931491195 0.052968410021255435 -0.040089751940439136 0.0067192874097273302 0.018111199909774011 -0.0057763018900170411 0.00033623658925008526 0.028255333663587956 0.0028803440713934597 -0.002752898978652189 0.0065822602604747281 -0.0022732413158207 -0.00013884665395932027 0.0030131616895550982 -0.0046462426676452326 0.0016802137269658719 -0.0065386904122534369 0.02131807495656704 -0.0036672526871443993 0.00098408421085314948 0.039015132687549581 -0.020217816247131731 -0.0056328388538296609 -0.0017936333230785769 0.013582652821258737 -0.0082487092108949524 -0.0020972682807806216 0.012502356410444558 0.0064125472298807388
leaf_count=45142 179687 45016 179856 90184 22354 11301 1454 5709 687 1403 96 377 32 40 40 38 47 47 737 409 162 197 22799 11328 2782 22473 22568 11338 5607 22284 1326 86 663 352 189 68 1452 5539 1363 646 710 712 700
internal_value=0 0.0055359 -0.00645231 0.00174137 0.0137203 0.03153 0.060338 0.0211911 0.0677729 0.000312119 0.10929 0.254984 0.477318 0.175401 0.765354 0.314421 -0.322393 0.627421 0.131768 0.220681 0.0848506 0.313135 -0.00381478 -0.0154391 0.007745 -0.012292 0.0275687 0.0209725 -0.0192585 0.00591471 0.056308 -0.02178 0.0846455 0.235361 0.4567 0.0595518 -0.0215704 0.0125375 0.0605661 0.130478 -0.00533248 0.104256 -0.0124799
internal_count=720000 359688 360312 180456 90272 45130 22776 11475 5766 2807 1404 717 340 166 174 78 79 87 2959 1505 768 359 180001 89750 90251 44884 45367 22411 11073 44734 5466 2684 1358 695 343 154 22450 11122 5583 2709 2874 1422 1346
shrinkage=0.05


Tree=2
num_leaves=44
num_cat=0
split_feature=86 43 0 19 3 45 69 26 79 50 12 20 10 64 20 77 65 58 12 63 81 39 85 30 28 57 62 82 73 31 51 39 59 48 53 68 49 84 18 37 50 22 8
split_gain=5.83652 7.10794 5.96643 6.66245 10.1591 8.27974 8.67339 15.1948 11.0568 7.62281 10.2383 7.02963 6.71998 6.67973 9.89127 6.29313 6.12865 7.83637 7.53125 9.95533 11.9248 9.76087 6.88767 7.9913 7.59807 6.08459 6.34473 10.489 7.83866 7.35207 8.10424 7.139 8.4269 6.56667 6.53957 6.99174 6.37829 6.01639 6.35335 6.33214 10.2813 9.48481 6.49118
threshold=1.0000000180025095e-35 1.0000000180025095e-35 1.0000000180025095e-35 1.0000000180025095e-35 1.0000000180025095e-35 1.0000000180025095e-35 1.0000000180025095e-35 1.0000000180025095e-35 1.0000000180025095e-35 1.0000000180025095e-35 1.0000000180025095e-35 1.0000000180025095e-35 1.0000000180025095e-35 1.0000000180025095e-35 1.0000000180025095e-35 1.0000000180025095e-35 1.0000000180025095e-35 1.0000000180025095e-35 1.0000000180025095e-35 1.0000000180025095e-35 1.0000000180025095e-35 1.0000000180025095e-35 1.0000000180025095e-35 1.0000000180025095e-35 1.0000000180025095e-35 1.0000000180025095e-35 1.0000000180025095e-35 1.0000000180025095e-35 1.0000000180025095e-35 1.0000000180025095e-35 1.0000000180025095e-35 1.0000000180025095e-35 1.0000000180025095e-35 1.0000000180025095e-35 1.0000000180025095e-35 1.0000000180025095e-35 1.0000000180025095e-35 1.0000000180025095e-35 1.0000000180025095e-35 1.0000000180025095e-35 1.0000000180025095e-35 1.0000000180025095e-35 1.0000000180025095e-35
decision_type=2 2 2 2 2 2 2 2 2 2 2 2 2 2 2 2 2 2 2 2 2 2 2 2 2 2 2 2 2 2 2 2 2 2 2 2 2 2 2 2 2 2 2
left_child=-1 -2 -3 4 5 37 7 -7 25 16 -11 12 -12 14 -9 -15 18 22 19 -10 -21 -20 -18 24 -24 -8 27 -27 -29 -28 34 33 -33 -32 -31 -36 -34 39 -39 -4 -41 42 -42
right_child=1 2 3 -5 -6 6 8 13 9 10 11 -13 -14 15 -16 -17 17 -19 21 20 -22 -23 23 -25 -26 26 29 28 -30 30 31 32 36 -35 35 -37 -38 38 -40 40 41 -43 -44
leaf_value=-0.00030648363901773692 0.00070787911163493471 0.00039538527058207091 -0.0031280377522825303 0.00010647021175415844 -0.0031106640403197284 -0.0061728065759729103 0.0043241849101163026 0.00039531451967447697 -0.023627032828410638 0.014673027291219491 -0.0056185590940141805 -0.012827405417395944 0.021979003448467524 0.0058387014093604752 0.017328500309322085 -0.0070914907811673996 -0.0083497767360849184 -0.0012273793088927059 0.030652942481984826 0.03406389888923058 -0.021658351345454064 -0.0040282103873426059 -0.046662833744347071 -0.057064407620425112 0.014382443133369619 -0.0052863610708605013 0.030670095552683109 0.0041894685973798288 0.033868744309872426 0.043270950933105984 0.042401658168502561 0.0070704131406473247 -0.014913743699792313 -0.017432102446946662 0.02879277733755109 -0.027197772493885337 -0.088781790213760786 -0.0009410875145169777 -0.007579581204071293 -0.0023873025632510153 0.026572293600502669 0.0010754491017145608 0.0080755368826128781
leaf_count=360312 179687 89867 2750 44920 22628 2793 1343 664 193 640 191 351 164 776 718 731 176 361 157 90 67 168 38 90 44 349 352 177 179 93 43 43 22 32 54 38 25 2868 2899 1452 376 696 383
internal_value=0 0.00525904 -0.00362408 -0.0151218 -0.0322613 -0.0022535 0.0364875 -0.0182643 0.093259 0.00309194 0.11026 -0.0558278 0.142615 0.0834284 0.183854 -0.00866693 -0.101133 -0.230996 0.035271 -0.168307 0.205687 0.254509 -0.445157 -0.729786 -0.278138 0.182772 0.274694 0.140672 0.382224 0.4093 0.20401 -0.118339 -0.498245 0.337408 0.491407 0.113328 -1.0841 -0.0401051 -0.0855635 0.00623708 0.0713193 0.190139 0.344772
internal_count=720000 359688 180001 90134 45214 22586 11162 5682 5480 2730 1346 706 355 2889 1382 1507 1384 709 675 350 157 325 348 172 82 2750 1407 705 356 702 350 165 90 75 185 92 47 11424 5767 5657 2907 1455 759
shrinkage=0.05


Tree=3
num_leaves=44
num_cat=0
split_feature=86 43 67 5 16 58 17 40 41 42 39 11 84 43 45 79 6 20 15 7 8 84 83 57 32 85 22 49 46 44 65 76 4 66 63 13 24 50 20 80 65 1 81
split_gain=5.2675 6.41491 5.49567 8.10589 5.47601 5.84814 6.45851 8.60996 7.99616 6.22903 8.07619 9.22021 7.87415 9.15416 11.3968 8.3081 8.12487 17.3733 7.89271 7.45823 9.35472 8.41924 6.92453 7.68533 7.99719 7.62231 6.81179 6.84374 6.76219 8.02273 6.70645 7.14625 6.48336 8.22762 7.01641 6.76923 7.95105 6.98009 6.45513 8.21906 7.67404 7.65117 6.49768
threshold=1.0000000180025095e-35 1.0000000180025095e-35 1.0000000180025095e-35 1.0000000180025095e-35 1.0000000180025095e-35 1.0000000180025095e-35 1.0000000180025095e-35 1.0000000180025095e-35 1.0000000180025095e-35 1.0000000180025095e-35 1.0000000180025095e-35 1.0000000180025095e-35 1.0000000180025095e-35 1.0000000180025095e-35 1.0000000180025095e-35 1.0000000180025095e-35 1.0000000180025095e-35 1.0000000180025095e-35 1.0000000180025095e-35 1.0000000180025095e-35 1.0000000180025095e-35 1.0000000180025095e-35 1.0000000180025095e-35 1.0000000180025095e-35 1.0000000180025095e-35 1.0000000180025095e-35 1.0000000180025095e-35 1.0000000180025095e-35 1.0000000180025095e-35 1.0000000180025095e-35 1.0000000180025095e-35 1.0000000180025095e-35 1.0000000180025095e-35 1.0000000180025095e-35 1.0000000180025095e-35 1.0000000180025095e-35 1.0000000180025095e-35 1.0000000180025095e-35 1.0000000180025095e-35 1.0000000180025095e-35 1.0000000180025095e-35 1.0000000180025095e-35 1.0000000180025095e-35
decision_type=2 2 2 2 2 2 2 2 2 2 2 2 2 2 2 2 2 2 2 2 2 2 2 2 2 2 2 2 2 2 2 2 2 2 2 2 2 2 2 2 2 2 2
left_child=4 2 -2 -4 5 6 -1 -8 -9 10 -10 -12 13 26 15 18 -17 28 -15 21 38 -13 -22 25 -25 -24 27 -11 29 -18 31 -28 34 -34 35 36 -23 -37 40 -40 41 -21 -42
right_child=1 -3 3 -5 -6 -7 7 8 9 12 11 19 -14 14 -16 16 17 -19 -20 20 22 32 23 24 -26 -27 30 -29 -30 -31 -32 -33 33 -35 -36 37 -38 -39 39 -41 42 -43 -44
leaf_value=-0.00017869361606021562 0.0012260900191099957 -0.00017214669600302141 0.0010705905604611349 -0.00082814978777817356 -0.00068166182279552363 -0.0004715207035164027 0.00011879096910519872 0.0047695096290846211 -0.00034738255531978238 -1.7794549557183885e-05 0.012859400731064372 -0.016656560415500454 -0.0050251709344503919 0.003161509249179649 0.016907281287476827 0.024323633091194896 -0.052084291672408259 0.026836699053946908 -0.026660762744639268 -0.0019341154096738031 -0.018630642796117529 0.071710971181004918 0.01773616197207107 0.058712527535049575 0.00036299305839991559 -0.040483266687757861 0.026981412396434607 -0.019656531456777832 -0.058214948072006091 0.031019995259589647 -0.0064556055334494475 -0.00077938052815688128 0.039402586424692826 -0.0030058854482358705 -0.027921522910024994 0.018812057786244049 -0.0086253165544062527 -0.056155529789111494 0.013926765728083733 0.058664742366113312 -0.040553271465189868 0.05674096084929392 0.012649581120853222
leaf_count=45142 89751 180001 44911 45025 179856 90184 22354 11301 2909 341 1416 354 2859 177 720 187 21 90 178 43 153 28 46 48 46 44 183 370 53 26 345 188 92 91 92 27 22 23 88 77 44 46 48
internal_value=0 0.00499611 0.0134497 0.00240034 -0.00582323 0.00196079 0.0133409 0.0302602 0.0576283 0.0204386 0.0670411 0.143149 -0.0261558 0.0476773 0.159481 -0.0162544 0.190512 -0.100776 -0.235834 0.0287869 0.17896 -0.11191 -0.0582124 0.203216 0.603172 -0.214524 -0.0660854 -0.204755 -0.674527 -0.122231 0.0716156 0.258276 0.0969195 0.366286 -0.159821 0.206899 0.727261 -0.313459 0.409966 0.696088 0.149137 0.567843 -0.255917
internal_count=720000 359688 179687 89936 360312 180456 90272 45130 22776 11475 5737 2828 5738 2879 1452 732 377 190 355 1412 683 729 337 184 94 90 1427 711 100 47 716 371 375 183 192 100 50 50 346 165 181 89 92
shrinkage=0.05


Tree=4
num_leaves=44
num_cat=0
split_feature=17 71 58 18 12 16 14 44 33 63 73 59 1 24 21 82 52 28 79 76 72 32 66 45 79 54 26 34 60 8 74 4 49 42 70 29 55 26 59 67 75 3 77
split_gain=4.97567 7.18173 7.65103 8.4323 7.80237 7.75394 10.8449 13.1984 8.69169 9.4461 8.50968 11.5172 10.0965 11.3816 8.96001 9.44946 7.88963 8.93609 7.40913 7.18637 7.68163 7.03249 8.10378 6.87663 6.68362 9.37758 6.47708 7.76556 6.59381 6.44624 6.36108 7.14601 7.65986 9.5073 7.30959 6.35415 7.14338 6.25753 6.53217 8.82792 7.78874 6.23664 6.18939
threshold=1.0000000180025095e-35 1.0000000180025095e-35 1.0000000180025095e-35 1.0000000180025095e-35 1.0000000180025095e-35 1.0000000180025095e-35 1.0000000180025095e-35 1.0000000180025095e-35 1.0000000180025095e-35 1.0000000180025095e-35 1.0000000180025095e-35 1.0000000180025095e-35 1.0000000180025095e-35 1.0000000180025095e-35 1.0000000180025095e-35 1.0000000180025095e-35 1.0000000180025095e-35 1.0000000180025095e-35 1.0000000180025095e-35 1.0000000180025095e-35 1.0000000180025095e-35 1.0000000180025095e-35 1.0000000180025095e-35 1.0000000180025095e-35 1.0000000180025095e-35 1.0000000180025095e-35 1.0000000180025095e-35 1.0000000180025095e-35 1.0000000180025095e-35 1.0000000180025095e-35 1.0000000180025095e-35 1.0000000180025095e-35 1.0000000180025095e-35 1.0000000180025095e-35 1.0000000180025095e-35 1.0000000180025095e-35 1.0000000180025095e-35 1.0000000180025095e-35 1.0000000180025095e-35 1.0000000180025095e-35 1.0000000180025095e-35 1.0000000180025095e-35 1.0000000180025095e-35
decision_type=2 2 2 2 2 2 2 2 2 2 2 2 2 2 2 2 2 2 2 2 2 2 2 2 2 2 2 2 2 2 2 2 2 2 2 2 2 2 2 2 2 2 2
left_child=-1 29 4 -4 5 8 7 -7 21 10 12 -12 18 19 -15 16 17 -16 35 23 -21 -3 26 -14 25 -5 -23 -28 -29 -2 31 -11 33 -33 -34 36 -10 38 39 40 -9 -13 -32
right_child=1 2 3 24 -6 6 -8 37 9 30 11 41 13 14 15 -17 -18 -19 -20 20 -22 22 -24 -25 -26 -27 27 28 -30 -31 42 32 34 -35 -36 -37 -38 -39 -40 -41 -42 -43 -44
leaf_value=-0.00028295650042719204 9.1286411685941637e-05 0.0032098926572518153 0.0001104574265367865 -0.0051074280110575167 -0.00048824839764809093 0.0057364884366119468 -0.0021236187236068184 -0.012070225704842053 -0.005961575643906902 0.01013607572510276 0.0050233818531413392 0.011419735343698318 0.024023967806012105 0.01176860804374792 -0.088658334444646131 0.0031114140481683381 -0.0074459005595756151 -0.018675939566291079 0.0050819957332875875 0.042480919376065837 0.012877498046400563 -0.0027822286657946237 -0.0056170479922911624 -0.0037292212370254076 -0.00061461530416391584 -0.0010036709610309782 -0.00079702955285105485 0.003826316605976406 0.022925386016086131 0.0012864823698002443 -0.0063154744918427754 -0.019559053772192116 0.017705046080076149 0.0037891585475602731 -0.0025500969067428396 -7.5970274919366968e-05 -0.034266542047692368 0.0021330416452835918 9.3350436394221939e-05 -0.017686510248776374 0.0096262403999165351 0.024635447401633301 0.0030413385079128084
leaf_count=359717 90331 5657 44886 11146 44846 5544 11321 336 194 1410 1437 752 160 364 36 214 78 37 664 187 165 1433 2786 202 22538 11128 697 340 386 90178 1406 334 349 365 364 353 165 2920 1479 667 326 680 1422
internal_value=0 0.00485624 -0.00409152 -0.0171666 0.00892875 0.0274638 0.00125155 0.0451655 0.0536254 0.0927483 0.150284 0.226967 0.0722417 0.189125 0.0133355 -0.208092 -0.59119 -1.06375 -0.0503328 0.368606 0.572088 0.0143673 -0.0355957 0.170746 -0.0365743 -0.0611442 0.0392693 0.13485 0.279617 0.0137676 0.0348254 0.102005 0.00143228 -0.147344 0.147289 -0.192061 -0.379415 -0.0221641 -0.0895746 -0.191337 -0.0277173 0.353908 -0.032212
internal_count=720000 360283 179774 89698 90076 45230 22593 11272 22637 11338 5688 2869 2819 1443 729 365 151 73 1376 714 352 11299 5642 362 44812 22274 2856 1423 726 180509 5650 2822 1412 699 713 712 359 5728 2808 1329 662 1432 2828
shrinkage=0.05


Tree=5
num_leaves=44
num_cat=0
split_feature=27 25 56 24 37 34 26 6 51 67 77 53 18 42 25 38 59 0 64 2 7 29 61 37 60 72 84 33 36 21 20 57 82 4 45 21 20 50 69 41 35 54 20
split_gain=4.88353 8.44786 6.35144 7.6203 11.6332 6.54854 8.42483 8.43124 9.36293 10.1777 6.4718 9.46869 10.0418 8.34864 8.2152 6.5666 6.35685 6.29313 8.62991 7.97556 10.8939 11.2686 7.46275 7.08724 8.47968 15.3298 8.14955 7.57693 6.87676 9.08468 10.1826 10.6271 7.23399 7.81294 7.18244 6.56348 8.1673 8.83352 6.67131 6.5526 10.8121 6.42523 6.35376
threshold=1.0000000180025095e-35 1.0000000180025095e-35 1.0000000180025095e-35 1.0000000180025095e-35 1.0000000180025095e-35 1.0000000180025095e-35 1.0000000180025095e-35 1.0000000180025095e-35 1.0000000180025095e-35 1.0000000180025095e-35 1.0000000180025095e-35 1.0000000180025095e-35 1.0000000180025095e-35 1.0000000180025095e-35 1.0000000180025095e-35 1.0000000180025095e-35 1.0000000180025095e-35 1.0000000180025095e-35 1.0000000180025095e-35 1.0000000180025095e-35 1.0000000180025095e-35 1.0000000180025095e-35 1.0000000180025095e-35 1.0000000180025095e-35 1.0000000180025095e-35 1.0000000180025095e-35 1.0000000180025095e-35 1.0000000180025095e-35 1.0000000180025095e-35 1.0000000180025095e-35 1.0000000180025095e-35 1.0000000180025095e-35 1.0000000180025095e-35 1.0000000180025095e-35 1.0000000180025095e-35 1.0000000180025095e-35 1.0000000180025095e-35 1.0000000180025095e-35 1.0000000180025095e-35 1.0000000180025095e-35 1.0000000180025095e-35 1.0000000180025095e-35 1.0000000180025095e-35
decision_type=2 2 2 2 2 2 2 2 2 2 2 2 2 2 2 2 2 2 2 2 2 2 2 2 2 2 2 2 2 2 2 2 2 2 2 2 2 2 2 2 2 2 2
left_child=2 -2 5 4 -4 6 7 8 -1 -10 -9 14 -13 -14 -12 -16 -8 22 -19 20 21 -20 -5 -22 -25 28 27 -27 32 -30 31 -31 33 -26 -32 36 37 38 -23 40 -28 -29 -24
right_child=1 -3 3 17 -6 -7 16 10 9 -11 11 12 13 -15 15 -17 -18 18 19 -21 23 35 42 24 25 26 39 41 29 30 34 -33 -34 -35 -36 -37 -38 -39 -40 -41 -42 -43 -44
leaf_value=-0.0032324994879609189 -0.00077976562450077745 0.00018951933478290707 0.00016024412528409739 0.0021194467048974912 0.0024329134792614102 0.0004075383441677525 -0.0005781245335904102 0.0032276618752113077 0.003888666581138539 -0.0021303266889397964 -0.0069865342157610661 0.0070700345835546883 -0.0068992949750795235 0.0039116596226733231 0.0056219982732075326 -0.0040900456486343125 -0.0029584148500702828 -0.0022241545274122427 -0.0090272928223709241 0.0024119319157818722 0.0054273296707229215 0.039158825076958823 0.0012094545645567651 0.00382484092223094 0.0075494212563713319 0.0084291173423500908 0.0015493989679743689 -0.0038531549178916604 -0.022830842849456516 -0.044706200696311579 0.063181826374283809 0.018947748408471004 -0.039655687782356341 -0.033016730354070822 0.0030844688978374554 -0.0048297428053812414 -0.0024715870297101748 0.0015453298794039431 0.010585103172659692 -0.00019581501482943456 0.049870771035520879 -0.041846107413067192 -0.002147043588038567
leaf_count=11280 179663 180016 45056 22504 45038 90339 22456 11301 5557 5682 2745 2730 1407 1451 1380 1405 22424 22526 2756 11342 2717 160 11378 1404 97 161 87 96 185 51 43 54 197 93 37 1416 731 340 167 163 99 83 11183
internal_value=0 -0.00589295 0.00452461 0.0129215 0.025927 -0.0038726 -0.0159657 0.00339201 -0.0239423 0.0169139 0.0308482 -0.00341161 0.0546517 -0.0282119 -0.0620838 0.0144477 -0.0353484 -8.75491e-05 -0.0168165 0.0109079 -0.0271101 -0.0896456 0.016619 0.0354592 -0.0342173 -0.141716 0.0741381 -0.146243 -0.33818 -0.143225 0.17017 -0.239399 -0.524571 -0.246134 0.70774 -0.000618906 0.0965929 0.256629 0.491324 0.28883 0.545376 -0.429399 -0.0090858
internal_count=720000 359679 360321 180164 90094 180157 89818 44938 22519 11239 22419 11118 5588 2858 5530 2785 44880 90070 45005 22479 11137 5570 45065 5567 2850 1446 689 340 757 370 185 105 387 190 80 2814 1398 667 327 349 186 179 22561
shrinkage=0.05


end of trees

feature importances:
Column_20=9
Column_16=6
Column_45=6
Column_84=6
Column_4=5
Column_12=5
Column_21=5
Column_26=5
Column_41=5
Column_43=5
Column_50=5
Column_58=5
Column_59=5
Column_79=5
Column_82=5
Column_0=4
Column_3=4
Column_6=4
Column_17=4
Column_18=4
Column_24=4
Column_37=4
Column_39=4
Column_40=4
Column_57=4
Column_69=4
Column_86=4
Column_1=3
Column_8=3
Column_19=3
Column_22=3
Column_27=3
Column_32=3
Column_33=3
Column_34=3
Column_42=3
Column_44=3
Column_47=3
Column_49=3
Column_51=3
Column_53=3
Column_62=3
Column_63=3
Column_64=3
Column_65=3
Column_66=3
Column_67=3
Column_72=3
Column_73=3
Column_76=3
Column_77=3
Column_83=3
Column_2=2
Column_7=2
Column_14=2
Column_25=2
Column_28=2
Column_29=2
Column_30=2
Column_31=2
Column_36=2
Column_38=2
Column_46=2
Column_48=2
Column_54=2
Column_56=2
Column_60=2
Column_68=2
Column_71=2
Column_81=2
Column_85=2
Column_5=1
Column_9=1
Column_10=1
Column_11=1
Column_13=1
Column_15=1
Column_35=1
Column_52=1
Column_55=1
Column_61=1
Column_70=1
Column_74=1
Column_75=1
Column_78=1
Column_80=1

parameters:
[boosting: gbdt]
[objective: binary]
[metric: binary_error]
[tree_learner: serial]
[device_type: cpu]
[data: ]
[valid: ]
[num_iterations: 100]
[learning_rate: 0.05]
[num_leaves: 44]
[num_threads: 0]
[max_depth: -1]
[min_data_in_leaf: 20]
[min_sum_hessian_in_leaf: 0.001]
[bagging_fraction: 0.9]
[bagging_freq: 5]
[bagging_seed: 3]
[feature_fraction: 1]
[feature_fraction_seed: 2]
[early_stopping_round: 0]
[max_delta_step: 0]
[lambda_l1: 0]
[lambda_l2: 0]
[min_gain_to_split: 0]
[drop_rate: 0.1]
[max_drop: 50]
[skip_drop: 0.5]
[xgboost_dart_mode: 0]
[uniform_drop: 0]
[drop_seed: 4]
[top_rate: 0.2]
[other_rate: 0.1]
[min_data_per_group: 100]
[max_cat_threshold: 32]
[cat_l2: 10]
[cat_smooth: 10]
[max_cat_to_onehot: 4]
[top_k: 20]
[monotone_constraints: ]
[feature_contri: ]
[forcedsplits_filename: ]
[refit_decay_rate: 0.9]
[verbosity: 1]
[max_bin: 255]
[min_data_in_bin: 3]
[bin_construct_sample_cnt: 200000]
[histogram_pool_size: -1]
[data_random_seed: 1]
[output_model: LightGBM_model.txt]
[snapshot_freq: -1]
[input_model: ]
[output_result: LightGBM_predict_result.txt]
[initscore_filename: ]
[valid_data_initscores: ]
[pre_partition: 0]
[enable_bundle: 1]
[max_conflict_rate: 0]
[is_enable_sparse: 1]
[sparse_threshold: 0.8]
[use_missing: 1]
[zero_as_missing: 0]
[two_round: 0]
[save_binary: 0]
[enable_load_from_binary_file: 1]
[header: 0]
[label_column: ]
[weight_column: ]
[group_column: ]
[ignore_column: ]
[categorical_feature: ]
[predict_raw_score: 0]
[predict_leaf_index: 0]
[predict_contrib: 0]
[num_iteration_predict: -1]
[pred_early_stop: 0]
[pred_early_stop_freq: 10]
[pred_early_stop_margin: 10]
[convert_model_language: ]
[convert_model: gbdt_prediction.cpp]
[num_class: 1]
[is_unbalance: 0]
[scale_pos_weight: 1]
[sigmoid: 1]
[boost_from_average: 1]
[reg_sqrt: 0]
[alpha: 0.9]
[fair_c: 1]
[poisson_max_delta_step: 0.7]
[tweedie_variance_power: 1.5]
[max_position: 20]
[label_gain: ]
[metric_freq: 1]
[is_provide_training_metric: 0]
[eval_at: ]
[num_machines: 1]
[local_listen_port: 12400]
[time_out: 120]
[machine_list_filename: ]
[machines: ]
[gpu_platform_id: -1]
[gpu_device_id: -1]
[gpu_use_dp: 0]

end of parameters

pandas_categorical:null
