tree
version=v2
num_class=1
num_tree_per_iteration=1
label_index=0
max_feature_idx=126
objective=binary sigmoid:1
feature_names=Column_0 Column_1 Column_2 Column_3 Column_4 Column_5 Column_6 Column_7 Column_8 Column_9 Column_10 Column_11 Column_12 Column_13 Column_14 Column_15 Column_16 Column_17 Column_18 Column_19 Column_20 Column_21 Column_22 Column_23 Column_24 Column_25 Column_26 Column_27 Column_28 Column_29 Column_30 Column_31 Column_32 Column_33 Column_34 Column_35 Column_36 Column_37 Column_38 Column_39 Column_40 Column_41 Column_42 Column_43 Column_44 Column_45 Column_46 Column_47 Column_48 Column_49 Column_50 Column_51 Column_52 Column_53 Column_54 Column_55 Column_56 Column_57 Column_58 Column_59 Column_60 Column_61 Column_62 Column_63 Column_64 Column_65 Column_66 Column_67 Column_68 Column_69 Column_70 Column_71 Column_72 Column_73 Column_74 Column_75 Column_76 Column_77 Column_78 Column_79 Column_80 Column_81 Column_82 Column_83 Column_84 Column_85 Column_86 Column_87 Column_88 Column_89 Column_90 Column_91 Column_92 Column_93 Column_94 Column_95 Column_96 Column_97 Column_98 Column_99 Column_100 Column_101 Column_102 Column_103 Column_104 Column_105 Column_106 Column_107 Column_108 Column_109 Column_110 Column_111 Column_112 Column_113 Column_114 Column_115 Column_116 Column_117 Column_118 Column_119 Column_120 Column_121 Column_122 Column_123 Column_124 Column_125 Column_126
feature_infos=[-1:1] [-1:1] [-1:1] [-1:1] [-1:1] [-1:1] [-1:1] [-1:1] [-1:1] [-1:1] [-1:1] [-1:1] [-1:1] [-1:1] [-1:1] [-1:1] [-1:1] [-1:1] [-1:1] [-1:1] [-1:1] [-1:1] [-1:1] [-1:1] [-1:1] [-1:1] [-1:1] [-1:1] [-1:1] [-1:1] [-1:1] [-1:1] [-1:1] [-1:1] [-1:1] [-1:1] [-1:1] [-1:1] [-1:1] [-1:1] [-1:1] [-1:1] [-1:1] [-1:1] [-1:1] [-1:1] [-1:1] [-1:1] [-1:1] [-1:1] [-1:1] [-1:1] [-1:1] [-1:1] [-1:1] [-1:1] [-1:1] [-1:1] [-1:1] [-1:1] [-1:1] [-1:1] [-1:1] [-1:1] [-1:1] [-1:1] [-1:1] [-1:1] [-1:1] [-1:1] [-1:1] [-1:1] [-1:1] [-1:1] [-1:1] [-1:1] [-1:1] [-1:1] [-1:1] [-1:1] [-1:1] [-1:1] [-1:1] [-1:1] [-1:1] [-1:1] [-1:1] [-1:1] [-1:1] [-1:1] [-1:1] [-1:1] [-1:1] [-1:1] [-1:1] [-1:1] [-1:1] [-1:1] [-1:1] [-1:1] [-1:1] [-1:1] [-1:1] [-1:1] [-1:1] [-1:1] [-1:1] [-1:1] [-1:1] [-1:1] [-1:1] [-1:1] [-1:1] [-1:1] [-1:1] [-1:1] [-1:1] [-1:1] [-1:1] [-1:1] [-1:1] [-1:1] [-1:1] [-1:1] [-1:1] [-1:1] [-1:1]
tree_sizes=5479 5597 5609 5610 5605 5594 5595 5590 5596 5598 5605 5601 5595 5596 5598 5612 5606 5611 5594 5601 5600 5620 5610 5599 5606 5604 5608 5605 5608 5611 5608 5599 5614 5608 5616 5618 5611 5609 5622 5618 5607 5616 5610 5624 5624 5620 5601 5616 5621 5621 5621 5621 5616 5620 5610 5609 5612 5620 5606 5616 5604 5619 5618 5617 5617 5629 5595 5609 5616 5619 5632 5614 5612 5614 5618 5622 5629 5605 5620 5620 5611 5619 5617 5618 5635 5616 5613 5610 5622 5619 5627 5617 5612 5627 5620 5623 5621 5625 5616 5614 5609 5621 5630 5627 5613 5635 5619 5628 5628 5636 5622 5625 5612 5621 5621 5627 5617 5616 5619 5611 5593 5627 5620 5620 5617 5618 5619 5610 5627 5630 5637 5628 5610 5615 5622 5636 5630 5615 5633 5617 5631 5614 5624 5639 5629 5623 5623 5630 5632 5630 5628 5642 5627 5611 5632 5623 5629 5629 5629 5615 5627 5632 5632 5621 5630 5616 5636 5625 5629 5635 5627 5618 5632 5616 5626 5629 5632 5629 5621 5641 5637 5631 5626 5631 5632 5635 5643 5639 5627 5609 5633 5632 5636 5629 5643 5637 5633 5633 5639 5638 5649 5641 5624 5639 5640 5633 5621 5637 5635 5638 5633 5640 5648 5639 5637 5625 5634 5638 5647 5637 5638 5639 5642 5641 5633 5648 5630 5641 5657 5632 5641 5641 5630 5647 5637 5638 5633 5636 5651 5646 5641 5643 5640 5647 5647 5641 5642 5642 5645 5644 5656 5641 5643 5646 5636 5641 5642 5645 5648 5652 5665 5659 5658 5647 5624 5653 5658 5656 5640 5656 5641 5666 5638 5660 5651 5653 5663 5658 5647 5647 5646 5657 5652 5643 5626 5661 5656 5624 5650 5648 5654 5653 5667 5653 5658 5662 5661 5655 5648 5655 5659 5641 5655 5665 5656 5660 5671 5664 5658 5664 5652 5666 5649 5659 5662 5646 5656 5668 5663 5664 5652 5669 5660 5656 5668 5649 5657 5646 5675 5663 5658 5655 5633 5666 5654 5642 5672 5672 5662 5664 5658 5646 5666 5665 5664 5677 5632 5666 5672 5673 5664 5655 5672 5660 5666 5653 5661 5674 5666 5679 5660 5665 5663 5665 5665 5681 5680 5663 5641 5652 5669 5666 5653 5673 5649 5670 5660 5658 5674 5666 5685 5674 5681 5685 5666 5656 5671 5673 5671 5668 5672 5668 5673 5663 5679 5663 5663 5669 5666 5665 5671 5679 5674 5666 5674 5675 5672 5672 5668 5667 5676 5671 5672 5670 5661 5679 5681 5658 5672 5678 5658 5668 5658 5668 5682 5664 5669 5684 5670 5680 5676 5667 5679 5668 5676 5676 5664 5655 5679 5665 5674 5664 5667 5667 5668 5666 5671 5671 5683 5687 5685 5675 5665 5684 5668 5674 5669 5673 5669 5674 5670 5676 5672 5676 5674 5676 5680 5673 5676 5675 5680 5672 5673 5686 5679 5662 5673 5682 5670 5678 5678 5672 5667 5675 5680 5674 5673 5673 5672 5670 5689 5672 5681 5661 5670 5682 5671 5675 5662

Tree=0
num_leaves=64
num_cat=0
split_feature=9 5 100 22 100 5 5 100 100 22 22 22 14 22 22 0 14 14 0 14 0 0 0 0 0 102 36 14 14 22 71 102 0 14 102 22 0 26 38 36 0 14 14 22 14 14 14 38 0 14 71 36 71 26 0 0 36 26 71 26 2 14 16
split_gain=12854.4 5458.76 4450.91 2828.73 2637.35 2416.2 1873.45 1421.29 1391.52 1358.64 1309.54 1145.88 1115.59 1103.71 726.246 717.407 705.908 690.744 677.471 677.424 675.899 654.589 652.39 643.841 608.094 573.898 502.603 468.195 447.53 439.202 394.236 372.677 364.845 363.976 350.099 343.855 336.754 336.063 334.186 330.615 324.446 321.549 320.527 320.005 318.084 317.746 309.34 309.223 300.149 295.727 293.585 284.173 262.044 252.263 250.019 249.14 239.156 210.448 196.844 195.526 190.824 186.375 186.255
threshold=1.0000000180025095e-35 1.0000000180025095e-35 1.0000000180025095e-35 1.0000000180025095e-35 1.0000000180025095e-35 1.0000000180025095e-35 1.0000000180025095e-35 1.0000000180025095e-35 1.0000000180025095e-35 1.0000000180025095e-35 1.0000000180025095e-35 1.0000000180025095e-35 1.0000000180025095e-35 1.0000000180025095e-35 1.0000000180025095e-35 1.0000000180025095e-35 1.0000000180025095e-35 1.0000000180025095e-35 1.0000000180025095e-35 1.0000000180025095e-35 1.0000000180025095e-35 1.0000000180025095e-35 1.0000000180025095e-35 1.0000000180025095e-35 1.0000000180025095e-35 1.0000000180025095e-35 1.0000000180025095e-35 1.0000000180025095e-35 1.0000000180025095e-35 1.0000000180025095e-35 1.0000000180025095e-35 1.0000000180025095e-35 1.0000000180025095e-35 1.0000000180025095e-35 1.0000000180025095e-35 1.0000000180025095e-35 1.0000000180025095e-35 1.0000000180025095e-35 1.0000000180025095e-35 1.0000000180025095e-35 1.0000000180025095e-35 1.0000000180025095e-35 1.0000000180025095e-35 1.0000000180025095e-35 1.0000000180025095e-35 1.0000000180025095e-35 1.0000000180025095e-35 1.0000000180025095e-35 1.0000000180025095e-35 1.0000000180025095e-35 1.0000000180025095e-35 1.0000000180025095e-35 1.0000000180025095e-35 1.0000000180025095e-35 1.0000000180025095e-35 1.0000000180025095e-35 1.0000000180025095e-35 1.0000000180025095e-35 1.0000000180025095e-35 1.0000000180025095e-35 1.0000000180025095e-35 1.0000000180025095e-35 1.0000000180025095e-35
decision_type=2 2 2 2 2 2 2 2 2 2 2 2 2 2 2 2 2 2 2 2 2 2 2 2 2 2 2 2 2 2 2 2 2 2 2 2 2 2 2 2 2 2 2 2 2 2 2 2 2 2 2 2 2 2 2 2 2 2 2 2 2 2 2
left_child=2 3 6 8 11 10 12 23 17 16 19 21 29 25 27 30 40 38 34 36 43 45 52 44 56 51 48 -8 -15 54 61 -23 -18 -24 -10 -22 -4 -26 -2 -19 -6 58 62 -14 -5 -3 -27 60 -13 -20 -30 -7 -11 -16 -1 -29 -12 -33 -17 -41 -21 -9 -25
right_child=1 4 5 7 9 13 14 15 18 22 24 26 20 28 53 41 32 39 49 47 35 31 33 42 37 46 -28 55 50 -31 -32 57 -34 -35 -36 -37 -38 -39 -40 59 -42 -43 -44 -45 -46 -47 -48 -49 -50 -51 -52 -53 -54 -55 -56 -57 -58 -59 -60 -61 -62 -63 -64
leaf_value=0.49987680602211337 0.47185308520351316 0.49744320457228841 0.47633376745549355 0.49719711529315447 0.4721829073373851 0.47614335628065052 0.51008398973178293 0.48632031136833093 0.44669173841975895 0.49587263586036245 0.47739648818578784 0.4973220243660918 0.47676643322664597 0.50900653784256855 0.5103159224859023 0.45979627489511826 0.44722148974174974 0.42132214381536498 0.42024323097377486 0.46383467755262725 0.45106771309198046 0.47383619360824741 0.47315884001231523 0.45936387200000106 0.45135002866857826 0.47656373605162489 0.50712297342304213 0.49983173636332395 0.50006344408387193 0.50926837960052185 0.44590635209489715 0.43309733514566723 0.42104715415249283 0.44704876973803914 0.42113710172920077 0.47652486200011901 0.45126156462911626 0.47656836553329723 0.4468814039106877 0.43287427329287764 0.44751145958321514 0.42144182822017595 0.44790241248985263 0.50124599693331529 0.47273850481228002 0.47305113911729979 0.45247516337036969 0.42635930685106865 0.47350165464886823 0.39667116173522798 0.47645714667966738 0.49922677378050428 0.47364437653122682 0.52570582814587874 0.47821718962070714 0.4781980482031179 0.49864662716155528 0.46124013891048565 0.43246164482805094 0.46004985054566888 0.43717150121887072 0.46003098154323774 0.48570053213218284
leaf_count=11267 11322 11387 11265 11190 11334 11343 22448 5684 11156 11186 11242 11107 11336 22558 22403 5554 11298 11123 11322 5664 11250 11186 11176 5709 11131 11176 22379 11343 11333 22886 11083 5555 11219 11400 11517 11184 11386 11212 11337 5644 11204 11238 11124 11243 11292 11195 11366 11128 11260 11182 10949 11207 11238 22631 11266 11166 11151 5681 5585 5551 5685 5718 5645
internal_value=0 -0.275201 0.274293 -0.528361 -0.0217997 0.0453273 0.502463 -0.270097 -0.785673 -0.270411 -0.193132 0.227656 0.293443 0.283607 0.712508 -0.529036 -0.52282 -0.529644 -1.04057 -0.440273 0.0640319 -0.00401776 -0.0176924 -0.0117228 0.0561747 0.0564489 0.460666 0.527629 0.512041 0.520804 -0.269635 -0.25289 -0.780321 -0.264441 -0.789707 -0.188749 -0.189312 -0.183828 -0.276747 -0.786405 -0.265559 -0.789689 -0.25781 0.31519 0.23432 0.243091 -0.175568 -0.693177 0.242681 -1.29332 0.305348 0.288383 0.230729 0.897071 0.317023 0.318073 0.295641 -0.517395 -0.542108 -0.536942 -0.454358 -0.00119715 -0.0147667
internal_count=720000 359781 360219 179976 179805 179796 180423 89822 90154 90055 89864 89750 90432 89932 89991 44862 45055 44977 45177 45128 45013 45004 45000 44960 44736 45092 44746 44957 44840 45419 22485 22422 22517 22576 22673 22434 22651 22343 22659 22318 22538 22377 22478 22579 22482 22582 22542 22477 22367 22504 22282 22550 22424 45034 22533 22509 22393 11236 11139 11195 11349 11402 11354
shrinkage=1


Tree=1
num_leaves=64
num_cat=0
split_feature=9 5 100 22 100 5 5 100 100 22 22 36 14 22 22 0 14 0 36 0 0 0 0 0 14 14 26 14 36 14 71 36 0 22 14 0 0 26 26 102 71 22 22 6 22 71 14 14 71 0 22 12 14 71 36 38 0 14 69 102 6 26 26
split_gain=11602.4 4879.81 4057.77 2507.23 2378.64 2184.35 1722.81 1270.69 1223.11 1214.67 1173.92 1055.11 1017.72 1006.59 673.387 635.799 625.728 619.797 615.144 611.449 607.834 590.79 588.45 580.845 558.052 542.37 492.31 430.97 428.914 411.671 352.436 335.015 334.529 327.464 325.471 320.711 319.652 317.785 314.538 313.858 311.107 308.274 300.975 294.496 292.209 290.198 289.572 289.136 267.947 267.324 263.165 259.884 255.982 249.866 248.22 247.017 227.506 194.583 186.658 185.507 184.517 181.131 180.551
threshold=1.0000000180025095e-35 1.0000000180025095e-35 1.0000000180025095e-35 1.0000000180025095e-35 1.0000000180025095e-35 1.0000000180025095e-35 1.0000000180025095e-35 1.0000000180025095e-35 1.0000000180025095e-35 1.0000000180025095e-35 1.0000000180025095e-35 1.0000000180025095e-35 1.0000000180025095e-35 1.0000000180025095e-35 1.0000000180025095e-35 1.0000000180025095e-35 1.0000000180025095e-35 1.0000000180025095e-35 1.0000000180025095e-35 1.0000000180025095e-35 1.0000000180025095e-35 1.0000000180025095e-35 1.0000000180025095e-35 1.0000000180025095e-35 1.0000000180025095e-35 1.0000000180025095e-35 1.0000000180025095e-35 1.0000000180025095e-35 1.0000000180025095e-35 1.0000000180025095e-35 1.0000000180025095e-35 1.0000000180025095e-35 1.0000000180025095e-35 1.0000000180025095e-35 1.0000000180025095e-35 1.0000000180025095e-35 1.0000000180025095e-35 1.0000000180025095e-35 1.0000000180025095e-35 1.0000000180025095e-35 1.0000000180025095e-35 1.0000000180025095e-35 1.0000000180025095e-35 1.0000000180025095e-35 1.0000000180025095e-35 1.0000000180025095e-35 1.0000000180025095e-35 1.0000000180025095e-35 1.0000000180025095e-35 1.0000000180025095e-35 1.0000000180025095e-35 1.0000000180025095e-35 1.0000000180025095e-35 1.0000000180025095e-35 1.0000000180025095e-35 1.0000000180025095e-35 1.0000000180025095e-35 1.0000000180025095e-35 1.0000000180025095e-35 1.0000000180025095e-35 1.0000000180025095e-35 1.0000000180025095e-35 1.0000000180025095e-35
decision_type=2 2 2 2 2 2 2 2 2 2 2 2 2 2 2 2 2 2 2 2 2 2 2 2 2 2 2 2 2 2 2 2 2 2 2 2 2 2 2 2 2 2 2 2 2 2 2 2 2 2 2 2 2 2 2 2 2 2 2 2 2 2 2
left_child=2 3 6 8 11 10 12 23 17 16 18 20 28 25 27 30 39 37 47 44 50 38 54 46 51 49 42 -8 55 -15 -9 -19 -20 -22 -24 61 -26 -2 -10 -6 -25 -21 57 -17 -14 -27 -5 -4 -31 -7 -3 -12 -23 -16 -11 -1 -29 -13 -42 -33 -40 -18 -41
right_child=1 4 5 7 9 13 14 15 21 22 24 26 19 29 53 43 35 31 32 41 33 52 34 40 36 45 -28 56 -30 48 -32 59 -34 -35 -36 -37 -38 -39 60 62 58 -43 -44 -45 -46 -47 -48 -49 -50 -51 -52 -53 -54 -55 -56 -57 -58 -59 -60 -61 -62 -63 -64
leaf_value=0.025550277363103713 -0.025057614953211939 0.00074258959463664156 -0.021120501149043808 0.022934765417470221 -0.00038037948720816761 0.025247977854275468 0.035364340539782657 -5.5862379414836932e-05 -0.049184394116093835 0.000206568474651656 0.025230679372165467 0.012879118965508704 0.0033945182751342015 0.034321925626603772 0.050812178906379138 -0.025367186230261386 -0.037463834266609521 -0.049465853903030856 0.0037404062078092038 -0.020914022559401269 -0.024446711321504205 -0.049707977379741843 -3.5589820741991142e-05 -7.6133535729381305e-05 0.0035055663766377317 0.0031117375424920077 0.03287372868903566 0.025469173018015448 0.034912134126556346 0.02569222521138825 -0.025761957933444921 -0.011187531873577577 -0.021239553882243755 0.00029010411870784061 -0.024689861644654865 -0.048961701718953143 -0.021160857255986928 -0.00060186037684358223 -0.011989872233629699 -0.037663541653041893 -0.010996753152487583 0.0031646487359166726 0.023236752841368197 -0.04885373340686653 0.026831046066193888 -0.020155740806844027 -0.00043486098852293567 -0.044336207712684594 0.003100215417106306 0.0027825962728245382 0.023054847946766037 0.0031262053621464725 -0.071485732039875557 0.035411959887224093 0.021870364421295672 0.0040284984660154217 0.0047573557706574298 -0.014282298262746651 -0.037398614738008013 -0.03739099072950848 -0.03815861171141248 -0.011504317542624999 -0.011759109368295221
leaf_count=11428 11211 11343 11271 11190 11195 11238 22448 11402 11380 11261 11161 5590 11336 22558 22454 11129 5668 11268 11224 11250 11336 11322 11176 11189 11093 11319 22370 11343 22728 11333 11083 5584 11333 11260 11400 11219 11137 11123 5648 5627 5630 11184 11190 11248 11243 11330 11292 11300 10949 11205 11107 11345 11182 22580 11163 11263 11166 5554 5659 5791 5645 5630 5716
internal_value=0 -0.26055 0.261548 -0.498873 -0.020638 0.0431537 0.480367 -0.255746 -0.739734 -0.256047 -0.183022 0.216935 0.279827 0.270414 0.682915 -0.499507 -0.493674 -0.500079 -0.416111 0.0609177 -0.00517776 -0.977027 -0.0167705 -0.0110958 0.0534375 0.0536977 0.441342 0.504532 0.497962 0.489532 -0.255326 -0.739098 -0.176554 -0.242757 -0.250428 -0.73472 -0.177728 -0.257748 -0.74348 -0.251486 -0.244162 -0.1789 0.225021 -0.743468 0.300603 -0.170554 0.223259 -0.655515 0.29118 0.280642 0.23531 0.281761 -1.2111 0.861811 0.219823 0.297352 0.303357 -0.013559 -0.484641 -0.490563 -0.501423 -0.490555 -0.492191
internal_count=720000 359781 360219 179976 179805 179796 180423 89822 90154 90055 89864 89750 90432 89932 89991 44862 45055 44977 45128 45013 45046 45177 45000 44960 44736 45092 44704 44957 45419 44840 22485 22643 22557 22596 22576 22517 22230 22334 22673 22538 22478 22434 22334 22377 22579 22649 22482 22571 22282 22443 22450 22506 22504 45034 22424 22691 22509 11144 11289 11375 11293 11298 11343
shrinkage=0.05


Tree=2
num_leaves=64
num_cat=0
split_feature=9 5 100 14 100 71 5 22 36 0 22 0 0 0 14 22 36 26 22 0 14 62 36 14 0 22 22 22 5 36 2 5 26 100 26 12 36 100 71 0 36 100 102 102 12 14 102 102 102 22 36 26 12 14 12 71 0 36 38 102 100 36 102
split_gain=10476.6 4368.02 3700.05 2277.21 2145.95 1979.14 1585.31 1151.3 1104.79 1095.41 1089.01 990.411 962.851 940.633 638.723 606.231 596.783 594.367 570.241 561.01 549.632 547.421 537.58 534.413 529.303 527.912 446.987 430.24 414.007 409.618 371.775 305.855 304.387 304.354 304.077 303.069 301.774 300.808 300.37 300.269 296.312 294.817 289.564 286.395 285.713 281.966 279.771 274.612 260.202 257.947 249.733 247.587 245.688 242.455 240.973 239.206 235.624 182.172 180.572 180.018 179.225 177.727 174.769
threshold=1.0000000180025095e-35 1.0000000180025095e-35 1.0000000180025095e-35 1.0000000180025095e-35 1.0000000180025095e-35 1.0000000180025095e-35 1.0000000180025095e-35 1.0000000180025095e-35 1.0000000180025095e-35 1.0000000180025095e-35 1.0000000180025095e-35 1.0000000180025095e-35 1.0000000180025095e-35 1.0000000180025095e-35 1.0000000180025095e-35 1.0000000180025095e-35 1.0000000180025095e-35 1.0000000180025095e-35 1.0000000180025095e-35 1.0000000180025095e-35 1.0000000180025095e-35 1.0000000180025095e-35 1.0000000180025095e-35 1.0000000180025095e-35 1.0000000180025095e-35 1.0000000180025095e-35 1.0000000180025095e-35 1.0000000180025095e-35 1.0000000180025095e-35 1.0000000180025095e-35 1.0000000180025095e-35 1.0000000180025095e-35 1.0000000180025095e-35 1.0000000180025095e-35 1.0000000180025095e-35 1.0000000180025095e-35 1.0000000180025095e-35 1.0000000180025095e-35 1.0000000180025095e-35 1.0000000180025095e-35 1.0000000180025095e-35 1.0000000180025095e-35 1.0000000180025095e-35 1.0000000180025095e-35 1.0000000180025095e-35 1.0000000180025095e-35 1.0000000180025095e-35 1.0000000180025095e-35 1.0000000180025095e-35 1.0000000180025095e-35 1.0000000180025095e-35 1.0000000180025095e-35 1.0000000180025095e-35 1.0000000180025095e-35 1.0000000180025095e-35 1.0000000180025095e-35 1.0000000180025095e-35 1.0000000180025095e-35 1.0000000180025095e-35 1.0000000180025095e-35 1.0000000180025095e-35 1.0000000180025095e-35 1.0000000180025095e-35
decision_type=2 2 2 2 2 2 2 2 2 2 2 2 2 2 2 2 2 2 2 2 2 2 2 2 2 2 2 2 2 2 2 2 2 2 2 2 2 2 2 2 2 2 2 2 2 2 2 2 2 2 2 2 2 2 2 2 2 2 2 2 2 2 2
left_child=2 3 6 7 11 13 12 16 21 25 17 27 26 28 47 42 30 35 43 54 49 37 46 51 53 32 52 45 50 56 -2 62 -6 -17 -22 -7 -20 -5 58 -18 -19 -21 -10 -11 -24 -3 -15 -8 -23 -13 -4 -14 -1 -12 -9 -27 -16 -29 -25 -46 -41 -36 -26
right_child=1 4 5 8 9 10 14 19 15 18 24 20 23 22 29 33 39 40 36 41 34 48 44 38 31 55 -28 57 -30 -31 -32 -33 -34 -35 61 -37 -38 -39 -40 60 -42 -43 -44 -45 59 -47 -48 -49 -50 -51 -52 -53 -54 -55 -56 -57 -58 -59 -60 -61 -62 -63 -64
leaf_value=0.024419437980104011 -0.022134546945776115 0.022651610034954955 0.0027118987763813359 -0.023211525634110636 -0.023654153422066056 -0.01974718888894603 0.04964633184068265 0.021918480075648838 -0.023765993570448028 -0.023330735939138356 0.02476245009501378 1.0792467624701271e-05 0.0030776900089545573 0.0024434643153412681 0.02467789430042661 0.00011667262951718652 0.00010291330763625613 -0.019859316819278723 -0.023779907479789086 -9.5371945908964985e-05 -0.023783121796137056 -0.046693281042609933 0.025211004132953709 0.016427469560847036 -0.0076224059722162438 0.021171913918811139 0.034255531888408068 0.022031532110176399 0.033220172842974446 0.033967809978985686 -0.048252978662991108 0.0037056409692972805 0.00010801969719425121 -0.023752144923259361 -0.012635374490330038 -0.043524963750491905 -7.3553813447021729e-05 -0.046845109768913699 -0.020308314475699321 -0.010677822618944031 0.003520696440626444 -0.02353889114394149 -0.046939656447918789 -0.046398265646286373 0.014881991158465828 -0.00038262237310220164 -0.020535229278065212 0.033423287835811083 -0.068674350405562898 0.022102935481200792 0.024461217597478446 0.024702693247013179 0.0029046851445414835 0.0032294720406188904 0.00055206307920323023 -0.00012329802074797784 0.0035408711635695374 0.04073192458292229 -0.0096580147323725284 -0.010946355416604643 -0.03624468069081193 0.013301686743654876 -0.033420943534314899
leaf_count=11378 11350 11387 11250 11174 11297 11221 22394 11152 11038 11200 11196 11253 11256 11301 11441 11272 11233 11430 11226 11354 11228 11245 11198 5610 5531 11186 22758 11107 22727 22343 11363 11017 11335 11122 5637 11339 11350 11273 11259 5767 11383 11139 11396 11223 5766 11195 11100 22621 11197 11147 11065 11381 11225 11080 11246 11238 11192 11216 5565 5652 5655 5580 5540
internal_value=0 -0.246825 0.249431 -0.47146 -0.0195443 0.0410874 0.459318 -0.24148 -0.701586 -0.242554 -0.17495 0.206727 0.266859 0.256831 0.654738 -0.474566 -0.470261 -0.397842 -0.467795 -0.00764534 -0.00924879 -0.92786 0.046796 0.0540042 0.0553279 -0.0154886 0.479867 0.423966 0.467622 0.480365 -0.704018 -0.17037 -0.235562 -0.235795 -0.236814 -0.633954 -0.237236 -0.702432 -0.169606 -0.235565 -0.164356 -0.235394 -0.711059 -0.697823 0.270617 0.223781 -0.178896 0.829878 -1.15331 0.218922 0.269214 0.279003 0.274688 0.280056 0.223805 0.209418 0.28395 0.62819 0.0687337 0.041714 -0.468361 0.00340532 -0.410647
internal_count=720000 359781 360219 179976 179805 179796 180423 90259 89717 90055 89737 89750 90432 90059 89991 44828 45368 45373 44999 44891 44845 44889 45017 45071 44364 45056 45361 44905 45042 44976 22713 22088 22632 22394 22445 22560 22576 22447 22434 22655 22813 22493 22434 22423 22616 22582 22401 45015 22442 22400 22315 22637 22603 22276 22398 22424 22633 22323 11175 11418 11422 11217 11071
shrinkage=0.05


Tree=3
num_leaves=64
num_cat=0
split_feature=9 100 22 5 102 14 100 22 14 5 62 36 102 36 26 14 71 22 71 26 5 62 0 0 38 100 71 36 5 0 71 26 11 5 14 38 0 8 8 100 36 36 36 5 0 36 0 69 2 11 71 22 2 26 26 71 26 0 26 62 12 71 103
split_gain=9462.43 4026.79 3424.07 2046.37 1969.73 1902.17 1512.84 1113.24 1063.67 1053.17 1012.42 944.052 921.682 877.785 626.078 616.096 566.585 561.136 556.856 552.772 539.959 524.133 523.089 497.893 487.021 485.578 426.638 394.076 392.12 387.764 311.726 308.537 307.148 300.374 297.735 297.132 296.823 296.59 292.582 288.268 277.488 270.477 270.166 269.609 268.229 267.062 261.169 259.64 259.151 257.573 253.305 252.894 247.075 246.224 230.776 228.694 226.104 186.095 180.59 180.195 176.012 175.674 172.008
threshold=1.0000000180025095e-35 1.0000000180025095e-35 1.0000000180025095e-35 1.0000000180025095e-35 1.0000000180025095e-35 1.0000000180025095e-35 1.0000000180025095e-35 1.0000000180025095e-35 1.0000000180025095e-35 1.0000000180025095e-35 1.0000000180025095e-35 1.0000000180025095e-35 1.0000000180025095e-35 1.0000000180025095e-35 1.0000000180025095e-35 1.0000000180025095e-35 1.0000000180025095e-35 1.0000000180025095e-35 1.0000000180025095e-35 1.0000000180025095e-35 1.0000000180025095e-35 1.0000000180025095e-35 1.0000000180025095e-35 1.0000000180025095e-35 1.0000000180025095e-35 1.0000000180025095e-35 1.0000000180025095e-35 1.0000000180025095e-35 1.0000000180025095e-35 1.0000000180025095e-35 1.0000000180025095e-35 1.0000000180025095e-35 1.0000000180025095e-35 1.0000000180025095e-35 1.0000000180025095e-35 1.0000000180025095e-35 1.0000000180025095e-35 1.0000000180025095e-35 1.0000000180025095e-35 1.0000000180025095e-35 1.0000000180025095e-35 1.0000000180025095e-35 1.0000000180025095e-35 1.0000000180025095e-35 1.0000000180025095e-35 1.0000000180025095e-35 1.0000000180025095e-35 1.0000000180025095e-35 1.0000000180025095e-35 1.0000000180025095e-35 1.0000000180025095e-35 1.0000000180025095e-35 1.0000000180025095e-35 1.0000000180025095e-35 1.0000000180025095e-35 1.0000000180025095e-35 1.0000000180025095e-35 1.0000000180025095e-35 1.0000000180025095e-35 1.0000000180025095e-35 1.0000000180025095e-35 1.0000000180025095e-35 1.0000000180025095e-35
decision_type=2 2 2 2 2 2 2 2 2 2 2 2 2 2 2 2 2 2 2 2 2 2 2 2 2 2 2 2 2 2 2 2 2 2 2 2 2 2 2 2 2 2 2 2 2 2 2 2 2 2 2 2 2 2 2 2 2 2 2 2 2 2 2
left_child=2 4 5 10 11 12 14 15 18 16 17 21 27 24 29 37 39 34 53 42 31 44 54 32 46 55 58 56 48 59 -19 -9 60 -23 -3 -21 -17 57 -26 -7 -18 -27 -10 -24 -2 -20 -8 -22 -15 -31 -16 -28 -25 -5 -14 -11 -1 -6 -13 -4 -12 -30 -44
right_child=1 3 6 8 7 9 13 20 19 25 23 26 22 28 50 36 40 30 45 35 47 33 43 52 38 41 51 -29 61 49 -32 -33 -34 -35 -36 -37 -38 -39 -40 -41 -42 -43 62 -45 -46 -47 -48 -49 -50 -51 -52 -53 -54 -55 -56 -57 -58 -59 -60 -61 -62 -63 -64
leaf_value=0.0029357316647541177 0.021749138471872487 -0.022145495311188139 0.041981655375756897 0.00039949747660414581 -0.0094376868767114507 0.003596296880150607 0.024279100023245834 -0.023415375378227941 -0.045057057146152518 0.023854102589585001 -0.0089566375863792385 0.021383966644458449 0.0028586286456155994 0.024281772249865767 0.048050735004479928 -0.022940988198052334 -0.042180727684854598 0.00090512198747087216 -0.022763074325795222 0.000336854218470996 0.022636307585789883 -0.023426204812587476 -0.02018009958647847 -0.044029219820827213 -0.020261626149933171 -0.01916860176677726 -0.00040940346635729693 0.032674857383282137 0.041551885252606724 0.024467364898969005 -0.023152798205483639 0.00068495055186141381 -0.045177406923364825 0.00028558708224734681 -0.045526914331623002 -0.023083004353932311 -0.046473428237536828 0.00085086900047358837 0.0033513277742511362 -0.019733725996540517 -0.01962649058674272 0.0032737649802193473 -0.035080543261993488 0.0024013020864640864 -0.00056732594719725784 -0.00045628628213722794 0.0020104574005576788 0.00022976578611730452 0.0020351267528443389 0.0022526764238845428 0.032478351497226214 0.021459043612971258 -0.065271626169179572 0.022001172104454673 0.023792891048105596 0.0029852232718490801 0.023666167926326226 -0.035743765686490743 0.039878775210508838 0.02336264563365489 -0.034390196272770637 0.023249209047704653 -0.0098851352717458183
leaf_count=11184 11357 11336 11164 11045 5675 11236 11224 11022 11232 11186 5785 11186 11340 11093 22575 11075 11441 11390 11271 11460 11206 11151 11284 11276 11142 11376 11143 22591 11413 11153 11047 11406 11313 11336 11088 11211 11280 11298 11206 11010 11376 11273 5761 11206 11342 11301 11210 11002 11155 11317 22727 11316 11257 11206 11206 11323 11264 5643 11249 11411 5547 11133 5568
internal_value=0 -0.23392 0.237882 -0.448886 -0.0154206 0.0377914 0.440837 -0.231048 -0.229852 -0.172438 -0.665077 0.199437 0.250897 0.251322 0.631541 -0.457422 -0.393077 -0.448501 -0.00539272 -0.450607 0.000700322 -0.00952633 0.0420498 -0.880018 0.0471737 0.0508918 0.411579 0.460203 0.45612 0.458085 -0.219648 -0.223182 -0.665751 -0.231459 -0.674839 -0.224886 -0.697274 -0.218133 -0.168443 -0.160101 -0.619275 -0.160534 -0.676887 -0.180121 0.210607 -0.23219 0.262001 0.230712 0.262545 0.265551 0.804538 0.210815 -1.0929 0.225284 0.265135 0.267114 0.266606 -0.452852 0.612672 0.651401 -0.428319 0.649394 -0.453977
internal_count=720000 359781 360219 180094 179687 180296 179923 89607 90055 90221 90039 90080 90075 89576 90347 44971 45063 44861 44823 45232 44636 45186 45036 45178 44782 45158 44894 45039 44794 45045 22437 22428 22645 22487 22424 22671 22355 22616 22348 22246 22817 22649 22561 22490 22699 22572 22434 22208 22248 22470 45302 22459 22533 22251 22546 22509 22448 11318 22435 22575 11332 22546 11329
shrinkage=0.05


Tree=4
num_leaves=64
num_cat=0
split_feature=9 26 5 102 0 12 102 12 26 36 14 36 71 62 14 100 14 36 38 5 102 102 62 71 38 100 14 102 26 26 22 36 22 100 0 71 14 2 36 0 69 51 62 22 36 100 100 71 26 14 38 71 35 14 22 22 36 100 0 12 69 71 8
split_gain=8547.94 3813.77 3199.84 2030.72 1909.83 1845.82 1419.71 1058.3 1039.75 1036.35 999.332 894.07 872.117 868.291 629.987 556.297 550.208 543.901 542.862 514.831 513.244 511.481 505.273 481.469 479.043 474.953 411.32 386.498 382.224 381.282 326.566 324.748 322.662 303.05 300.421 288.04 283.953 282.564 281.564 277.122 269.569 269.387 268.836 268.451 261.665 260.463 260.355 259.011 248.027 247.574 246.956 245.372 240.269 238.739 238.232 233.973 231.975 179.799 175.602 173.072 172.477 172.05 171.44
threshold=1.0000000180025095e-35 1.0000000180025095e-35 1.0000000180025095e-35 1.0000000180025095e-35 1.0000000180025095e-35 1.0000000180025095e-35 1.0000000180025095e-35 1.0000000180025095e-35 1.0000000180025095e-35 1.0000000180025095e-35 1.0000000180025095e-35 1.0000000180025095e-35 1.0000000180025095e-35 1.0000000180025095e-35 1.0000000180025095e-35 1.0000000180025095e-35 1.0000000180025095e-35 1.0000000180025095e-35 1.0000000180025095e-35 1.0000000180025095e-35 1.0000000180025095e-35 1.0000000180025095e-35 1.0000000180025095e-35 1.0000000180025095e-35 1.0000000180025095e-35 1.0000000180025095e-35 1.0000000180025095e-35 1.0000000180025095e-35 1.0000000180025095e-35 1.0000000180025095e-35 1.0000000180025095e-35 1.0000000180025095e-35 1.0000000180025095e-35 1.0000000180025095e-35 1.0000000180025095e-35 1.0000000180025095e-35 1.0000000180025095e-35 1.0000000180025095e-35 1.0000000180025095e-35 1.0000000180025095e-35 1.0000000180025095e-35 1.0000000180025095e-35 1.0000000180025095e-35 1.0000000180025095e-35 1.0000000180025095e-35 1.0000000180025095e-35 1.0000000180025095e-35 1.0000000180025095e-35 1.0000000180025095e-35 1.0000000180025095e-35 1.0000000180025095e-35 1.0000000180025095e-35 1.0000000180025095e-35 1.0000000180025095e-35 1.0000000180025095e-35 1.0000000180025095e-35 1.0000000180025095e-35 1.0000000180025095e-35 1.0000000180025095e-35 1.0000000180025095e-35 1.0000000180025095e-35 1.0000000180025095e-35 1.0000000180025095e-35
decision_type=2 2 2 2 2 2 2 2 2 2 2 2 2 2 2 2 2 2 2 2 2 2 2 2 2 2 2 2 2 2 2 2 2 2 2 2 2 2 2 2 2 2 2 2 2 2 2 2 2 2 2 2 2 2 2 2 2 2 2 2 2 2 2
left_child=2 3 5 9 12 11 14 21 16 19 15 24 26 29 54 34 39 36 49 42 55 51 56 43 46 48 57 61 50 45 59 -23 -20 -22 -5 -19 -9 -18 -17 -7 -21 -26 62 -12 -25 -8 -1 -27 -15 -11 -16 -6 -28 -29 -4 58 -14 -3 -10 -24 -31 -13 -2
right_child=1 4 6 10 7 8 13 17 20 18 23 27 22 25 28 38 37 35 32 40 33 31 30 44 41 47 52 53 -30 60 -32 -33 -34 -35 -36 -37 -38 -39 -40 -41 -42 -43 -44 -45 -46 -47 -48 -49 -50 -51 -52 -53 -54 -55 -56 -57 -58 -59 -60 -61 -62 -63 -64
leaf_value=0.02364895320912461 -0.033863294775466408 0.039385393095632666 0.031672749387593152 0.0019395807188258094 0.021525549710731048 0.0029733200569712643 0.023897757036525816 -0.021748629278496773 0.015776343233699929 0.022311187719061074 -0.043629740087641755 0.041069685788922713 0.00052166148563109738 0.0016584767697879806 0.023085508764407028 -0.044371216888815408 -0.019621365135174984 0.00084457819036649418 -0.023233367249387918 0.00036433409907315871 0.0033428667872911228 -0.023048367838537337 -0.010582698918638386 -0.06468111665989125 -0.020040926574343212 0.0022436765736233342 0.02108494632992361 0.023526533229757368 0.031406509116355077 0.040688133210134057 0.0015492148840986503 0.0012953007166751518 0.0013668230418610414 -0.020630777438325421 -0.02192230855903957 -0.022396042066636826 -0.044619465984559549 -0.042735653785021664 -0.02144287309619022 -0.019848282189325356 -0.022000901395114215 0.0024837960246337095 -0.04374711224349534 -0.021308516941821107 -0.042719029637279304 0.0015393816203803376 0.0015688313203254423 -0.019995030654190588 0.02359963163468267 0.00080955639420205784 0.0013958663243715849 0.00023531832437933371 -0.00010014011862664742 0.0022056926067244645 0.046889824698594006 0.023921984841962219 0.021428844005128997 0.020952574793086293 -0.0095886801767163729 -0.03597866136134064 0.022585379179015191 0.023011319636240951 -0.008784119318983423
leaf_count=11336 5736 11251 22441 11138 11336 11395 11181 11242 5738 11282 11219 11278 11268 11313 11336 11188 11100 11184 11189 11429 11225 11274 5653 11238 11183 11245 11213 11262 22460 11375 11214 11527 11228 11188 11184 11156 11290 11188 11093 11289 11253 11292 11136 11153 11245 11270 11357 11101 11162 11246 11220 11287 11340 11139 22440 11247 11123 11292 5791 5580 11379 11288 5594
internal_value=0 -0.221754 0.22687 -0.432461 -0.0110088 0.0335529 0.423872 -0.22009 -0.17483 -0.215277 -0.650179 0.242429 0.201723 0.239675 0.609087 -0.432485 -0.396237 -0.442507 0.00555941 -0.433552 0.0463859 -0.000365897 -0.000780273 -0.864222 0.0381517 0.034844 0.404071 0.449089 0.436286 0.442848 -0.218254 -0.215725 -0.220308 -0.174965 -0.202036 -0.21568 -0.665323 -0.624648 -0.659517 -0.169196 -0.214667 -0.174553 -0.651084 -0.652517 -1.07453 0.251115 0.249608 -0.177229 0.2504 0.230453 0.245832 0.217654 0.20864 0.257047 0.784788 0.264741 0.217629 0.601771 0.0599232 -0.464068 0.6327 0.640255 -0.429635
internal_count=720000 359781 360219 179551 180230 180296 179923 90296 90161 90093 89458 90135 89934 90026 89897 44603 44972 44872 44945 45148 45189 45424 44838 44855 45168 44821 45096 44967 45016 45205 22447 22801 22417 22413 22322 22340 22532 22288 22281 22684 22682 22475 22466 22372 22483 22451 22693 22346 22475 22528 22556 22623 22553 22401 44881 22776 22391 22543 11529 11233 22754 22566 11330
shrinkage=0.05


Tree=5
num_leaves=64
num_cat=0
split_feature=9 0 36 22 100 71 0 36 71 38 26 22 38 5 26 12 8 62 0 0 69 14 12 62 36 14 36 100 2 69 69 26 100 102 11 16 26 12 14 2 2 102 38 2 14 22 102 14 71 8 100 5 60 5 62 100 62 71 5 22 71 8 14
split_gain=7770.76 3663.4 3168.65 1911.97 1830.43 1738.36 1419.53 994.659 965.104 964.948 931.62 863.114 842.105 839.883 610.502 575.213 550.253 527.813 509.412 506.654 505.876 489.061 488.804 478.088 464.611 456.713 400.048 396.571 386.416 368.207 316.823 292.829 291.484 278.575 275.91 275.612 274.322 271.087 269.479 264.318 263.927 261.465 261.395 261.287 251.692 251.027 246.718 244.365 242.954 242.682 239.833 233.6 232.727 225.831 221.746 217.531 217.325 196.379 180.27 172.155 167.924 165.663 164.21
threshold=1.0000000180025095e-35 1.0000000180025095e-35 1.0000000180025095e-35 1.0000000180025095e-35 1.0000000180025095e-35 1.0000000180025095e-35 1.0000000180025095e-35 1.0000000180025095e-35 1.0000000180025095e-35 1.0000000180025095e-35 1.0000000180025095e-35 1.0000000180025095e-35 1.0000000180025095e-35 1.0000000180025095e-35 1.0000000180025095e-35 1.0000000180025095e-35 1.0000000180025095e-35 1.0000000180025095e-35 1.0000000180025095e-35 1.0000000180025095e-35 1.0000000180025095e-35 1.0000000180025095e-35 1.0000000180025095e-35 1.0000000180025095e-35 1.0000000180025095e-35 1.0000000180025095e-35 1.0000000180025095e-35 1.0000000180025095e-35 1.0000000180025095e-35 1.0000000180025095e-35 1.0000000180025095e-35 1.0000000180025095e-35 1.0000000180025095e-35 1.0000000180025095e-35 1.0000000180025095e-35 1.0000000180025095e-35 1.0000000180025095e-35 1.0000000180025095e-35 1.0000000180025095e-35 1.0000000180025095e-35 1.0000000180025095e-35 1.0000000180025095e-35 1.0000000180025095e-35 1.0000000180025095e-35 1.0000000180025095e-35 1.0000000180025095e-35 1.0000000180025095e-35 1.0000000180025095e-35 1.0000000180025095e-35 1.0000000180025095e-35 1.0000000180025095e-35 1.0000000180025095e-35 1.0000000180025095e-35 1.0000000180025095e-35 1.0000000180025095e-35 1.0000000180025095e-35 1.0000000180025095e-35 1.0000000180025095e-35 1.0000000180025095e-35 1.0000000180025095e-35 1.0000000180025095e-35 1.0000000180025095e-35 1.0000000180025095e-35
decision_type=2 2 2 2 2 2 2 2 2 2 2 2 2 2 2 2 2 2 2 2 2 2 2 2 2 2 2 2 2 2 2 2 2 2 2 2 2 2 2 2 2 2 2 2 2 2 2 2 2 2 2 2 2 2 2 2 2 2 2 2 2 2 2
left_child=2 4 5 9 13 12 14 15 21 16 18 22 29 23 27 31 39 44 45 54 32 53 46 49 48 55 56 59 -13 62 -19 -6 -10 -18 -20 -22 -24 -23 -21 -3 58 -17 -25 -27 -9 -7 -8 -16 -11 -2 -30 -31 -29 -5 -14 -12 -15 -28 -26 -4 -49 -40 -1
right_child=1 3 6 8 7 10 11 17 20 24 25 28 19 26 47 41 33 30 34 38 35 37 36 42 40 43 57 52 50 51 -32 -33 -34 -35 -36 -37 -38 -39 61 -41 -42 -43 -44 -45 -46 -47 -48 60 -50 -51 -52 -53 -54 -55 -56 -57 -58 -59 -60 -61 -62 -63 -64
leaf_value=0.039528657457196692 0.00042694624094485992 -0.020915411509392211 0.022194856741987411 0.0010947506917914178 -0.021149370351924761 -0.019148195349644379 0.022966667298486017 0.022431294409994491 0.0017652925213727723 -0.04144442123441313 0.022392106707223337 0.03129922415617839 0.022624535555571257 0.020746674051517096 0.046233940252062074 -0.021660165990903979 0.0018728945089675709 0.0017110958208797794 -0.019068984067494604 0.0017002192960978661 -0.042810607378717502 0.0010472063066290992 -0.020676990735150745 0.00083745195090197946 -0.033135569290532331 0.0025293559407572001 0.040060285941319648 0.022211298679303184 0.022757807079522074 0.0015730779489127893 -0.022478997031906419 0.0020776450988612867 -0.021376282776275707 -0.020675535204817269 -0.041807598083745373 -0.020232247708489484 0.0021168401097482279 -0.021384708532336497 -0.033753409033670183 -0.043020695991211125 -0.042436415082328136 -0.043602404004342871 -0.021432337043845791 -0.019599491157482593 0.00068257762644641619 0.0026598967706307052 0.0012912090222285762 0.039952513839163428 -0.062512678825951726 0.021744252374209315 0.0013220593591889976 0.022704031069260763 0.0011308625178711833 0.0217438675244318 0.0020032178537941507 0.001957586991011632 0.00040119642658764361 0.020615234301268635 -0.0074940643600358708 0.040470701801919064 0.022065603808877118 -0.0085548771309189274 0.021849995116703533
leaf_count=11448 11385 11127 11397 11266 11226 11321 11293 11261 11332 11207 11359 22500 11262 11361 22440 11390 11250 11139 11453 11095 11292 11243 11300 11110 5691 11164 11146 11175 11408 11286 11504 11365 11394 11371 11151 11223 11112 11206 5486 11180 11240 11187 11005 11497 11054 11287 11150 11246 11254 11153 11198 11243 11285 11069 11226 11176 11111 11307 5652 11136 11451 5561 11193
internal_value=0 -0.211157 0.216776 -0.415846 -0.00307496 0.0231057 0.412122 -0.207633 -0.204461 -0.624453 -0.178906 0.228399 0.227713 0.20672 0.597424 -0.421038 -0.413741 0.00819319 -0.38803 0.0261953 -0.414538 0.008858 0.0265844 0.00857895 -0.834299 0.0315979 0.408026 0.426164 0.432661 0.427709 -0.211581 -0.190816 -0.199359 -0.190395 -0.605888 -0.631206 -0.18825 -0.2033 -0.1949 -0.639995 -0.627913 -0.651131 -0.205087 -0.174001 0.231872 -0.167776 0.242619 0.769145 -1.04019 0.219435 0.240574 0.23994 0.232344 0.224586 0.246376 0.242222 0.213373 0.604791 -0.409019 0.623026 0.617573 -0.421599 0.614701
internal_count=720000 359701 360299 179997 179704 180208 180091 90126 90025 89972 90408 89961 89800 89578 90130 45168 44928 44958 45212 44630 45241 44784 44855 44653 45044 45196 44925 44993 45106 45170 22643 22591 22726 22621 22604 22515 22412 22449 22142 22307 22583 22577 22115 22661 22315 22608 22443 45137 22461 22538 22606 22529 22460 22335 22488 22535 22472 22453 11343 22533 22697 11047 22641
shrinkage=0.05


Tree=6
num_leaves=64
num_cat=0
split_feature=9 14 62 5 38 102 38 22 14 36 22 71 71 0 100 26 62 62 12 69 5 5 26 8 5 71 26 2 22 22 12 102 100 62 100 28 17 38 71 100 62 38 100 8 35 14 2 2 11 60 26 71 14 100 5 11 80 14 8 0 12 92 42
split_gain=7021.21 3487.97 3032.56 1845.21 1703.42 1697.16 1379.95 941.113 928.605 923.375 902.835 854.392 808.77 807.644 575.019 507.239 507.024 496.018 489.5 476.534 472.48 471.841 458.555 453.987 452.671 428.812 391.156 382.106 378.635 373.09 291.145 285.848 282.601 281.639 279.203 277.397 268.062 262.597 258.871 258.838 257.953 257.101 256.829 253.404 252.563 250.294 246.004 245.744 234.654 230.561 229.958 228.118 226.366 222.524 214.991 211.81 204.722 167.974 167.212 165.95 164.914 163.141 157.104
threshold=1.0000000180025095e-35 1.0000000180025095e-35 1.0000000180025095e-35 1.0000000180025095e-35 1.0000000180025095e-35 1.0000000180025095e-35 1.0000000180025095e-35 1.0000000180025095e-35 1.0000000180025095e-35 1.0000000180025095e-35 1.0000000180025095e-35 1.0000000180025095e-35 1.0000000180025095e-35 1.0000000180025095e-35 1.0000000180025095e-35 1.0000000180025095e-35 1.0000000180025095e-35 1.0000000180025095e-35 1.0000000180025095e-35 1.0000000180025095e-35 1.0000000180025095e-35 1.0000000180025095e-35 1.0000000180025095e-35 1.0000000180025095e-35 1.0000000180025095e-35 1.0000000180025095e-35 1.0000000180025095e-35 1.0000000180025095e-35 1.0000000180025095e-35 1.0000000180025095e-35 1.0000000180025095e-35 1.0000000180025095e-35 1.0000000180025095e-35 1.0000000180025095e-35 1.0000000180025095e-35 1.0000000180025095e-35 1.0000000180025095e-35 1.0000000180025095e-35 1.0000000180025095e-35 1.0000000180025095e-35 1.0000000180025095e-35 1.0000000180025095e-35 1.0000000180025095e-35 1.0000000180025095e-35 1.0000000180025095e-35 1.0000000180025095e-35 1.0000000180025095e-35 1.0000000180025095e-35 1.0000000180025095e-35 1.0000000180025095e-35 1.0000000180025095e-35 1.0000000180025095e-35 1.0000000180025095e-35 1.0000000180025095e-35 1.0000000180025095e-35 1.0000000180025095e-35 1.0000000180025095e-35 1.0000000180025095e-35 1.0000000180025095e-35 1.0000000180025095e-35 1.0000000180025095e-35 1.0000000180025095e-35 1.0000000180025095e-35
decision_type=2 2 2 2 2 2 2 2 2 2 2 2 2 2 2 2 2 2 2 2 2 2 2 2 2 2 2 2 2 2 2 2 2 2 2 2 2 2 2 2 2 2 2 2 2 2 2 2 2 2 2 2 2 2 2 2 2 2 2 2 2 2 2
left_child=2 4 6 10 11 13 14 16 24 17 25 28 26 29 45 37 36 42 33 51 30 34 40 39 41 43 52 62 46 50 -14 -21 -17 -12 -15 -19 -5 -10 -18 -13 -11 -7 -6 -3 -20 -1 -2 -24 -25 -26 -4 -9 -8 -22 -29 -23 -27 -31 -32 -30 -47 -34 -16
right_child=1 3 5 7 9 8 12 19 15 22 18 23 20 21 27 32 38 35 44 31 53 55 47 48 49 56 -28 54 59 57 58 -33 61 -35 -36 -37 -38 -39 -40 -41 -42 -43 -44 -45 -46 60 -48 -49 -50 -51 -52 -53 -54 -55 -56 -57 -58 -59 -60 -61 -62 -63 -64
leaf_value=0.045085399223888094 0.021597773154976241 -0.041368343718152914 0.00087229958236787668 0.0020112930428996295 0.0014512172281216556 0.0020656174664902193 0.021427453186897073 0.021760489868990571 -0.01967305762137414 0.0011999036973516968 0.0019692518314094183 0.0010066447099238386 0.0023770374904927755 0.0022877835411184108 0.038737624365074191 0.0031318286127491471 -0.019828050714959595 -0.019524935642509459 -0.02000198415182414 0.0018314318424115642 0.022195665352665737 0.022170182662783363 0.021532353412336485 0.02095907367893652 0.02250306259390715 -0.060080253105059024 0.03042894208200754 0.0012262114551960255 0.038828441087552457 0.039448518012502577 -0.033420389291390344 -0.021345098007468657 -0.0077155663467450217 -0.020798157404030359 -0.020605445906974253 -0.042215827231465206 -0.020274605226318229 -0.042011047181277267 -0.041644908382004228 -0.02087216115755346 -0.02073623834540753 -0.020042247940351855 -0.020345464083128331 -0.019804066033589748 -0.04162818613875921 0.038392799652532922 0.0001131525007618737 0.00017600493059407663 4.6527447390635305e-05 0.0012601826787341627 0.021899598438067418 0.0011253913463849135 0.00052403122306062964 0.0014949294060351706 0.021353303987570325 0.0018157928761660313 -0.040743534568853379 0.021335832653140402 -0.0085772409528151097 0.020976021874074196 0.020618540117590258 -0.032463782963092803 0.021509494018333179
leaf_count=22798 11187 11050 11170 11168 11421 11315 11259 11369 11291 11251 11253 11375 11264 11240 11454 11085 11228 11204 11261 11325 11344 11113 11429 11271 11168 11056 22457 11267 11142 11359 5704 11162 5592 11279 11363 11230 11239 11056 11302 11261 11267 11254 11193 11229 11071 11421 11116 11408 11228 11102 11277 11351 11082 11216 11397 11204 11278 11187 5763 11097 11236 5642 11219
internal_value=0 -0.200268 0.206716 -0.400525 0.001963 0.0155501 0.396761 -0.192863 -0.185966 -0.196336 -0.605857 0.202424 0.214813 0.217935 0.577948 -0.395864 -0.400485 -0.402941 -0.401305 0.0178162 0.0200124 0.0218398 0.0111298 0.00439793 0.0262048 -0.808699 0.4136 0.414164 0.404891 0.416309 -0.188401 -0.194134 -0.174954 -0.189389 -0.186395 -0.617674 -0.183345 -0.614921 -0.615966 -0.200086 -0.195941 -0.179709 -0.18893 -0.610111 -0.614511 0.745344 0.217514 0.217152 0.210481 0.238204 0.227665 0.228354 0.219527 0.234926 0.224554 0.238862 -1.00634 0.607932 -0.418822 0.596668 0.591018 -0.402866 0.604262
internal_count=720000 359701 360299 179621 180080 179418 180881 90144 89505 90403 89477 89677 90089 89913 90792 44666 44937 45048 44864 45207 45291 44920 45355 45135 44839 44613 44798 45337 44542 44993 22731 22487 22319 22532 22603 22434 22407 22347 22530 22636 22518 22569 22614 22279 22332 45455 22303 22837 22499 22270 22447 22720 22341 22560 22664 22317 22334 22546 11467 22239 22657 11234 22673
shrinkage=0.05


Tree=7
num_leaves=64
num_cat=0
split_feature=9 100 100 0 26 14 36 0 71 22 2 36 22 11 22 2 102 26 11 33 16 43 26 36 38 40 6 81 5 8 40 22 12 92 38 30 69 12 16 62 0 8 36 11 28 12 38 12 22 69 16 62 42 69 62 12 40 6 71 102 28 38 33
split_gain=6344.42 3343.01 2913.71 1705.2 1663.16 1656.24 1304.16 941.656 898.565 884.275 882.399 813.349 775.101 753.687 570.036 505.043 495.696 485.079 484.431 470.805 460.148 451.958 445.74 444.242 438.47 433.023 393.873 358.184 357.913 338.468 273.376 270.893 270.431 264.753 264.09 263.894 263.238 262.999 262.531 255.345 254.859 252.28 251.58 250.96 248.313 239.773 234.872 234.386 233.258 228.782 226.537 224.989 219.231 216.211 214.23 205.87 203.117 191.98 176.061 172.389 168.783 166.488 164.037
threshold=1.0000000180025095e-35 1.0000000180025095e-35 1.0000000180025095e-35 1.0000000180025095e-35 1.0000000180025095e-35 1.0000000180025095e-35 1.0000000180025095e-35 1.0000000180025095e-35 1.0000000180025095e-35 1.0000000180025095e-35 1.0000000180025095e-35 1.0000000180025095e-35 1.0000000180025095e-35 1.0000000180025095e-35 1.0000000180025095e-35 1.0000000180025095e-35 1.0000000180025095e-35 1.0000000180025095e-35 1.0000000180025095e-35 1.0000000180025095e-35 1.0000000180025095e-35 1.0000000180025095e-35 1.0000000180025095e-35 1.0000000180025095e-35 1.0000000180025095e-35 1.0000000180025095e-35 1.0000000180025095e-35 1.0000000180025095e-35 1.0000000180025095e-35 1.0000000180025095e-35 1.0000000180025095e-35 1.0000000180025095e-35 1.0000000180025095e-35 1.0000000180025095e-35 1.0000000180025095e-35 1.0000000180025095e-35 1.0000000180025095e-35 1.0000000180025095e-35 1.0000000180025095e-35 1.0000000180025095e-35 1.0000000180025095e-35 1.0000000180025095e-35 1.0000000180025095e-35 1.0000000180025095e-35 1.0000000180025095e-35 1.0000000180025095e-35 1.0000000180025095e-35 1.0000000180025095e-35 1.0000000180025095e-35 1.0000000180025095e-35 1.0000000180025095e-35 1.0000000180025095e-35 1.0000000180025095e-35 1.0000000180025095e-35 1.0000000180025095e-35 1.0000000180025095e-35 1.0000000180025095e-35 1.0000000180025095e-35 1.0000000180025095e-35 1.0000000180025095e-35 1.0000000180025095e-35 1.0000000180025095e-35 1.0000000180025095e-35
decision_type=2 2 2 2 2 2 2 2 2 2 2 2 2 2 2 2 2 2 2 2 2 2 2 2 2 2 2 2 2 2 2 2 2 2 2 2 2 2 2 2 2 2 2 2 2 2 2 2 2 2 2 2 2 2 2 2 2 2 2 2 2 2 2
left_child=2 4 6 9 8 12 13 22 21 19 17 16 23 27 26 34 45 41 33 37 32 38 30 40 31 47 -8 -1 50 55 -7 -12 -11 -10 -9 -21 -27 -3 -2 -18 -4 -5 -19 59 -20 -6 -22 -15 -29 -24 61 -16 -28 -25 -23 -14 -26 -33 -54 -17 -35 -13 -53
right_child=1 3 5 10 11 7 14 15 18 20 24 28 29 25 51 43 39 42 44 35 46 54 49 53 56 36 52 48 -30 -31 -32 57 -34 60 -36 -37 -38 -39 -40 -41 -42 -43 -44 -45 -46 -47 -48 -49 -50 -51 -52 62 58 -55 -56 -57 -58 -59 -60 -61 -62 -63 -64
leaf_value=0.029358000319228385 -0.020237855519990647 0.001984229824190917 0.0019217725814032632 -0.040263955533536906 0.02199169235280389 0.0022923307034874232 0.029769214683585329 0.0022266127454527436 0.0022990799040288664 0.0018479772376487624 -0.040099656100550385 0.013349661503663105 0.021398331854255256 0.02184901570270081 0.044179767379088672 -0.0072616733044215459 0.00077121172959812372 -0.019241379868164245 -0.019523623415423082 -0.018641728683091673 0.021921582813015775 0.021316419534294931 0.022084185636514608 0.021553026592223634 -0.039244332849220458 0.0019990505971434892 0.020562620050297326 0.00024530442763415439 0.029656027496432903 0.029383088524545738 -0.020373164888936875 -0.0046931992018596248 -0.020633087598946356 -0.0073260565091239046 -0.02011544008068112 -0.040604609425883127 -0.02049281439367677 -0.019851882570417034 0.0017929892153666985 -0.021109009515214994 -0.0199825319359733 -0.018825285151335767 0.0021997303518820157 -0.041563547905829071 -0.041032612880474266 0.00083705462316650651 0.00092124738988512531 0.0004898869551266345 0.021450466817003008 0.0012364881728040152 0.021302175240919999 0.038228088417603542 0.012994693517700058 0.0012538517738572177 0.0011666283144095343 0.0014245333677243542 -0.058473504998729858 -0.031294251602893244 -0.013118123899566351 -0.032676699584860427 -0.03225747532112419 -0.011742841499575704 0.020207436429810752
leaf_count=22502 11428 11384 11256 11212 11286 11425 22551 11331 11066 11263 11236 5563 11111 11277 22700 5697 11243 11175 11294 11264 11150 11200 11230 11278 10987 11362 11225 11315 22358 22520 11134 5672 11206 5621 11009 11287 11326 11356 11335 11080 11275 11250 11315 11109 11160 11245 11216 11128 11347 11300 11527 11297 5647 11300 11007 11337 11467 5540 5606 5516 5743 5565 11188
internal_value=0 -0.18997 0.197111 -0.384692 0.00912392 0.0121285 0.386435 -0.184823 -0.18751 -0.185698 -0.581257 0.207501 0.211965 0.20938 0.565581 -0.395402 0.013201 -0.380594 -0.391969 -0.384867 0.0192492 0.0177361 0.0261731 0.0214481 -0.781769 0.0185028 0.400402 0.400326 0.40473 0.406741 -0.177894 -0.581442 -0.187867 -0.179296 -0.176682 -0.592724 -0.184829 -0.178702 -0.185388 -0.202607 -0.182405 -0.590644 -0.169913 -0.613091 -0.604317 0.228037 0.227337 0.224437 0.214873 0.232505 0.224355 0.734439 0.204874 0.227828 0.225962 0.225608 -0.9813 -0.357057 -0.00105773 -0.396724 -0.398584 0.0156157 0.585183
internal_count=720000 359701 360299 179980 179721 179828 180471 89751 89854 90126 89854 89867 90077 90257 90214 44662 44854 44952 44884 45291 44835 44970 45089 45109 44902 45093 45029 45164 45013 44968 22559 22448 22469 22430 22340 22551 22688 22740 22763 22323 22531 22462 22490 22322 22454 22531 22366 22405 22662 22530 22655 45185 22478 22578 22207 22448 22454 11212 11253 11213 11364 11128 22485
shrinkage=0.05


Tree=8
num_leaves=64
num_cat=0
split_feature=12 5 102 102 36 38 8 28 71 38 26 71 0 5 26 40 2 40 42 0 62 8 22 17 17 36 14 16 64 28 2 36 69 102 60 26 9 11 8 19 69 11 42 14 14 14 16 97 69 102 36 40 71 51 5 81 2 14 16 43 71 17 2
split_gain=6050.71 3229.85 2897.35 1668.59 1630.23 1608.73 1344.48 883.699 882.83 878.053 852.712 781.586 779.88 778.839 582.563 506.983 482.487 473.763 464.571 448.476 448.091 445.481 441.989 439.24 429.474 413.595 355.032 351.233 350.765 349.128 287.062 270.086 269.111 268.384 268.176 266.681 262.826 254.57 250.439 250.105 244.552 243.852 240.438 233.042 232.995 232.471 231.954 231.192 225.555 223.898 220.764 218.505 218.45 214.115 212.318 205.444 199.635 175.216 167.539 164.486 164.211 160.762 158.037
threshold=1.0000000180025095e-35 1.0000000180025095e-35 1.0000000180025095e-35 1.0000000180025095e-35 1.0000000180025095e-35 1.0000000180025095e-35 1.0000000180025095e-35 1.0000000180025095e-35 1.0000000180025095e-35 1.0000000180025095e-35 1.0000000180025095e-35 1.0000000180025095e-35 1.0000000180025095e-35 1.0000000180025095e-35 1.0000000180025095e-35 1.0000000180025095e-35 1.0000000180025095e-35 1.0000000180025095e-35 1.0000000180025095e-35 1.0000000180025095e-35 1.0000000180025095e-35 1.0000000180025095e-35 1.0000000180025095e-35 1.0000000180025095e-35 1.0000000180025095e-35 1.0000000180025095e-35 1.0000000180025095e-35 1.0000000180025095e-35 1.0000000180025095e-35 1.0000000180025095e-35 1.0000000180025095e-35 1.0000000180025095e-35 1.0000000180025095e-35 1.0000000180025095e-35 1.0000000180025095e-35 1.0000000180025095e-35 1.0000000180025095e-35 1.0000000180025095e-35 1.0000000180025095e-35 1.0000000180025095e-35 1.0000000180025095e-35 1.0000000180025095e-35 1.0000000180025095e-35 1.0000000180025095e-35 1.0000000180025095e-35 1.0000000180025095e-35 1.0000000180025095e-35 1.0000000180025095e-35 1.0000000180025095e-35 1.0000000180025095e-35 1.0000000180025095e-35 1.0000000180025095e-35 1.0000000180025095e-35 1.0000000180025095e-35 1.0000000180025095e-35 1.0000000180025095e-35 1.0000000180025095e-35 1.0000000180025095e-35 1.0000000180025095e-35 1.0000000180025095e-35 1.0000000180025095e-35 1.0000000180025095e-35 1.0000000180025095e-35
decision_type=2 2 2 2 2 2 2 2 2 2 2 2 2 2 2 2 2 2 2 2 2 2 2 2 2 2 2 2 2 2 2 2 2 2 2 2 2 2 2 2 2 2 2 2 2 2 2 2 2 2 2 2 2 2 2 2 2 2 2 2 2 2 2
left_child=2 3 6 8 9 11 13 22 25 16 24 26 29 18 28 35 49 44 45 38 50 43 37 53 47 34 61 56 57 62 -23 -20 -18 -31 -2 -11 -25 -7 -9 -22 -16 -19 -17 -12 -10 -1 -21 -5 -24 -3 -13 -27 -30 -14 -28 -26 -15 -8 -42 -48 -29 -4 -6
right_child=1 4 5 10 12 7 14 19 17 15 21 20 23 27 40 42 32 41 31 46 39 30 48 36 55 51 54 60 52 33 -32 -33 -34 -35 -36 -37 -38 -39 -40 -41 58 -43 -44 -45 -46 -47 59 -49 -50 -51 -52 -53 -54 -55 -56 -57 -58 -59 -60 -61 -62 -63 -64
leaf_value=0.02114398550733396 0.0023552385726830862 0.021832552192768098 0.037675699964595383 -0.039255042100796625 0.038226158411695799 0.0014777930784337632 0.037733637512817407 -0.020260155773072264 0.0016315359506693578 -0.019791469206587732 -0.018683144463653972 0.00066296210870971648 0.00093296719807371524 0.02017926500992602 0.043715243172173179 -0.019797274652079137 0.0014475722047728268 -0.019200527763076222 -0.021237624327387222 -0.04010022251281898 0.0010759676576701767 0.0029789075740546864 0.021406242846667329 0.0019746239134920953 -0.039207293170425025 0.021111398724207017 0.00059573998998018981 0.037642314583458639 0.020613854757554877 0.022636557580925157 -0.020204835627866204 0.0013229263900566175 -0.021151040537425822 -0.00029267135705519486 -0.020056260509165591 0.0025901625316566614 -0.02052190688520605 -0.020227856273607639 0.0014975443876127752 -0.020526629344932878 0.019527354012187408 -0.040439539816132963 -0.0411584573603785 -0.039562260262745876 -0.01918247215033804 0.00036716174888141697 -0.031929812286303781 -0.018459523694887757 0.00063606622584512192 0.0012682119985295542 0.02107348434996683 0.00080982288263835409 0.00019829917087879644 0.021241970996447691 0.020571763817892452 -0.058756319741662344 0.00060775747576063131 0.019497703225892442 0.037442644456154542 -0.0071165638879601978 0.01992972334109909 0.020151196290904578 0.020674611933270234
leaf_count=11476 11217 11396 11292 11150 11245 11410 11235 11186 11333 11245 11244 11321 11151 11290 22613 11197 11315 11387 11287 11334 11273 11101 11314 11205 11263 11195 11192 11331 11076 11055 11347 11170 11199 11284 11180 11374 11088 11191 11416 11311 11322 11238 11178 11167 11192 11329 5511 11072 11068 11274 11230 11365 11277 11137 11371 11088 11280 11240 11174 5684 11351 11350 11213
internal_value=0 -0.188931 0.189233 -0.381883 0.00889686 0.00509004 0.375159 -0.189028 -0.184587 -0.186127 -0.579322 0.200009 0.208975 0.197189 0.554561 -0.389568 0.0178725 -0.386227 0.00747066 -0.39235 0.0090041 -0.379429 0.0150019 0.015918 -0.778569 0.0197632 0.392892 0.39139 0.388307 0.40486 -0.175186 -0.202489 -0.196344 0.219745 -0.176695 -0.171917 -0.189654 -0.185556 -0.185628 -0.194887 0.721657 -0.595288 -0.609464 -0.58351 -0.17609 0.214398 -0.595679 -0.577872 0.222269 0.231081 0.215181 0.217605 0.205163 0.22164 0.210983 -0.978146 0.207627 0.570509 0.568477 -0.386678 0.57436 0.57779 0.589108
internal_count=720000 359095 360905 179539 179556 180454 180451 90114 90107 90178 89432 90340 89378 90514 89937 44994 45184 45150 45262 45131 45135 44859 44983 44581 44573 44957 45205 45252 44828 44797 22448 22457 22514 22339 22397 22619 22293 22601 22602 22584 45109 22625 22375 22411 22525 22805 22529 22222 22382 22670 22551 22560 22353 22288 22563 22351 22570 22475 22496 11195 22682 22642 22458
shrinkage=0.05


Tree=9
num_leaves=64
num_cat=0
split_feature=62 11 2 22 69 0 36 6 36 16 71 0 42 100 38 35 22 26 71 69 69 102 5 100 81 23 0 5 26 30 30 92 35 12 17 81 81 22 35 9 17 0 60 33 9 40 71 38 5 19 17 30 17 71 14 92 5 35 14 11 22 5 28
split_gain=5953.2 3150.26 2780.35 1711.68 1555.35 1517.66 1249.76 866.58 858.385 842.866 816.402 758.626 726.95 724.942 559.331 478.358 469.829 464.157 460.776 459.097 454.797 452.105 442.188 440.972 434.149 408.985 356.788 349.176 342.204 341.701 279.435 265.916 264.802 260.602 259.003 258.274 252.544 251.495 247.067 244.305 240.526 237.612 237.35 236.074 236.026 233.917 233.621 228.589 226.104 224.622 224.499 220.701 220.586 214.983 213.519 212.027 207.977 169.793 163.186 162.905 156.539 153.433 151.268
threshold=1.0000000180025095e-35 1.0000000180025095e-35 1.0000000180025095e-35 1.0000000180025095e-35 1.0000000180025095e-35 1.0000000180025095e-35 1.0000000180025095e-35 1.0000000180025095e-35 1.0000000180025095e-35 1.0000000180025095e-35 1.0000000180025095e-35 1.0000000180025095e-35 1.0000000180025095e-35 1.0000000180025095e-35 1.0000000180025095e-35 1.0000000180025095e-35 1.0000000180025095e-35 1.0000000180025095e-35 1.0000000180025095e-35 1.0000000180025095e-35 1.0000000180025095e-35 1.0000000180025095e-35 1.0000000180025095e-35 1.0000000180025095e-35 1.0000000180025095e-35 1.0000000180025095e-35 1.0000000180025095e-35 1.0000000180025095e-35 1.0000000180025095e-35 1.0000000180025095e-35 1.0000000180025095e-35 1.0000000180025095e-35 1.0000000180025095e-35 1.0000000180025095e-35 1.0000000180025095e-35 1.0000000180025095e-35 1.0000000180025095e-35 1.0000000180025095e-35 1.0000000180025095e-35 1.0000000180025095e-35 1.0000000180025095e-35 1.0000000180025095e-35 1.0000000180025095e-35 1.0000000180025095e-35 1.0000000180025095e-35 1.0000000180025095e-35 1.0000000180025095e-35 1.0000000180025095e-35 1.0000000180025095e-35 1.0000000180025095e-35 1.0000000180025095e-35 1.0000000180025095e-35 1.0000000180025095e-35 1.0000000180025095e-35 1.0000000180025095e-35 1.0000000180025095e-35 1.0000000180025095e-35 1.0000000180025095e-35 1.0000000180025095e-35 1.0000000180025095e-35 1.0000000180025095e-35 1.0000000180025095e-35 1.0000000180025095e-35
decision_type=2 2 2 2 2 2 2 2 2 2 2 2 2 2 2 2 2 2 2 2 2 2 2 2 2 2 2 2 2 2 2 2 2 2 2 2 2 2 2 2 2 2 2 2 2 2 2 2 2 2 2 2 2 2 2 2 2 2 2 2 2 2 2
left_child=2 5 6 10 11 13 12 16 23 15 22 27 26 28 37 43 34 49 54 36 48 56 47 40 44 35 59 52 42 58 -24 -21 -26 -20 -6 -12 -11 57 -23 -19 -7 -17 -2 -5 -15 -25 -22 -3 -10 -9 -31 -27 -4 -18 -13 -28 -14 -8 -16 -1 -29 -33 -42
right_child=1 3 4 9 7 8 14 17 20 19 25 18 21 24 29 41 53 39 33 31 46 38 30 45 32 51 55 60 -30 50 -32 61 -34 -35 -36 -37 -38 -39 -40 -41 62 -43 -44 -45 -46 -47 -48 -49 -50 -51 -52 -53 -54 -55 -56 -57 -58 -59 -60 -61 -62 -63 -64
leaf_value=0.037089412576032599 0.02096536251730122 -0.018828335064553836 0.020770310443176798 0.0022687940458530312 0.0015617156815137595 0.0017709997200841929 0.036805277636237768 -0.019537780557144058 0.0012415837510316675 0.022658311033083994 -0.019465365383990605 0.021030307714816218 0.0011636620862393104 0.021554335787104452 0.036843116095862931 -0.018743144983518509 0.021712238688295738 0.002108160417271329 0.0012714846628124037 0.0020966562161892979 0.0011634421630088519 0.0012439466278351817 0.0027724076043227556 -0.018653989177620331 0.0017201849123045345 -0.038537733471090463 0.020080724919957493 0.020247476293651999 0.028502425866893735 0.020229966824733145 -0.020255714454342547 -0.032389470892653864 -0.02054631903629487 -0.02082971061413412 -0.020436844531938166 -0.04034657733097205 0.00070814570188233153 0.04327369495056925 -0.020323642015643437 -0.019496768099135503 -0.007680596754933708 -0.04003757043031745 -0.00045053196905162421 -0.018815780901368168 0.00054113473936894083 -0.039489395748957309 -0.01985707268033364 -0.039497334012488991 0.021949390412909008 -0.040065834378074483 -0.00047712282938245569 -0.05980329675688642 0.00040411574923502269 0.0014510424807667012 0.00095895939362879092 0.00019456004328025593 0.020853971571681271 0.018825122350844534 0.019210181018935575 0.019601725313696968 0.037683858800523058 -0.0081432124951097608 -0.031598674615557855
leaf_count=11447 11159 11139 11229 11429 11163 11230 11112 11317 11248 11260 12504 11351 11300 11259 11439 11197 11284 11329 11195 11025 11232 11153 11185 11025 11346 10031 11214 11388 22380 11401 11299 5638 11231 11221 11391 12192 11253 22560 11275 11081 5649 11226 11142 11299 11366 11221 11155 11139 11136 11234 11125 10311 11409 11283 11169 11341 11544 11365 11144 11391 11176 5533 5530
internal_value=0 -0.187245 0.18799 -0.379765 0.00664767 0.00610444 0.369448 -0.184972 -0.182245 -0.176732 -0.578571 0.198715 0.199433 0.196935 0.543503 -0.376002 0.0171846 -0.387606 0.0106053 0.0248778 0.0199323 0.0148616 -0.381676 -0.38204 0.0145762 -0.772091 0.383785 0.389798 0.386472 0.380579 -0.17606 -0.186034 -0.187092 -0.196853 -0.191164 -0.595496 0.233601 0.708011 -0.191944 -0.17609 -0.177208 -0.590336 0.205221 -0.164478 0.21597 -0.583464 -0.187334 -0.584168 0.227679 -0.595315 0.199843 -0.986419 0.210067 0.230126 0.219441 0.201677 0.219635 0.554198 0.560897 0.567085 0.575354 -0.410908 -0.390673
internal_count=720000 358969 361031 179660 180220 179309 180811 90082 89426 89860 89800 90138 90665 89883 90146 45151 45121 44961 44936 44709 44771 45272 44762 44655 45202 45038 45393 45202 44681 45109 22484 22196 22577 22416 22554 24696 22513 45037 22428 22410 22409 22423 22301 22728 22625 22246 22387 22278 22384 22551 22526 20342 22638 22567 22520 22555 22844 22477 22583 22838 22564 11171 11179
shrinkage=0.05


Tree=10
num_leaves=64
num_cat=0
split_feature=26 14 71 8 22 22 9 11 38 92 9 69 14 53 22 60 19 12 69 0 60 38 53 11 43 19 2 12 71 8 8 9 6 35 23 35 12 30 42 42 102 100 30 60 92 92 38 35 5 91 71 30 81 16 100 71 51 69 19 5 62 60 80
split_gain=5662.09 3064.58 2674.97 1681.33 1567.75 1456.47 1230.48 859.289 830.031 823.164 816.93 721.429 717.033 708.399 563.852 472.119 470.987 467.367 450.108 449.526 436.525 435.218 422.727 419.585 415.691 414.007 357.883 352.204 329.659 325.071 283.984 280.765 253.719 251.981 245.46 242.821 241.68 241.101 241.097 239.287 237.745 237.645 234.705 233.998 228.723 227.606 226.409 224.335 222.496 221.168 216.614 210.423 206.957 206.869 203.861 203.532 197.405 166.876 159.918 156.372 154.623 154.226 152.668
threshold=1.0000000180025095e-35 1.0000000180025095e-35 1.0000000180025095e-35 1.0000000180025095e-35 1.0000000180025095e-35 1.0000000180025095e-35 1.0000000180025095e-35 1.0000000180025095e-35 1.0000000180025095e-35 1.0000000180025095e-35 1.0000000180025095e-35 1.0000000180025095e-35 1.0000000180025095e-35 1.0000000180025095e-35 1.0000000180025095e-35 1.0000000180025095e-35 1.0000000180025095e-35 1.0000000180025095e-35 1.0000000180025095e-35 1.0000000180025095e-35 1.0000000180025095e-35 1.0000000180025095e-35 1.0000000180025095e-35 1.0000000180025095e-35 1.0000000180025095e-35 1.0000000180025095e-35 1.0000000180025095e-35 1.0000000180025095e-35 1.0000000180025095e-35 1.0000000180025095e-35 1.0000000180025095e-35 1.0000000180025095e-35 1.0000000180025095e-35 1.0000000180025095e-35 1.0000000180025095e-35 1.0000000180025095e-35 1.0000000180025095e-35 1.0000000180025095e-35 1.0000000180025095e-35 1.0000000180025095e-35 1.0000000180025095e-35 1.0000000180025095e-35 1.0000000180025095e-35 1.0000000180025095e-35 1.0000000180025095e-35 1.0000000180025095e-35 1.0000000180025095e-35 1.0000000180025095e-35 1.0000000180025095e-35 1.0000000180025095e-35 1.0000000180025095e-35 1.0000000180025095e-35 1.0000000180025095e-35 1.0000000180025095e-35 1.0000000180025095e-35 1.0000000180025095e-35 1.0000000180025095e-35 1.0000000180025095e-35 1.0000000180025095e-35 1.0000000180025095e-35 1.0000000180025095e-35 1.0000000180025095e-35 1.0000000180025095e-35
decision_type=2 2 2 2 2 2 2 2 2 2 2 2 2 2 2 2 2 2 2 2 2 2 2 2 2 2 2 2 2 2 2 2 2 2 2 2 2 2 2 2 2 2 2 2 2 2 2 2 2 2 2 2 2 2 2 2 2 2 2 2 2 2 2
left_child=1 4 6 9 7 10 14 22 18 17 24 28 26 29 27 31 30 33 55 42 50 43 35 51 38 48 58 61 59 53 -12 -10 -22 -3 57 -1 -18 -17 -4 -20 -25 -27 -9 -11 -24 -29 -28 -26 -14 -19 -13 -15 -16 -7 -30 -5 -23 -21 -8 -6 -31 -2 -42
right_child=2 3 5 8 11 13 12 19 15 21 16 20 25 23 52 37 36 49 39 34 32 56 44 40 47 41 46 45 54 60 -32 -33 -34 -35 -36 -37 -38 -39 -40 -41 62 -43 -44 -45 -46 -47 -48 -49 -50 -51 -52 -53 -54 -55 -56 -57 -58 -59 -60 -61 -62 -63 -64
leaf_value=0.021484226803498641 0.036682933765666344 0.0028452378677142199 0.0019265824021435819 0.02128387831997226 0.019927003150738309 0.00012540080839819275 0.036978176674203715 0.001708207970807969 0.0037468553319777243 -0.017666067652726474 -0.019524133314454069 0.021515056665327242 0.00045167960772025039 0.020499718832326267 0.042647740225641606 -0.018211579683525516 -0.018249075349617398 -0.018916032553433618 0.0015663493642300982 -0.0076847035123633117 0.0016804226113637062 -0.057800870061157889 0.0013970274958975955 0.0012455697851002877 0.02139899705876798 0.0015742486447285172 0.020304990860991252 0.020248161821453319 0.020618925703166032 0.036251338838015623 0.0032470544886811954 -0.019112962784087598 -0.020395603394633172 -0.018929983677452519 -0.041289311980655989 0.00014486658958686276 -0.039320049898293324 -0.039395077105519913 -0.019504164198441674 -0.019527748706861869 -0.032330423880750317 -0.019430277383240484 -0.019327582515097488 -0.038548821637460422 -0.019166815458622061 -0.00066576818602313848 -0.00037906350506554344 0.00079397425350996728 0.020816394657336909 -0.039431875203181116 0.001051593019536722 0.00053807938313263901 0.028270046866260834 0.020128321431831592 0.00088451376398129052 0.001768270181712505 -0.038621491166622765 -0.031621492023621231 0.019554830564324107 0.037264341407109734 0.019123460376573032 0.01940452401121661 -0.0081478515076956731
leaf_count=11408 11343 11110 11252 11299 11408 11156 11324 11248 11123 11233 11170 11156 11144 11370 22464 11075 11291 11004 11279 6084 11292 11277 11413 11132 11295 11267 11233 11114 11342 11489 11473 11343 11152 11226 9988 11169 11198 11360 11273 11318 5548 11265 11284 11314 11478 11424 11277 11390 11304 10919 11180 11422 22423 11073 11204 11235 11101 6090 11259 11347 11280 11266 5622
internal_value=0 -0.181681 0.1844 -0.370276 0.00961727 0.00742439 0.364214 -0.180777 -0.172802 -0.569327 -0.175625 0.204882 0.196218 0.195244 0.53988 -0.369156 -0.367268 -0.371234 0.0240694 -0.382641 0.0181933 -0.764401 0.0185945 0.0114188 0.023066 0.0144463 0.381302 0.376461 0.390503 0.379547 -0.160242 -0.159644 -0.186234 -0.162134 -0.588464 0.218379 -0.575587 -0.578773 -0.17624 -0.18018 -0.190581 -0.181371 -0.176778 -0.563013 -0.178385 0.192863 0.197637 0.221072 0.211072 -0.582711 0.223923 0.209844 0.709162 0.201395 0.213324 0.229604 -0.965756 -0.393503 0.565821 0.568737 0.554306 0.561437 -0.403263
internal_count=720000 359459 360541 179216 180243 180434 180107 90162 90032 89184 90342 90081 90073 90092 90034 44901 45132 44259 45131 44694 44780 44925 45468 45094 45210 44980 45093 45147 45301 44998 22643 22466 22444 22336 22162 22577 22489 22435 22525 22597 22302 22532 22532 22547 22891 22538 22510 22685 22448 21923 22336 22792 44887 22229 22546 22534 22378 12174 22583 22755 22769 22609 11170
shrinkage=0.05


Tree=11
num_leaves=64
num_cat=0
split_feature=102 17 11 28 92 9 38 5 69 30 17 30 9 0 5 38 16 55 42 36 40 33 28 71 5 9 60 69 52 42 8 0 12 40 62 66 33 100 64 22 60 71 42 35 71 12 51 53 16 36 62 30 8 35 36 100 40 81 28 60 23 43 9
split_gain=5553.31 3008.08 2644.85 1618.17 1518.96 1475.1 1263.72 853.067 838.322 819.028 801.07 737.315 728.894 725.951 589.866 459.978 447.241 437.781 435.753 435.466 431.854 425.367 415.345 407.319 399.649 392.865 347.957 336.156 332.185 330.633 257.231 253.63 251.458 249.418 242.306 241.874 241.424 236.597 234.885 234.381 230.884 228.933 227.59 224.625 224.03 222.186 220.283 215.16 213.867 211.001 210.528 210.211 205.163 204.52 201.87 200.999 193.553 170.421 155.163 154.438 149.381 145.602 145.596
threshold=1.0000000180025095e-35 1.0000000180025095e-35 1.0000000180025095e-35 1.0000000180025095e-35 1.0000000180025095e-35 1.0000000180025095e-35 1.0000000180025095e-35 1.0000000180025095e-35 1.0000000180025095e-35 1.0000000180025095e-35 1.0000000180025095e-35 1.0000000180025095e-35 1.0000000180025095e-35 1.0000000180025095e-35 1.0000000180025095e-35 1.0000000180025095e-35 1.0000000180025095e-35 1.0000000180025095e-35 1.0000000180025095e-35 1.0000000180025095e-35 1.0000000180025095e-35 1.0000000180025095e-35 1.0000000180025095e-35 1.0000000180025095e-35 1.0000000180025095e-35 1.0000000180025095e-35 1.0000000180025095e-35 1.0000000180025095e-35 1.0000000180025095e-35 1.0000000180025095e-35 1.0000000180025095e-35 1.0000000180025095e-35 1.0000000180025095e-35 1.0000000180025095e-35 1.0000000180025095e-35 1.0000000180025095e-35 1.0000000180025095e-35 1.0000000180025095e-35 1.0000000180025095e-35 1.0000000180025095e-35 1.0000000180025095e-35 1.0000000180025095e-35 1.0000000180025095e-35 1.0000000180025095e-35 1.0000000180025095e-35 1.0000000180025095e-35 1.0000000180025095e-35 1.0000000180025095e-35 1.0000000180025095e-35 1.0000000180025095e-35 1.0000000180025095e-35 1.0000000180025095e-35 1.0000000180025095e-35 1.0000000180025095e-35 1.0000000180025095e-35 1.0000000180025095e-35 1.0000000180025095e-35 1.0000000180025095e-35 1.0000000180025095e-35 1.0000000180025095e-35 1.0000000180025095e-35 1.0000000180025095e-35 1.0000000180025095e-35
decision_type=2 2 2 2 2 2 2 2 2 2 2 2 2 2 2 2 2 2 2 2 2 2 2 2 2 2 2 2 2 2 2 2 2 2 2 2 2 2 2 2 2 2 2 2 2 2 2 2 2 2 2 2 2 2 2 2 2 2 2 2 2 2 2
left_child=2 4 6 7 12 11 14 17 19 18 16 27 28 29 26 36 39 31 33 37 51 35 38 54 43 56 58 57 -2 -8 61 -3 -25 -5 62 -11 -10 -6 -12 60 -19 -24 -22 -13 -18 -27 -17 -29 -31 -28 -23 -15 -30 -21 -14 -26 -9 -4 -1 -38 -7 -16 -20
right_child=1 3 5 9 8 10 13 25 15 21 22 24 23 20 30 46 44 40 34 53 42 50 41 32 55 45 49 47 52 48 -32 -33 -34 -35 -36 -37 59 -39 -40 -41 -42 -43 -44 -45 -46 -47 -48 -49 -50 -51 -52 -53 -54 -55 -56 -57 -58 -59 -60 -61 -62 -63 -64
leaf_value=0.036034807099651747 0.028389873505529128 0.0025760936686344727 0.037519839050992924 0.0025218232835093855 0.0015544094841752267 -0.0090302041959168921 0.027707189659068949 0.02102620013098698 0.0021346438841407449 -0.017280164665591652 0.0017556059243859922 0.0010240283403578573 0.00091203357891750283 0.020267192130267536 0.019034057059705085 -0.039631550623347556 0.021379110083751915 -0.018247568878136999 -0.0059771613058170955 0.02100217026555997 0.00052353274362270774 -0.037896358054669899 -0.017808231823390763 0.0018420737162605735 0.020524059571254326 0.0021565447489584758 -0.00037402408350984469 0.020425845658375862 0.00035050925337025077 -0.0002091489644590167 0.04327175950067625 -0.019177332469142761 -0.019632135200436766 -0.019087792609801011 -0.038990478047760124 -0.038586324425581693 -0.0071089486718918489 -0.019585846986743059 -0.019146420191895004 0.0010984066905810415 -0.03900215596128153 -0.038419426244692079 -0.020196448555335741 -0.019672066816641402 0.00089522425560354573 -0.018196594163508217 -0.019246054870272283 -1.3982794306685241e-05 0.020027924089792523 0.019479666389718171 -0.05772163708994741 0.00035740140866944429 0.020279954689546898 0.0012708644739273926 0.020443590369407506 0.00059978046928577491 0.0015949010805107772 0.019294306217865778 0.018992595550291744 -0.031157273154007459 -0.032664214410551534 0.03582147032579551 -0.029334517066573175
leaf_count=11405 22413 11217 11250 11407 11178 6073 22425 11418 11284 11322 11262 11332 10941 11167 11301 11033 11195 11223 5776 11317 11112 11374 11132 11434 11250 11399 11349 11342 11005 11330 22378 11217 11094 11214 11284 11197 5664 11134 11248 11274 11193 11420 11316 11231 11223 11121 11255 11143 11265 11422 11260 11321 11388 11206 11196 11250 11100 11307 11367 5669 5080 11318 5579
internal_value=0 -0.180001 0.182709 -0.36755 0.00902698 0.00552349 0.360406 -0.171861 -0.180151 -0.5617 -0.177857 0.196763 0.199032 0.187047 0.534215 -0.378381 0.015861 -0.370249 -0.366067 0.019565 0.00298245 -0.757519 -0.370444 0.0166628 0.00778347 0.030858 0.369944 0.386254 0.388607 0.37488 0.70567 -0.168174 -0.175117 -0.163989 -0.567692 -0.557469 -0.170817 -0.182821 -0.173767 -0.188064 -0.572336 -0.566572 -0.198843 -0.185707 0.220742 -0.158331 -0.586912 0.205777 0.197404 0.18976 -0.956522 0.204749 0.209275 0.22355 0.214314 0.208144 0.228792 0.567424 0.550495 -0.383126 -0.396073 0.548552 -0.354312
internal_count=720000 359512 360488 180301 179211 180012 180476 89888 89740 90413 89907 90105 89471 89936 90540 44905 44845 44850 45260 44835 44916 45153 45062 44665 45063 45038 45543 45042 44806 45020 44997 22434 22528 22621 22639 22519 22617 22312 22510 22427 22416 22552 22428 22563 22418 22520 22288 22485 22595 22771 22634 22488 22393 22523 22137 22500 22518 22557 22772 11333 11153 22619 11355
shrinkage=0.05


Tree=12
num_leaves=64
num_cat=0
split_feature=100 11 0 38 35 5 42 35 12 2 19 30 19 81 92 62 38 42 26 12 102 9 41 30 5 62 28 38 33 12 62 60 16 36 36 28 0 16 14 33 4 17 33 91 67 38 2 62 71 53 16 80 6 8 5 11 80 62 81 52 43 26 73
split_gain=5398.03 2868.34 2574.15 1505.44 1452.85 1444.16 1155.3 830.05 825.067 818.513 804.428 720.389 702.315 702.261 509.171 461.121 460.553 456.133 435.099 434.446 428.823 418.85 410.552 409.366 402.031 395.348 363.909 334.275 327.468 313.004 263.82 263.239 260.701 255.871 254.521 243.566 239.11 234.516 229.952 228.984 228.891 227.967 226.815 224.859 224.828 224.32 220.46 215.678 210.022 209.994 209.094 205.976 202.026 200.127 195.945 192.156 183.783 156.66 152.376 150.754 146.641 142.702 138.784
threshold=1.0000000180025095e-35 1.0000000180025095e-35 1.0000000180025095e-35 1.0000000180025095e-35 1.0000000180025095e-35 1.0000000180025095e-35 1.0000000180025095e-35 1.0000000180025095e-35 1.0000000180025095e-35 1.0000000180025095e-35 1.0000000180025095e-35 1.0000000180025095e-35 1.0000000180025095e-35 1.0000000180025095e-35 1.0000000180025095e-35 1.0000000180025095e-35 1.0000000180025095e-35 1.0000000180025095e-35 1.0000000180025095e-35 1.0000000180025095e-35 1.0000000180025095e-35 1.0000000180025095e-35 1.0000000180025095e-35 1.0000000180025095e-35 1.0000000180025095e-35 1.0000000180025095e-35 1.0000000180025095e-35 1.0000000180025095e-35 1.0000000180025095e-35 1.0000000180025095e-35 1.0000000180025095e-35 1.0000000180025095e-35 1.0000000180025095e-35 1.0000000180025095e-35 1.0000000180025095e-35 1.0000000180025095e-35 1.0000000180025095e-35 1.0000000180025095e-35 1.0000000180025095e-35 1.0000000180025095e-35 1.0000000180025095e-35 1.0000000180025095e-35 1.0000000180025095e-35 1.0000000180025095e-35 1.0000000180025095e-35 1.0000000180025095e-35 1.0000000180025095e-35 1.0000000180025095e-35 1.0000000180025095e-35 1.0000000180025095e-35 1.0000000180025095e-35 1.0000000180025095e-35 1.0000000180025095e-35 1.0000000180025095e-35 1.0000000180025095e-35 1.0000000180025095e-35 1.0000000180025095e-35 1.0000000180025095e-35 1.0000000180025095e-35 1.0000000180025095e-35 1.0000000180025095e-35 1.0000000180025095e-35 1.0000000180025095e-35
decision_type=2 2 2 2 2 2 2 2 2 2 2 2 2 2 2 2 2 2 2 2 2 2 2 2 2 2 2 2 2 2 2 2 2 2 2 2 2 2 2 2 2 2 2 2 2 2 2 2 2 2 2 2 2 2 2 2 2 2 2 2 2 2 2
left_child=2 4 6 9 11 7 14 23 24 18 22 26 28 29 47 33 35 34 36 50 44 42 32 46 41 48 57 59 -8 61 -21 -17 -5 -11 -10 -9 -3 62 -24 -27 -25 -6 -13 -18 -12 -23 -4 -1 -15 -26 -14 -29 -31 -20 -28 -30 -22 -2 -49 -16 -39 -7 -19
right_child=1 3 5 10 8 13 12 16 17 15 20 21 19 25 27 31 43 37 53 30 56 45 38 40 49 39 54 51 55 52 -32 -33 -34 -35 -36 -37 -38 60 -40 -41 -42 -43 -44 -45 -46 -47 -48 58 -50 -51 -52 -53 -54 -55 -56 -57 -58 -59 -60 -61 -62 -63 -64
leaf_value=0.041621850475538735 0.036821978399946206 0.0018397466416807595 0.021261020228451201 -0.018942436693613236 0.0017210550422441695 0.019686855981121475 0.027756055342014044 0.0026064576659715136 -0.01920350604027888 -0.018727884648206926 -0.037125881798960446 0.021059095576825605 0.00061935363180167153 0.020772192862634667 0.036029056068910714 -0.017542228683796297 -0.018647961257359572 -0.027974787438530702 0.0018221867364499483 0.0013950782246137253 -0.056143501172717304 0.00094997267116655147 -0.016953052344264575 0.0017744454305919058 0.020751367265237616 0.0015317231201668635 0.00028891869667294198 -0.00040682847436810396 0.019559836801183811 0.020191667715146955 -0.021226764338949294 -0.039676472351077026 0.0031196803955908896 0.0031217839212781414 0.002588346769766714 -0.01874474756246235 -0.019267161065212136 -0.030253839665648929 -0.037727553827342171 -0.019301031763355084 -0.018813056316218144 -0.018763329073765173 0.00017204262022906246 -0.039079278087084085 -0.016633939528222744 -0.0192759162727296 0.00090341918371051331 0.035688264144163408 0.00057317469683887 0.00087449474699005832 0.020775521023574061 0.019567213075220025 0.00032686850845503764 0.021275377205941085 0.01955404877522085 0.00014871806362012593 -0.037673113895692834 0.019579043830578482 0.018439829244114744 0.01901196715939878 -0.0067900908747383394 0.036395422607207809 -0.050732188452125494
leaf_count=22465 11196 11297 11159 11094 11315 11244 22589 11271 11177 11356 11331 11250 11337 11215 11464 11186 11293 5580 11371 11335 11199 11390 11149 11349 11317 11355 11336 11284 11260 11251 11102 11256 11299 11243 11325 11349 11247 5548 11112 11409 11399 11430 11142 11229 11176 11257 11286 11198 11296 11432 11291 11225 10917 11168 10959 11070 11144 11084 11148 11487 5613 11113 5631
internal_value=0 -0.17598 0.181783 -0.35886 0.00745398 0.00799862 0.359766 -0.173744 -0.176102 -0.17119 -0.546212 0.192874 0.192137 0.196707 0.527395 -0.366105 -0.370374 -0.372633 0.0251328 0.00772333 -0.739464 0.00980894 -0.351938 0.023057 0.0196034 0.0140237 0.378183 0.371388 0.377393 0.38279 -0.19746 -0.573127 -0.156432 -0.158586 -0.166507 -0.162349 -0.175452 -0.579385 -0.548471 -0.178346 -0.170895 -0.17169 0.213165 -0.576712 -0.539048 -0.183001 0.219941 0.686159 0.211172 0.215136 0.21325 0.191089 0.208032 0.228685 0.192749 0.197727 -0.93866 0.564143 0.541446 0.550195 -0.369253 0.557804 -0.788247
internal_count=720000 359610 360390 179628 179982 180135 180255 90335 90368 90124 89504 89614 89984 89800 90271 45041 45142 44874 45083 45065 44850 45039 44654 45193 45494 45275 44575 45460 44919 44525 22437 22442 22393 22599 22502 22620 22544 22372 22261 22764 22748 22745 22392 22522 22507 22647 22445 44811 22511 22749 22628 22509 22168 22539 22295 22330 22343 22280 22346 22951 11161 22357 11211
shrinkage=0.05


Tree=13
num_leaves=64
num_cat=0
split_feature=22 8 19 2 81 81 36 43 40 12 6 17 6 2 43 60 36 28 102 12 35 5 28 51 62 80 42 62 69 14 30 38 69 17 16 64 30 92 17 9 12 71 96 35 51 5 62 14 43 2 14 26 81 62 11 64 102 12 40 12 0 38 69
split_gain=5273.51 2917.62 2519.68 1521.25 1451.14 1447.61 1187.78 813.903 805.92 799.622 798.368 716.406 701.948 697.021 520.02 448.177 441.292 440.428 436.8 420.33 408.822 407.772 406.564 406.502 400.312 398.755 349.6 333.929 320.669 318.76 260.824 248.774 245.818 243.852 241.281 241.263 240.401 239.061 236.965 234.511 232.853 231.847 227.458 222.777 222.048 221.756 220.916 217.755 216.913 216.111 203.739 202.938 201.123 200.942 199.349 199.066 195.366 165.343 163.644 163.45 160.143 149.964 147.27
threshold=1.0000000180025095e-35 1.0000000180025095e-35 1.0000000180025095e-35 1.0000000180025095e-35 1.0000000180025095e-35 1.0000000180025095e-35 1.0000000180025095e-35 1.0000000180025095e-35 1.0000000180025095e-35 1.0000000180025095e-35 1.0000000180025095e-35 1.0000000180025095e-35 1.0000000180025095e-35 1.0000000180025095e-35 1.0000000180025095e-35 1.0000000180025095e-35 1.0000000180025095e-35 1.0000000180025095e-35 1.0000000180025095e-35 1.0000000180025095e-35 1.0000000180025095e-35 1.0000000180025095e-35 1.0000000180025095e-35 1.0000000180025095e-35 1.0000000180025095e-35 1.0000000180025095e-35 1.0000000180025095e-35 1.0000000180025095e-35 1.0000000180025095e-35 1.0000000180025095e-35 1.0000000180025095e-35 1.0000000180025095e-35 1.0000000180025095e-35 1.0000000180025095e-35 1.0000000180025095e-35 1.0000000180025095e-35 1.0000000180025095e-35 1.0000000180025095e-35 1.0000000180025095e-35 1.0000000180025095e-35 1.0000000180025095e-35 1.0000000180025095e-35 1.0000000180025095e-35 1.0000000180025095e-35 1.0000000180025095e-35 1.0000000180025095e-35 1.0000000180025095e-35 1.0000000180025095e-35 1.0000000180025095e-35 1.0000000180025095e-35 1.0000000180025095e-35 1.0000000180025095e-35 1.0000000180025095e-35 1.0000000180025095e-35 1.0000000180025095e-35 1.0000000180025095e-35 1.0000000180025095e-35 1.0000000180025095e-35 1.0000000180025095e-35 1.0000000180025095e-35 1.0000000180025095e-35 1.0000000180025095e-35 1.0000000180025095e-35
decision_type=2 2 2 2 2 2 2 2 2 2 2 2 2 2 2 2 2 2 2 2 2 2 2 2 2 2 2 2 2 2 2 2 2 2 2 2 2 2 2 2 2 2 2 2 2 2 2 2 2 2 2 2 2 2 2 2 2 2 2 2 2 2 2
left_child=1 3 6 10 12 11 13 23 18 22 24 28 29 26 27 41 30 32 46 31 47 33 55 43 52 42 57 59 58 61 -9 -12 -10 -14 60 -19 -24 -17 -25 -22 -18 -11 -13 -5 -26 -20 -7 -15 -21 -31 -29 -27 -1 -23 -30 -6 -28 -2 -3 -8 -16 -4 -55
right_child=2 5 4 7 9 8 14 16 17 15 19 25 21 20 34 37 40 35 45 48 39 53 36 38 44 51 56 50 54 49 -32 -33 -34 -35 -36 -37 -38 -39 -40 -41 -42 -43 -44 -45 -46 -47 -48 -49 -50 -51 -52 -53 -54 62 -56 -57 -58 -59 -60 -61 -62 -63 -64
leaf_value=0.020446844526320014 0.036739276528048141 0.036532213780003674 0.036409450617174093 -0.03651615566303297 0.020490155197393358 0.021636941288732395 0.036457603089381341 -0.01657977613302895 0.0025805774609833358 0.0022257493904892186 0.0026614648316442384 0.0013430273931534823 0.0015137651489420837 0.020305669803979381 0.035518251501393677 -0.01832042009389365 0.0032661093775023017 -0.017853764234420009 -0.018927168396177044 -0.038076761753833649 0.0012538668960385855 0.020555432077119629 0.001778950127704306 -0.016748650066066767 -0.018593728990593587 0.00070008489283446707 0.019200125975312635 0.019503634053902888 0.020043757494040634 0.020399226673213925 -0.038551065506625931 -0.018929292841861282 -0.018854303575548903 -0.019921548856058662 0.041922718911251669 -0.03912938401418431 -0.019710298462979794 -0.039688409819562946 -0.037780064241217541 -0.01987484961911461 -0.017722162541265442 -0.01889732829051936 -0.019196678334468295 -0.056830739646814281 0.0017507674900342236 0.0012593144012273856 0.0011501156546696065 -2.4660015290467373e-05 -0.017925687689163118 0.00011705082912502189 -0.0003262770102013964 0.020208311884386442 0.0010807568399100835 0.012727306617179393 0.00067588094993290026 0.00089604977757468953 -0.00017383065370087203 0.018895287384543918 0.018928335068723684 0.018514235514657095 0.017825245807925039 0.019247702518762289 -0.011148219720646911
leaf_count=11463 11119 11221 11246 11274 11316 11225 11236 11235 11244 11202 11277 11391 11315 11393 11232 11119 11182 11193 11293 11270 11187 11251 11200 11239 11323 11255 11088 11194 11256 11275 11255 11322 11337 11266 22536 11232 11371 11326 11213 11256 11176 11137 11353 11325 11170 11480 11209 11173 11139 11228 11342 11245 11317 5662 11191 11270 11203 11254 11207 11194 11149 11120 5628
internal_value=0 -0.173711 0.180059 -0.358061 0.00621696 0.0112702 0.354631 -0.54631 -0.172554 -0.180338 -0.169479 0.195671 0.193203 0.187023 0.525698 -0.375905 -0.350889 -0.366907 0.0213409 -0.363038 0.00560206 0.0101471 0.0160087 -0.740523 0.0231998 0.0134677 0.370635 0.366575 0.380099 0.377772 -0.551862 -0.164552 -0.164228 -0.184121 0.685102 -0.570365 -0.181386 -0.582376 -0.545373 -0.191703 -0.145469 -0.167843 -0.178306 -0.93419 -0.16993 -0.177314 0.226725 0.202467 -0.561339 0.204961 0.188026 0.207352 0.216412 0.21138 0.206682 0.214217 0.187504 0.554203 0.554626 0.548863 0.531478 0.556072 0.0150164
internal_count=720000 360512 359488 180180 179932 180332 179556 89899 90213 89941 90281 90119 89991 89673 89883 44784 44848 45006 45207 45008 45009 45122 45157 45051 45273 45244 44664 44966 44875 44869 22490 22599 22581 22581 44917 22425 22571 22445 22452 22443 22358 22339 22744 22599 22493 22773 22434 22566 22409 22503 22536 22500 22780 22541 22447 22586 22291 22373 22428 22430 22381 22366 11290
shrinkage=0.05


Tree=14
num_leaves=64
num_cat=0
split_feature=16 69 71 60 30 62 5 14 40 14 9 42 11 17 81 36 6 26 12 9 102 6 30 64 81 55 38 41 2 14 60 52 5 66 38 62 62 79 12 14 30 66 81 17 64 102 28 38 36 43 5 12 80 62 12 12 41 41 8 96 40 69 51
split_gain=5221.01 2888.29 2493.22 1512.21 1436.52 1418.1 1168.53 805.127 795.619 775.726 766.228 709.79 709.771 675.126 557.467 451.103 411.644 410.434 408.715 405.712 405.482 402.183 391.916 390.273 385.428 371.095 341.523 334.321 334.246 322.937 249.851 238.893 238.259 237.467 237.349 236.334 234.84 231.598 230.734 229.796 225.26 224.56 224.433 222.787 222.481 213.557 210.632 209.043 204.915 201.858 200.873 198.712 196.991 195.098 189.673 189.366 186.059 166.87 164.702 161.265 148.221 147.214 146.504
threshold=1.0000000180025095e-35 1.0000000180025095e-35 1.0000000180025095e-35 1.0000000180025095e-35 1.0000000180025095e-35 1.0000000180025095e-35 1.0000000180025095e-35 1.0000000180025095e-35 1.0000000180025095e-35 1.0000000180025095e-35 1.0000000180025095e-35 1.0000000180025095e-35 1.0000000180025095e-35 1.0000000180025095e-35 1.0000000180025095e-35 1.0000000180025095e-35 1.0000000180025095e-35 1.0000000180025095e-35 1.0000000180025095e-35 1.0000000180025095e-35 1.0000000180025095e-35 1.0000000180025095e-35 1.0000000180025095e-35 1.0000000180025095e-35 1.0000000180025095e-35 1.0000000180025095e-35 1.0000000180025095e-35 1.0000000180025095e-35 1.0000000180025095e-35 1.0000000180025095e-35 1.0000000180025095e-35 1.0000000180025095e-35 1.0000000180025095e-35 1.0000000180025095e-35 1.0000000180025095e-35 1.0000000180025095e-35 1.0000000180025095e-35 1.0000000180025095e-35 1.0000000180025095e-35 1.0000000180025095e-35 1.0000000180025095e-35 1.0000000180025095e-35 1.0000000180025095e-35 1.0000000180025095e-35 1.0000000180025095e-35 1.0000000180025095e-35 1.0000000180025095e-35 1.0000000180025095e-35 1.0000000180025095e-35 1.0000000180025095e-35 1.0000000180025095e-35 1.0000000180025095e-35 1.0000000180025095e-35 1.0000000180025095e-35 1.0000000180025095e-35 1.0000000180025095e-35 1.0000000180025095e-35 1.0000000180025095e-35 1.0000000180025095e-35 1.0000000180025095e-35 1.0000000180025095e-35 1.0000000180025095e-35 1.0000000180025095e-35
decision_type=2 2 2 2 2 2 2 2 2 2 2 2 2 2 2 2 2 2 2 2 2 2 2 2 2 2 2 2 2 2 2 2 2 2 2 2 2 2 2 2 2 2 2 2 2 2 2 2 2 2 2 2 2 2 2 2 2 2 2 2 2 2 2
left_child=1 4 6 10 11 13 12 25 17 23 24 26 29 28 38 33 37 46 50 40 48 42 54 56 53 55 60 58 62 59 -17 -24 -26 -9 -25 -27 -20 -12 -8 -18 -11 -19 -10 -22 -23 -29 -5 -21 -14 -30 -13 -31 -28 -3 -15 -6 -7 -38 -16 -2 -1 -40 -4
right_child=2 3 5 8 7 9 14 15 21 19 16 18 20 22 27 30 39 41 36 47 43 44 31 34 32 35 52 45 49 51 -32 -33 -34 -35 -36 -37 57 -39 61 -41 -42 -43 -44 -45 -46 -47 -48 -49 -50 -51 -52 -53 -54 -55 -56 -57 -58 -59 -60 -61 -62 -63 -64
leaf_value=0.036358110882324733 0.035936544937500842 0.02047292429017758 0.019018739574953761 -0.017576701933156896 0.020074202736482027 0.020001159878739398 0.041987953572570999 -0.018200730940512635 -0.017178543633926222 0.0021118275300187794 0.0021589729799918532 0.00083083243305845053 0.00031829785639744996 0.020007203283427685 0.017954038874206737 0.0027757495776483329 -0.017261095941618523 0.0026268004713566949 0.0015113286548925154 -0.017992628533395682 0.00076955439302383763 -0.036777581032396055 0.0017209304495295773 0.001873430093802966 -0.019079306281777703 0.0024000687474723722 0.00012126736388089508 0.019189884328691037 -0.0002708743150843244 0.019484997426664361 -0.018922658671283593 -0.019383501172924256 0.0023273215843787722 -0.039257344547532255 -0.019290490651305905 -0.018768269016900731 -0.0072871424121947791 -0.018510594814604528 0.03526784228612645 -0.037979706430117707 -0.018601747315005333 -0.018151622683075585 -0.0377967446312856 -0.019546659981397749 -0.057322795421214483 -0.0011693627667439782 -0.037448872610044849 -0.037474982402412246 0.020103438523387956 0.019317784145560801 0.020403308217832119 0.00021104608492498482 0.019594716037365741 0.0010922433361983256 0.00092381590467527418 0.0011196366367237321 0.0011071881737887755 -0.03225493316537225 0.035859498362676344 0.018428016050820315 0.019557247877656309 0.018328821289702077 0.035726499493569534
leaf_count=11452 11461 11412 11262 11262 11363 11134 22323 11354 11326 11106 11292 11270 11152 11059 11247 11377 11104 11176 11083 11343 11330 11279 11312 11337 11242 11419 11011 11255 11142 11275 11252 11482 11374 11065 11225 11369 5729 11301 11449 11147 11181 11167 11114 11325 11034 11314 11203 11263 11180 11254 11317 11200 11190 11289 11183 11429 11089 5575 11250 11251 11284 11021 11334
internal_value=0 -0.175097 0.176995 -0.359871 0.0100639 0.0061032 0.350594 -0.173412 -0.549419 -0.176079 -0.171066 0.195746 0.186344 0.1899 0.52124 -0.367168 -0.357927 -0.355025 0.0122782 -0.364853 0.00375284 -0.743521 0.0114908 0.0171274 0.0226386 0.0225112 0.380349 0.357201 0.369396 0.369328 -0.160526 -0.17824 -0.169818 -0.571886 -0.173976 -0.165022 -0.184501 -0.16368 0.687443 -0.554606 -0.165955 -0.155146 -0.548436 -0.188567 -0.938914 0.177236 -0.549938 -0.554464 0.202036 0.191266 0.209884 0.196311 0.198559 0.215311 0.206859 0.210155 0.21142 -0.392167 0.537726 0.545243 0.56019 0.538294 0.54795
internal_count=720000 360261 359739 179722 180539 179706 180033 90628 89561 89678 90161 89911 90174 90028 89859 45048 44844 44808 44974 44893 44987 44753 45036 44785 45317 45580 44937 45066 44992 45187 22629 22794 22616 22419 22562 22788 22387 22593 44793 22251 22287 22343 22440 22655 22313 22569 22465 22606 22332 22396 22587 22475 22201 22701 22242 22792 22223 11304 22497 22712 22736 22470 22596
shrinkage=0.05


Tree=15
num_leaves=64
num_cat=0
split_feature=0 53 28 19 96 42 62 64 100 28 9 36 92 2 8 71 43 69 102 8 100 12 96 81 14 62 80 6 26 71 35 17 30 2 51 92 8 6 17 100 69 60 42 71 103 62 64 40 113 5 5 17 107 35 28 6 100 12 11 36 97 42 40
split_gain=5102.13 2760.5 2475.22 1463.92 1395.14 1361.11 1152.54 813.564 770.132 761.993 730.774 675.325 672.668 658.673 529.244 457.487 443.827 434.836 426.698 414.129 404.817 396.229 389.801 385.473 377.662 374.372 368.372 329.302 321.446 314.044 247.196 246.305 241.261 240.932 237.441 234.907 233.733 228.215 227.943 224.817 223.588 221.76 220.982 220.296 220.085 219.492 218.528 205.23 204.825 202.515 198.72 198.285 197.649 197.285 189.107 186.533 179.887 163.102 160.416 155.068 152.074 150.585 149.929
threshold=1.0000000180025095e-35 1.0000000180025095e-35 1.0000000180025095e-35 1.0000000180025095e-35 1.0000000180025095e-35 1.0000000180025095e-35 1.0000000180025095e-35 1.0000000180025095e-35 1.0000000180025095e-35 1.0000000180025095e-35 1.0000000180025095e-35 1.0000000180025095e-35 1.0000000180025095e-35 1.0000000180025095e-35 1.0000000180025095e-35 1.0000000180025095e-35 1.0000000180025095e-35 1.0000000180025095e-35 1.0000000180025095e-35 1.0000000180025095e-35 1.0000000180025095e-35 1.0000000180025095e-35 1.0000000180025095e-35 1.0000000180025095e-35 1.0000000180025095e-35 1.0000000180025095e-35 1.0000000180025095e-35 1.0000000180025095e-35 1.0000000180025095e-35 1.0000000180025095e-35 1.0000000180025095e-35 1.0000000180025095e-35 1.0000000180025095e-35 1.0000000180025095e-35 1.0000000180025095e-35 1.0000000180025095e-35 1.0000000180025095e-35 1.0000000180025095e-35 1.0000000180025095e-35 1.0000000180025095e-35 1.0000000180025095e-35 1.0000000180025095e-35 1.0000000180025095e-35 1.0000000180025095e-35 1.0000000180025095e-35 1.0000000180025095e-35 1.0000000180025095e-35 1.0000000180025095e-35 1.0000000180025095e-35 1.0000000180025095e-35 1.0000000180025095e-35 1.0000000180025095e-35 1.0000000180025095e-35 1.0000000180025095e-35 1.0000000180025095e-35 1.0000000180025095e-35 1.0000000180025095e-35 1.0000000180025095e-35 1.0000000180025095e-35 1.0000000180025095e-35 1.0000000180025095e-35 1.0000000180025095e-35 1.0000000180025095e-35
decision_type=2 2 2 2 2 2 2 2 2 2 2 2 2 2 2 2 2 2 2 2 2 2 2 2 2 2 2 2 2 2 2 2 2 2 2 2 2 2 2 2 2 2 2 2 2 2 2 2 2 2 2 2 2 2 2 2 2 2 2 2 2 2 2
left_child=2 4 6 8 11 13 14 25 19 20 23 24 26 29 27 30 46 53 34 42 45 52 40 56 50 44 48 61 55 60 -9 -18 -23 -26 -12 -27 -25 57 -16 -19 -11 -22 -3 -20 -6 -5 -10 -24 -8 -29 -2 -31 -15 -14 -21 -13 -7 -17 -30 -40 -4 -1 -35
right_child=1 3 5 9 7 10 12 15 16 22 18 28 17 21 38 37 31 39 43 54 41 32 47 36 33 35 -28 49 58 51 -32 -33 -34 62 -36 -37 -38 -39 59 -41 -42 -43 -44 -45 -46 -47 -48 -49 -50 -51 -52 -53 -54 -55 -56 -57 -58 -59 -60 -61 -62 -63 -64
leaf_value=0.035386450291384396 0.00070521764435272792 0.0017784095859419938 0.01839057579069622 0.0028574720951137916 0.00036469714905434881 0.020080642469323229 0.018719395727516682 0.0029654683528525937 -0.017668997602797429 -0.016433198541665056 -0.018343971208275606 0.019307678738328296 0.020378860613481944 0.01984783242713627 0.041316609704915047 -0.0057302872551699873 0.0032520662735733303 0.00064387666270884303 -0.017647422535756529 0.020743694796789554 -0.016689605971691664 0.0015811820332206111 -0.035773643198320708 -0.019497382247982292 0.0020399501143818157 0.002400776560997046 0.027603654873675134 -0.00069383127959036475 0.036172586891790551 0.019390889413280234 -0.018779507825818689 -0.0180500914097383 -0.019974443879586065 -0.0072019091733681907 0.0028155316498719618 -0.018543608589727676 0.0018116028919983236 -0.038935981022866287 0.017779210898731104 -0.019977327874849307 -0.036795726155781729 -0.036894296306080133 -0.018710532543079188 -0.037914824772000894 0.020843965296812567 -0.017592629309190911 -0.037779585794984256 -0.055307598510404871 -0.001019072604072282 0.019086257709182281 0.020244022733430386 -9.8406795063039296e-05 0.0004313643796145542 0.00083376635062370184 0.0017313221332400709 0.00052752042485011339 0.0012992315771553227 -0.03054064233354406 0.018646934167918697 0.035173768410527141 0.035627992488721227 0.018290593373361048 -0.030655315303123265
leaf_count=11296 11022 11246 11204 11340 11061 11303 11331 11195 11240 11390 11353 11168 11139 11396 22795 5535 11247 11321 11204 11451 11273 11029 11215 11279 11261 11244 22480 11296 11248 11270 11081 11392 11243 5594 11163 11257 11310 11249 11147 11286 11303 11327 11257 11198 11286 11173 11253 11402 11329 11208 11022 11221 11378 11157 11078 11212 11266 5581 11269 11313 11344 11213 5656
internal_value=0 -0.171095 0.177111 -0.350236 0.0099652 0.00496736 0.349861 -0.171506 -0.164715 -0.534685 -0.175108 0.191596 0.184492 0.186268 0.517621 -0.367836 -0.351778 0.00504349 -0.358326 0.0283139 -0.345418 0.00903939 -0.722358 0.0155861 0.0140248 0.0242087 0.363665 0.357725 0.371376 0.365165 -0.157535 -0.149819 -0.186739 -0.170334 -0.157201 -0.161809 -0.177479 -0.573647 0.678118 -0.196519 -0.532362 -0.536776 -0.169722 -0.557214 0.214017 -0.147352 -0.554669 -0.912826 0.176899 0.17964 0.206509 0.192591 0.202972 0.211434 0.227535 0.1976 0.210397 -0.365324 0.547348 0.528691 0.541181 0.536716 -0.380256
internal_count=720000 359528 360472 180587 178941 180161 180311 89489 90164 90423 90076 89452 90043 90085 90268 44641 45132 44903 44918 45032 45113 45046 45310 45158 44555 44848 45140 45013 44897 45039 22276 22639 22272 22511 22516 22501 22589 22365 45255 22607 22693 22600 22503 22402 22347 22513 22493 22617 22660 22504 22044 22491 22774 22296 22529 22380 22569 11116 22517 22460 22548 22509 11250
shrinkage=0.05


Tree=16
num_leaves=64
num_cat=0
split_feature=51 43 17 52 36 2 5 6 81 100 69 26 11 9 60 11 2 35 79 38 64 66 19 40 96 5 69 62 81 80 103 92 71 60 11 33 38 14 55 100 35 38 53 64 6 62 64 100 28 53 30 41 14 8 14 81 52 33 2 17 92 28 23
split_gain=5010.87 2816.51 2413.66 1520.5 1408.31 1395.16 1106.59 776.479 755.893 744.989 736.761 673.565 663.26 659.522 499.124 441.181 434.969 429.167 424.678 422.36 411.653 400.346 398.378 384.78 370.505 364.898 325.227 318.704 315.444 299.416 250.074 233.893 228.946 228.234 227.223 224.095 219.983 216.883 216.487 215.688 215.021 215.007 214.138 209.848 208.191 206.6 204.695 201.177 200.289 199.308 195.356 194.648 193.988 190.92 190.834 188.272 186.28 152.116 151.721 144.626 139.668 139.526 138.826
threshold=1.0000000180025095e-35 1.0000000180025095e-35 1.0000000180025095e-35 1.0000000180025095e-35 1.0000000180025095e-35 1.0000000180025095e-35 1.0000000180025095e-35 1.0000000180025095e-35 1.0000000180025095e-35 1.0000000180025095e-35 1.0000000180025095e-35 1.0000000180025095e-35 1.0000000180025095e-35 1.0000000180025095e-35 1.0000000180025095e-35 1.0000000180025095e-35 1.0000000180025095e-35 1.0000000180025095e-35 1.0000000180025095e-35 1.0000000180025095e-35 1.0000000180025095e-35 1.0000000180025095e-35 1.0000000180025095e-35 1.0000000180025095e-35 1.0000000180025095e-35 1.0000000180025095e-35 1.0000000180025095e-35 1.0000000180025095e-35 1.0000000180025095e-35 1.0000000180025095e-35 1.0000000180025095e-35 1.0000000180025095e-35 1.0000000180025095e-35 1.0000000180025095e-35 1.0000000180025095e-35 1.0000000180025095e-35 1.0000000180025095e-35 1.0000000180025095e-35 1.0000000180025095e-35 1.0000000180025095e-35 1.0000000180025095e-35 1.0000000180025095e-35 1.0000000180025095e-35 1.0000000180025095e-35 1.0000000180025095e-35 1.0000000180025095e-35 1.0000000180025095e-35 1.0000000180025095e-35 1.0000000180025095e-35 1.0000000180025095e-35 1.0000000180025095e-35 1.0000000180025095e-35 1.0000000180025095e-35 1.0000000180025095e-35 1.0000000180025095e-35 1.0000000180025095e-35 1.0000000180025095e-35 1.0000000180025095e-35 1.0000000180025095e-35 1.0000000180025095e-35 1.0000000180025095e-35 1.0000000180025095e-35 1.0000000180025095e-35
decision_type=2 2 2 2 2 2 2 2 2 2 2 2 2 2 2 2 2 2 2 2 2 2 2 2 2 2 2 2 2 2 2 2 2 2 2 2 2 2 2 2 2 2 2 2 2 2 2 2 2 2 2 2 2 2 2 2 2 2 2 2 2 2 2
left_child=1 3 6 7 9 12 13 19 15 22 21 25 28 26 42 38 40 30 45 52 32 48 56 43 50 35 58 60 57 54 59 -19 -10 -21 -18 -6 -17 -24 -5 -25 -9 -20 -8 -15 -26 -12 -23 -30 -7 -22 -14 -27 -1 -29 -13 -28 -3 -4 -2 -11 -16 -38 -44
right_child=2 4 5 8 11 10 14 16 20 17 18 29 24 23 27 36 34 31 41 33 49 46 37 39 44 51 55 53 47 -31 -32 -33 -34 -35 -36 -37 61 -39 -40 -41 -42 -43 62 -45 -46 -47 -48 -49 -50 -51 -52 -53 -54 -55 -56 -57 -58 -59 -60 -61 -62 -63 -64
leaf_value=0.021202425004709938 0.035587161046708143 0.020339029350784573 0.035490140527621443 0.0030527729838017211 0.0020776181165015144 0.019970952904030448 0.04042589878356824 0.0026628500506941429 -0.016134642807285229 -0.0067951622169786403 0.0018253695895269967 0.020129599525607979 0.019677330224543502 0.019818843737809344 0.034907717984696038 -0.017543717297147831 -0.017448174318845665 -0.017175438461367036 -0.017967036249979987 0.0018104386186478284 -0.036695275787451541 0.00062028599391292087 0.0014891822685220604 0.0011816593328548364 0.0011034390773555689 0.020186396682799472 0.018778139142734164 -0.00048574653561361982 0.019623832744174188 0.027483607710745851 0.0031759372104799913 -0.03797784527709186 -0.037021391861538383 -0.018987489115278339 -0.038155291269889098 -0.018398032593482529 -0.026180922042608704 -0.018930387884500161 -0.01734752519536149 -0.018738307136752185 -0.017645315785149558 -0.038044610863849415 0.034150141394434806 2.1452708160541953e-05 -0.018772799276718426 -0.017967639006532164 -0.019121550189255706 9.897809330816458e-05 0.0005604493173372798 -0.056042985220404289 0.00036722967104568295 0.00069853682276912023 0.0019469195277476131 0.018637600607315532 0.00094304977669611677 -0.0001016225246199948 0.0014599089427938746 0.018409193695314487 0.018539908734970738 -0.029973980710334837 0.018332607657082858 -0.048854111142661555 0.017659230715902155
leaf_count=11351 11278 11170 11338 11014 11207 11337 22687 11159 11178 5607 11239 11369 11097 11226 11181 11419 11233 11195 11260 11293 11287 11211 11289 11281 11218 11175 11445 11296 11291 22484 11153 11300 11181 11152 11265 11330 5644 11045 11405 11190 11189 11306 11251 10962 11244 11084 11212 11392 11390 11350 11271 11143 11206 11213 11312 11275 11384 11203 11403 5631 11203 5849 11047
internal_value=0 -0.171422 0.173771 -0.353931 0.0119591 0.00492432 0.343837 -0.163461 -0.543204 -0.169423 -0.176204 0.196927 0.187542 0.184019 0.509182 -0.354258 -0.355611 -0.353957 -0.362386 0.0287677 -0.732312 0.0106701 0.0210655 0.010389 0.00997314 0.0182682 0.362398 0.353662 0.365384 0.378333 -0.153451 -0.552787 -0.53357 -0.170867 -0.557364 -0.16453 -0.555097 -0.174861 -0.146671 -0.177031 -0.150539 -0.56134 0.665111 0.200648 -0.177251 -0.161156 -0.185146 0.193085 0.204126 -0.928218 0.198271 0.208913 0.230092 0.180123 0.208872 0.187444 0.216041 0.539854 0.539381 -0.368487 0.531881 -0.755373 0.519823
internal_count=720000 359969 360031 180175 179794 180093 179938 89848 90327 89774 90039 90020 90054 90060 89878 45331 44846 44886 44889 45002 44996 45150 44888 44659 44830 44855 45401 44893 45224 45165 22391 22495 22359 22445 22498 22537 22912 22334 22419 22471 22348 22566 44985 22188 22462 22323 22423 22683 22727 22637 22368 22318 22557 22509 22681 22720 22554 22541 22681 11238 22384 11493 22298
shrinkage=0.05


Tree=17
num_leaves=64
num_cat=0
