tree
version=v2
num_class=1
num_tree_per_iteration=1
label_index=0
max_feature_idx=110
objective=binary sigmoid:1
feature_names=Column_0 Column_1 Column_2 Column_3 Column_4 Column_5 Column_6 Column_7 Column_8 Column_9 Column_10 Column_11 Column_12 Column_13 Column_14 Column_15 Column_16 Column_17 Column_18 Column_19 Column_20 Column_21 Column_22 Column_23 Column_24 Column_25 Column_26 Column_27 Column_28 Column_29 Column_30 Column_31 Column_32 Column_33 Column_34 Column_35 Column_36 Column_37 Column_38 Column_39 Column_40 Column_41 Column_42 Column_43 Column_44 Column_45 Column_46 Column_47 Column_48 Column_49 Column_50 Column_51 Column_52 Column_53 Column_54 Column_55 Column_56 Column_57 Column_58 Column_59 Column_60 Column_61 Column_62 Column_63 Column_64 Column_65 Column_66 Column_67 Column_68 Column_69 Column_70 Column_71 Column_72 Column_73 Column_74 Column_75 Column_76 Column_77 Column_78 Column_79 Column_80 Column_81 Column_82 Column_83 Column_84 Column_85 Column_86 Column_87 Column_88 Column_89 Column_90 Column_91 Column_92 Column_93 Column_94 Column_95 Column_96 Column_97 Column_98 Column_99 Column_100 Column_101 Column_102 Column_103 Column_104 Column_105 Column_106 Column_107 Column_108 Column_109 Column_110
feature_infos=[-1:1] [-1:1] [-1:1] [-1:1] [-1:1] [-1:1] [-1:1] [-1:1] [-1:1] [-1:1] [-1:1] [-1:1] [-1:1] [-1:1] [-1:1] [-1:1] [-1:1] [-1:1] [-1:1] [-1:1] [-1:1] [-1:1] [-1:1] [-1:1] [-1:1] [-1:1] [-1:1] [-1:1] [-1:1] [-1:1] [-1:1] [-1:1] [-1:1] [-1:1] [-1:1] [-1:1] [-1:1] [-1:1] [-1:1] [-1:1] [-1:1] [-1:1] [-1:1] [-1:1] [-1:1] [-1:1] [-1:1] [-1:1] [-1:1] [-1:1] [-1:1] [-1:1] [-1:1] [-1:1] [-1:1] [-1:1] [-1:1] [-1:1] [-1:1] [-1:1] [-1:1] [-1:1] [-1:1] [-1:1] [-1:1] [-1:1] [-1:1] [-1:1] [-1:1] [-1:1] [-1:1] [-1:1] [-1:1] [-1:1] [-1:1] [-1:1] [-1:1] [-1:1] [-1:1] [-1:1] [-1:1] [-1:1] [-1:1] [-1:1] [-1:1] [-1:1] [-1:1] [-1:1] [-1:1] [-1:1] [-1:1] [-1:1] [-1:1] [-1:1] [-1:1] [-1:1] [-1:1] [-1:1] [-1:1] [-1:1] [-1:1] [-1:1] [-1:1] [-1:1] [-1:1] [-1:1] [-1:1] [-1:1] [-1:1] [-1:1] [-1:1]
tree_sizes=4824 4924 4925 4931 4922 4924 4940 4934 4923 4941 4944 4929 4936 4924 4935 4938 4940 4934 4921 4931 4934 4920 4940 4937 4952 4931 4925 4941 4936 4927 4923 4935 4933 4932 4932 4934 4945 4936 4939 4927 4936 4942 4934 4944 4939 4943 4925 4928 4945 4944 4940 4943 4941 4938 4938 4918 4932 4936 4943 4941 4939 4933 4928 4934 4939 4950 4936 4933 4940 4936 4928 4932 4938 4940 4935 4942 4936 4940 4950 4932 4930 4942 4943 4943 4940 4941 4944 4933 4943 4931 4935 4946 4929 4919 4927 4946 4925 4948 4937 4944 4938 4948 4952 4922 4945 4951 4932 4940 4944 4938 4932 4941 4937 4935 4942 4946 4937 4929 4934 4934 4945 4932 4943 4944 4933 4941 4924 4926 4945 4945 4936 4933 4933 4947 4950 4948 4937 4940 4939 4935 4940 4949 4940 4940 4933 4933 4946 4938 4951 4937 4952 4935 4936 4940 4948 4940 4946 4937 4942 4952 4938 4939 4938 4941 4945 4939 4946 4943 4937 4931 4946 4927 4943 4945 4943 4939 4950 4952 4940 4936 4938 4935 4933 4945 4945 4930 4937 4944 4934 4938 4949 4949 4955 4944 4947 4939 4936 4946 4941 4948 4945 4938 4950 4936 4945 4930 4940 4941 4934 4942 4944 4946 4942 4944 4944 4950 4934 4947 4948 4954 4941 4945 4945 4955 4948 4953 4936 4944 4955 4942 4947 4960 4954 4958 4946 4942 4956 4938 4947 4938 4947 4964 4958 4951 4958 4947 4956 4959 4950 4943 4951 4956 4957 4955 4953 4951 4961 4949 4932 4950 4959 4953 4953 4965 4953 4946 4963 4966 4952 4965 4960 4939 4959 4952 4961 4962 4961 4971 4955 4961 4958 4960 4964 4960 4947 4971 4964 4965 4975 4961 4960 4959 4967 4961 4951 4955 4969 4955 4965 4970 4965 4950 4966 4965 4979 4978 4967 4967 4955 4970 4957 4968 4970 4970 4972 4963 4960 4972 4966 4970 4969 4969 4960 4965 4958 4963 4967 4969 4969 4962 4966 4975 4974 4974 4968 4966 4973 4974 4970 4963 4972 4969 4983 4963 4968 4969 4976 4967 4971 4968 4972 4970 4978 4959 4974 4978 4966 4963 4964 4966 4974 4962 4964 4980 4977 4954 4967 4993 4977 4986 4985 4977 4979 4981 4977 4985 4978 4977 4984 4972 4957 4958 4978 4968 4982 4998 4989 4978 4978 4981 4978 4982 4961 4976 4979 4967 4985 4992 4975 4976 4971 4969 4974 4984 4957 4976 4981 4975 4981 4985 4977 4976 4974 4987 4979 4964 4984 4966 4977 4973 4979 4975 4976 4972 4979 4984 4984 4981 4991 4975 4978 4980 4982 4981 4980 4987 4970 4985 4988 4984 4976 4997 4969 4981 4989 4992 4986 4957 4962 4974 4988 4997 4983 4978 4979 4972 4986 4968 4971 4976 4992 4981 4974 4972 4992 4983 4978 4968 4989 4987 4973 4986 4984 4976 4982 4973 4987 4986 4977 4968 4976 4976 4979 4979 4986 4981 4987 4984 4976 4993 4985 4995 4986 4981 4981 4983 4981 4989 4987

Tree=0
num_leaves=56
num_cat=0
split_feature=6 84 84 20 55 20 20 10 10 20 10 20 10 10 55 55 86 10 55 86 46 55 86 55 86 86 22 46 22 46 86 86 86 46 10 22 0 1 10 86 22 22 86 22 46 22 86 55 22 0 46 86 10 3 86
split_gain=12772 6551.94 5816 2739.75 2702.39 2644.34 2401.53 1394.75 1378.09 1357.96 1329.57 1319.78 1272.39 1158.9 1068.31 744.68 724.145 706.754 694.403 681.156 674.247 665.428 665.266 654.232 650.419 602.658 594.286 574.936 533.353 485.262 399.267 375.664 368.259 366.795 364.466 360.213 351.075 349.529 348.538 343.103 342.371 336.365 335.587 333.377 331.399 327.153 326.529 326.274 319.961 311.772 305.471 304.648 302.72 299.905 298.449
threshold=1.0000000180025095e-35 1.0000000180025095e-35 1.0000000180025095e-35 1.0000000180025095e-35 1.0000000180025095e-35 1.0000000180025095e-35 1.0000000180025095e-35 1.0000000180025095e-35 1.0000000180025095e-35 1.0000000180025095e-35 1.0000000180025095e-35 1.0000000180025095e-35 1.0000000180025095e-35 1.0000000180025095e-35 1.0000000180025095e-35 1.0000000180025095e-35 1.0000000180025095e-35 1.0000000180025095e-35 1.0000000180025095e-35 1.0000000180025095e-35 1.0000000180025095e-35 1.0000000180025095e-35 1.0000000180025095e-35 1.0000000180025095e-35 1.0000000180025095e-35 1.0000000180025095e-35 1.0000000180025095e-35 1.0000000180025095e-35 1.0000000180025095e-35 1.0000000180025095e-35 1.0000000180025095e-35 1.0000000180025095e-35 1.0000000180025095e-35 1.0000000180025095e-35 1.0000000180025095e-35 1.0000000180025095e-35 1.0000000180025095e-35 1.0000000180025095e-35 1.0000000180025095e-35 1.0000000180025095e-35 1.0000000180025095e-35 1.0000000180025095e-35 1.0000000180025095e-35 1.0000000180025095e-35 1.0000000180025095e-35 1.0000000180025095e-35 1.0000000180025095e-35 1.0000000180025095e-35 1.0000000180025095e-35 1.0000000180025095e-35 1.0000000180025095e-35 1.0000000180025095e-35 1.0000000180025095e-35 1.0000000180025095e-35 1.0000000180025095e-35
decision_type=2 2 2 2 2 2 2 2 2 2 2 2 2 2 2 2 2 2 2 2 2 2 2 2 2 2 2 2 2 2 2 2 2 2 2 2 2 2 2 2 2 2 2 2 2 2 2 2 2 2 2 2 2 2 2
left_child=1 3 6 10 9 13 12 16 19 17 21 22 18 29 30 46 35 31 33 41 37 43 38 39 44 -9 -14 52 -16 49 -8 -4 -22 -2 -26 -5 -17 -12 -6 -15 -20 -7 -28 -1 -13 -18 -10 -27 -29 -3 -19 -30 -11 -23 -25
right_child=2 5 4 7 11 8 14 25 15 27 20 24 26 23 28 36 45 50 40 -21 32 53 -24 54 34 47 42 48 51 -31 -32 -33 -34 -35 -36 -37 -38 -39 -40 -41 -42 -43 -44 -45 -46 -47 -48 -49 -50 -51 -52 -53 -54 -55 -56
leaf_value=0.11789537292343388 0.14542604931215808 0.066084763157529175 0.1186808634462975 0.14329352827404349 0.093732784857759086 0.11534753812793701 0.17569565385241095 0.15461905843733262 0.14049171796476029 0.14263534643297396 0.14245727074538009 0.14255754399587933 0.1557130133622821 0.11494863557000534 0.15555618196993529 0.090184312930134042 0.11719339444265624 0.14270073674784645 0.12039579107396978 0.078366791055654667 0.11833278840869134 0.092844264231739304 0.081746773936352407 0.089788813086444458 0.093254217321223312 0.14350335832625616 0.14485139918009407 0.14348822327975205 0.14524505181135894 0.0570766348894549 0.15683918825122511 0.092840403586717107 0.092696493842225239 0.11992424709068601 0.11880116900619341 0.11797710286723065 0.11512241233165092 0.1175566158137608 0.1187404163505759 0.090095793830155424 0.095687791158178007 0.090772704492051326 0.12027945415435 0.093548628908006623 0.11818588375962776 0.093055708989073338 0.11640170997804317 0.11938824851912207 0.11957761738101667 0.089529714186381948 0.11929718499621912 0.12204235326093796 0.16578115933971038 0.069679361020242872 0.066765110028161684
leaf_count=11196 11463 11359 11363 11283 11252 11175 22749 22219 11178 11358 11329 11158 22596 11059 22250 11359 11390 11155 11208 22495 11261 11217 22424 11260 11065 11186 11246 11277 11447 22448 22327 11220 11230 11179 11354 11276 11300 11298 11119 11239 11303 11181 11065 11380 11237 11151 11409 11335 11187 11408 11231 11268 11323 11216 11339
internal_value=0 -0.265455 0.268218 0.00494179 0.0132382 -0.535489 0.522663 0.252532 -0.292778 0.25822 -0.24186 -0.233125 0.291338 -0.778159 0.754036 -0.0460824 0.00390126 0.0117988 0.0538506 -0.541647 0.00118369 -0.485493 -0.476316 -0.550153 0.0099639 0.503164 0.530126 0.503681 0.535539 -1.00456 0.971996 -0.238269 -0.244471 0.301584 -0.231271 0.257667 -0.3027 0.245362 -0.231872 -0.30668 -0.195325 -0.293981 0.298184 -0.242662 0.251457 -0.250067 0.211353 0.272203 0.276499 -0.798468 0.264067 0.319585 0.72869 -0.729871 -0.790383
internal_count=720000 360176 359824 179967 179723 180209 180101 89840 90097 90114 90127 89609 90060 90112 90041 45246 45100 44969 45153 44851 45118 45009 44795 44897 44814 44740 44907 45145 44965 45215 45076 22583 22491 22642 22419 22559 22659 22627 22371 22298 22511 22356 22311 22576 22395 22541 22587 22521 22464 22767 22386 22715 22681 22433 22599
shrinkage=1


Tree=1
num_leaves=56
num_cat=0
split_feature=6 84 84 20 55 20 20 10 55 10 20 10 55 10 55 55 86 10 86 86 86 86 22 46 22 55 86 46 46 86 10 10 86 86 0 22 10 22 22 10 24 55 12 14 65 10 46 37 1 86 86 10 86 55 22
split_gain=11529.5 5901.28 5263.72 2473.12 2439.58 2377.32 2179.67 1262.02 1241.94 1240.86 1228.83 1213.05 1170.83 1040.52 972.525 671.853 653.619 637.969 628.741 628.132 619.518 612.278 612.125 608.59 590.605 565.764 551.347 550.603 530.088 454.115 371.392 354.017 338.373 335.564 333.718 332.795 331.194 326.813 325.94 324.783 321.454 317.096 311.338 310.542 305.112 304.732 302.549 302.448 301.57 296.101 295.178 289.741 288.675 286.919 284.043
threshold=1.0000000180025095e-35 1.0000000180025095e-35 1.0000000180025095e-35 1.0000000180025095e-35 1.0000000180025095e-35 1.0000000180025095e-35 1.0000000180025095e-35 1.0000000180025095e-35 1.0000000180025095e-35 1.0000000180025095e-35 1.0000000180025095e-35 1.0000000180025095e-35 1.0000000180025095e-35 1.0000000180025095e-35 1.0000000180025095e-35 1.0000000180025095e-35 1.0000000180025095e-35 1.0000000180025095e-35 1.0000000180025095e-35 1.0000000180025095e-35 1.0000000180025095e-35 1.0000000180025095e-35 1.0000000180025095e-35 1.0000000180025095e-35 1.0000000180025095e-35 1.0000000180025095e-35 1.0000000180025095e-35 1.0000000180025095e-35 1.0000000180025095e-35 1.0000000180025095e-35 1.0000000180025095e-35 1.0000000180025095e-35 1.0000000180025095e-35 1.0000000180025095e-35 1.0000000180025095e-35 1.0000000180025095e-35 1.0000000180025095e-35 1.0000000180025095e-35 1.0000000180025095e-35 1.0000000180025095e-35 1.0000000180025095e-35 1.0000000180025095e-35 1.0000000180025095e-35 1.0000000180025095e-35 1.0000000180025095e-35 1.0000000180025095e-35 1.0000000180025095e-35 1.0000000180025095e-35 1.0000000180025095e-35 1.0000000180025095e-35 1.0000000180025095e-35 1.0000000180025095e-35 1.0000000180025095e-35 1.0000000180025095e-35 1.0000000180025095e-35
decision_type=2 2 2 2 2 2 2 2 2 2 2 2 2 2 2 2 2 2 2 2 2 2 2 2 2 2 2 2 2 2 2 2 2 2 2 2 2 2 2 2 2 2 2 2 2 2 2 2 2 2 2 2 2 2 2
left_child=1 3 6 8 10 13 12 16 18 21 17 20 27 29 30 37 38 32 47 45 40 43 31 41 50 54 -12 -2 -16 53 -8 -10 -4 -17 -27 -21 -20 -11 -5 -29 -6 -15 -26 -7 -28 -14 -18 -1 -19 -24 -13 -30 -25 -3 -9
right_child=2 5 4 7 11 9 14 25 22 15 26 24 19 23 28 33 46 48 36 35 -22 -23 49 52 42 34 44 39 51 -31 -32 -33 -34 -35 -36 -37 -38 -39 -40 -41 -42 -43 -44 -45 -46 -47 -48 -49 -50 -51 -52 -53 -54 -55 -56
leaf_value=0.023676263617517714 0.036279417109246766 -0.026247562844140676 0.00087878227493345886 0.024302201799590906 0.0010692940954983147 -0.0021931984471671578 0.037252444303285337 0.046536267594246013 -0.024097064649286022 0.022201485420734326 0.035017809976881524 0.023833113271319289 0.0024786446062646738 -0.0025623604695324429 0.036366090702465964 -0.0021521457728095011 -0.00021614938714937414 0.024214170065589982 -0.02358756936159731 0.002786387231845979 -0.034479269162028023 -0.037345474017578623 -0.023417562393897844 -0.026363242883975808 0.0009844759730854905 0.00046654492452054773 0.024307640000992545 0.0020602149033959638 0.0031488925959993297 -0.057613004018364777 0.055469607562905233 0.0010312204713604544 -0.023637855033709639 -0.026523408932404742 0.02491385261255381 -0.021642191907271527 0.0006855113500059309 -0.0019068334717279669 0.00021016075090180063 0.026314603324082204 -0.022791628408254452 -0.026284132984426018 -0.022708600196014492 -0.02579692796799192 0.0009599193350840427 0.025679464982284267 -0.023419715883107789 0.0004573418388407815 0.00095066689439230107 -0.046354514560081543 0.00080278202073549442 0.025919401839303031 -0.049138899216588178 -0.048813884116474464 0.023900853577661297
leaf_count=11308 22738 11255 11363 11283 11212 11218 22604 11187 11240 11199 22632 11013 11249 11215 22494 11303 11220 11166 11359 11185 22354 22495 11290 11089 11089 11204 11473 11179 11177 22651 22472 11245 11220 11356 11237 11209 11195 11388 11276 11004 11448 11374 11168 11138 11040 11496 11321 11208 11220 11282 11325 11294 11219 11309 11112
internal_value=0 -0.252019 0.25509 0.00471253 0.0125957 -0.508041 0.497472 0.240136 -0.229622 -0.277927 0.245552 -0.221332 0.27707 -0.73786 0.71828 -0.0437666 0.00371577 0.0112193 0.00552678 0.049156 -0.453206 -0.513843 -0.464706 -0.521909 0.0128763 0.47884 0.479343 0.506259 0.509707 -0.952093 0.926687 -0.230837 -0.226206 -0.287326 0.25416 -0.189051 -0.230832 0.200931 0.244999 0.281635 -0.21971 -0.290264 -0.218081 -0.279056 0.257164 0.283788 -0.237399 0.242366 0.251088 -0.697677 0.242994 0.29187 -0.756472 -0.751154 0.705133
internal_count=720000 360176 359824 179967 179723 180209 180101 89840 90127 90097 90114 89609 90060 90112 90041 45246 45100 44969 45070 45139 45014 44851 45057 44897 44595 44740 45145 44921 44965 45215 45076 22485 22583 22659 22441 22394 22554 22587 22559 22183 22660 22589 22257 22356 22513 22745 22541 22516 22386 22572 22338 22471 22308 22564 22299
shrinkage=0.05


Tree=2
num_leaves=56
num_cat=0
split_feature=6 84 84 20 10 20 20 86 46 55 86 22 22 46 55 22 46 22 0 10 22 22 53 3 1 65 10 46 22 55 46 0 55 10 0 86 46 0 1 22 86 86 46 53 46 55 86 22 22 86 19 86 53 55 53
split_gain=10411.8 5319.66 4766.47 2301.13 2263.09 2141.54 1980.98 1162.97 1147.4 1145.59 1142.01 1130.06 1085.81 979.178 887.997 619.757 616.698 616.097 613.428 606.174 598.962 578.737 571.759 568.283 557.561 547.352 511.138 505.521 485.966 441.665 371.074 353.179 328.971 328.927 325.947 325.279 322.158 318.49 317.972 316.152 310.373 309.043 307.368 301.892 300.586 298.878 297.342 296.295 290.322 286.177 281.122 276.195 271.624 269.433 263.892
threshold=1.0000000180025095e-35 1.0000000180025095e-35 1.0000000180025095e-35 1.0000000180025095e-35 1.0000000180025095e-35 1.0000000180025095e-35 1.0000000180025095e-35 1.0000000180025095e-35 1.0000000180025095e-35 1.0000000180025095e-35 1.0000000180025095e-35 1.0000000180025095e-35 1.0000000180025095e-35 1.0000000180025095e-35 1.0000000180025095e-35 1.0000000180025095e-35 1.0000000180025095e-35 1.0000000180025095e-35 1.0000000180025095e-35 1.0000000180025095e-35 1.0000000180025095e-35 1.0000000180025095e-35 1.0000000180025095e-35 1.0000000180025095e-35 1.0000000180025095e-35 1.0000000180025095e-35 1.0000000180025095e-35 1.0000000180025095e-35 1.0000000180025095e-35 1.0000000180025095e-35 1.0000000180025095e-35 1.0000000180025095e-35 1.0000000180025095e-35 1.0000000180025095e-35 1.0000000180025095e-35 1.0000000180025095e-35 1.0000000180025095e-35 1.0000000180025095e-35 1.0000000180025095e-35 1.0000000180025095e-35 1.0000000180025095e-35 1.0000000180025095e-35 1.0000000180025095e-35 1.0000000180025095e-35 1.0000000180025095e-35 1.0000000180025095e-35 1.0000000180025095e-35 1.0000000180025095e-35 1.0000000180025095e-35 1.0000000180025095e-35 1.0000000180025095e-35 1.0000000180025095e-35 1.0000000180025095e-35 1.0000000180025095e-35 1.0000000180025095e-35
decision_type=2 2 2 2 2 2 2 2 2 2 2 2 2 2 2 2 2 2 2 2 2 2 2 2 2 2 2 2 2 2 2 2 2 2 2 2 2 2 2 2 2 2 2 2 2 2 2 2 2 2 2 2 2 2 2
left_child=1 4 6 7 9 13 11 18 20 17 24 26 27 25 30 42 49 41 39 38 33 32 31 37 -6 47 35 -5 -16 50 -8 -10 -9 -7 -18 -2 -17 -11 -14 -4 -22 -1 -12 -19 -26 -20 -21 -3 -24 -13 -15 -30 -23 -29 -27
right_child=2 5 3 12 10 8 14 21 22 23 15 16 19 29 28 36 34 43 45 46 40 52 48 -25 44 54 -28 53 51 -31 -32 -33 -34 -35 -36 -37 -38 -39 -40 -41 -42 -43 -44 -45 -46 -47 -48 -49 -50 -51 -52 -53 -54 -55 -56
leaf_value=0.023806076572954735 0.025844824359590401 -0.0024174954316263705 0.00084635096860946949 0.033636569529569942 0.034140615587777458 -0.0024623613374716671 0.053321574757759116 0.0013458558241599295 -0.025813292368663466 -0.022822774263461729 0.023749102741749392 0.024887191820006628 0.001192881753602309 -0.024283106730176401 0.034814265624991944 0.00031200773613379286 -0.02174762815786567 0.00021954579788074138 0.024094774880957303 0.024151918727193179 -0.0016817139803045737 -0.02259860312571503 -0.024253335464794159 -0.033553692492063462 0.023349823375930372 -0.024690099582070475 0.035083106801980381 0.023337178983494952 0.024930542330668454 -0.055409539428634524 0.035072169469923892 -0.00080792747504908563 -0.0228983638732644 0.021795773323578124 0.0024356324934293357 0.0017167181375377918 -0.023626470318073287 0.00094725824531237477 -0.022619307108228431 -0.022779836475226412 -0.025204739748390121 0.00033736801543588586 0.00031691364603036787 -0.022958880757561591 0.00021500874952275401 0.00086762250652825269 0.0010996651865685326 -0.025225210082199884 -0.04697544993618432 0.0023248456509039413 -0.046745553045679164 0.0028054092583725118 -0.044670100272014075 0.0014088318418515058 -0.04633990276503884
leaf_count=11247 11166 11500 11411 22408 22179 11144 22587 11213 11241 11422 11238 11343 11295 11128 22250 11453 11364 11244 11122 11214 11286 11257 11151 22440 11270 11075 22596 11277 11447 22455 22489 11407 11223 11275 11028 11294 11127 11182 11230 11327 11196 11289 11266 11285 11325 11118 11285 11307 11397 11269 11173 11268 11093 11250 11474
internal_value=0 -0.23936 0.242674 0.0119851 0.0044951 -0.482294 0.473685 -0.214766 -0.263907 -0.219633 0.229812 0.26355 0.238752 -0.700289 0.684634 0.00470511 0.0389286 0.00623494 0.0128937 0.0187715 -0.0372008 -0.443055 -0.489132 -0.445392 0.456824 -0.493065 0.488267 0.459352 0.485245 -0.910186 0.884334 -0.264415 -0.215886 0.194466 -0.196753 0.274243 -0.229789 -0.22128 -0.213581 -0.218522 -0.268065 0.240629 0.240243 -0.227814 0.235087 0.249489 0.251637 -0.274498 -0.714842 0.272636 -0.71074 0.278897 -0.671071 0.247291 -0.714131
internal_count=720000 360176 359824 179723 179967 180209 180101 89764 90097 90109 89858 90060 89959 90112 90041 45084 45004 45065 44978 45024 44901 44786 45196 45044 44774 45356 45056 44935 44965 44756 45076 22648 22436 22419 22392 22460 22580 22604 22525 22738 22482 22536 22504 22529 22595 22240 22499 22807 22548 22612 22301 22715 22350 22527 22549
shrinkage=0.05


Tree=3
num_leaves=56
num_cat=0
split_feature=6 84 84 20 10 86 55 10 46 0 46 55 46 55 86 1 12 3 53 22 10 12 65 22 22 55 12 0 20 0 22 20 20 55 22 22 14 1 12 10 0 55 22 17 22 53 14 12 44 55 36 10 36 55 22
split_gain=9404.56 4797.96 4318.2 2233.7 2163.69 2050.01 1869.66 1111.24 1104.54 1088.06 1087.64 1069.8 1033.51 976.374 862.255 642.314 591.309 583.283 569.502 569.464 564.288 550.529 542.889 538.308 521.121 518.407 518.131 516.867 482.496 427.597 358.548 340.471 319.276 316.772 316.685 315.31 313.336 309.895 303.874 303.681 302.117 300.801 292.862 290.875 288.922 288.568 287.87 284.308 282.441 281.249 278.739 264.358 264.186 256.548 254.784
threshold=1.0000000180025095e-35 1.0000000180025095e-35 1.0000000180025095e-35 1.0000000180025095e-35 1.0000000180025095e-35 1.0000000180025095e-35 1.0000000180025095e-35 1.0000000180025095e-35 1.0000000180025095e-35 1.0000000180025095e-35 1.0000000180025095e-35 1.0000000180025095e-35 1.0000000180025095e-35 1.0000000180025095e-35 1.0000000180025095e-35 1.0000000180025095e-35 1.0000000180025095e-35 1.0000000180025095e-35 1.0000000180025095e-35 1.0000000180025095e-35 1.0000000180025095e-35 1.0000000180025095e-35 1.0000000180025095e-35 1.0000000180025095e-35 1.0000000180025095e-35 1.0000000180025095e-35 1.0000000180025095e-35 1.0000000180025095e-35 1.0000000180025095e-35 1.0000000180025095e-35 1.0000000180025095e-35 1.0000000180025095e-35 1.0000000180025095e-35 1.0000000180025095e-35 1.0000000180025095e-35 1.0000000180025095e-35 1.0000000180025095e-35 1.0000000180025095e-35 1.0000000180025095e-35 1.0000000180025095e-35 1.0000000180025095e-35 1.0000000180025095e-35 1.0000000180025095e-35 1.0000000180025095e-35 1.0000000180025095e-35 1.0000000180025095e-35 1.0000000180025095e-35 1.0000000180025095e-35 1.0000000180025095e-35 1.0000000180025095e-35 1.0000000180025095e-35 1.0000000180025095e-35 1.0000000180025095e-35 1.0000000180025095e-35 1.0000000180025095e-35
decision_type=2 2 2 2 2 2 2 2 2 2 2 2 2 2 2 2 2 2 2 2 2 2 2 2 2 2 2 2 2 2 2 2 2 2 2 2 2 2 2 2 2 2 2 2 2 2 2 2 2 2 2 2 2 2 2
left_child=1 3 6 10 9 7 14 26 25 22 19 24 28 15 30 32 31 39 49 48 38 35 33 50 -5 -6 42 36 43 -15 -2 -9 -7 -4 -18 -12 -16 -25 -14 -13 -19 -21 -3 -8 -20 -27 -22 -26 -1 -10 -11 -17 -24 -23 -31
right_child=2 5 4 11 8 13 12 16 18 23 21 17 20 29 27 51 34 40 44 41 46 53 52 37 47 45 -28 -29 -30 54 -32 -33 -34 -35 -36 -37 -38 -39 -40 -41 -42 -43 -44 -45 -46 -47 -48 -49 -50 -51 -52 -53 -54 -55 -56
leaf_value=0.022693293684100019 0.05173228291356851 -0.0012883001813586059 0.0013304557033312157 0.033180176115260827 0.033543765692490547 -0.023143969847868821 0.024134062208390455 -0.0018592081018351848 0.023043488591584092 0.02304988252753087 0.00087413028325921066 0.00042676408551602291 0.0020082135500005842 -0.053609660798145345 0.024114705368055638 -0.045819531021966009 -0.00055304454801720826 -0.022566000827671386 0.00058181585652565938 0.00039353937284984864 0.024022519731661088 -0.022325880273326826 -0.021581003393107465 0.0015433863829271777 0.022803019024233498 0.023419333455331572 -0.034105101019738591 0.03373390507114378 0.033523418776281615 -0.023613018667703857 0.033759160774969404 0.022799178320097833 0.00070148988304795628 -0.022305411863803887 -0.024388153969441325 -0.022806756535993313 0.00033985913969811909 -0.021942519029727311 -0.021333265433114437 0.023705755673742168 0.00064982864673440298 -0.022601799965479431 -0.024067593402911903 0.0014177582662532368 -0.022191717863024714 0.00058014326883517914 0.0013002154544389159 0.00014263287833716817 0.00018866491253313519 0.00065339562182749691 0.00063491351467592728 -0.024207333518876731 -0.043278581864360045 -0.04377351804574451 -0.044816500414783508
leaf_count=11168 22369 11364 11456 22527 22478 11146 11333 11219 11198 11028 11332 11387 11208 22655 11165 11302 11110 11190 11197 11445 11409 11157 11328 11241 11189 11049 22323 22576 22494 11379 22629 11231 11341 11300 11240 11212 11258 11293 11221 11143 11332 11372 11233 11350 11187 11173 11089 11072 11237 11347 11260 11362 11188 11204 11304
internal_value=0 -0.22739 0.230908 0.00428671 0.0114052 -0.458027 0.451179 -0.243585 0.232142 -0.207717 -0.218345 0.228262 0.246987 -0.670476 0.656582 -0.462149 -0.0203688 0.0102666 0.0102881 0.00104745 0.0315246 -0.439019 -0.426742 0.0135742 0.448026 0.455555 -0.465892 0.459808 0.461559 -0.877819 0.853765 0.209157 -0.222531 -0.208518 -0.250922 -0.218212 0.243544 -0.204616 -0.193382 0.238385 -0.217819 -0.221567 -0.252303 0.255355 -0.216199 0.238719 0.256461 0.230644 0.228121 0.235171 0.234512 -0.699891 -0.647244 -0.661632 -0.683634
internal_count=720000 360176 359824 179967 179723 180209 180101 89720 89629 90094 90127 89840 90104 90489 89997 45151 44800 45052 44929 45222 44927 44905 45272 44822 44788 44700 44920 44999 45177 45338 44998 22450 22487 22756 22350 22544 22423 22534 22429 22530 22522 22817 22597 22683 22384 22222 22498 22261 22405 22545 22288 22664 22516 22361 22683
shrinkage=0.05


Tree=4
num_leaves=56
num_cat=0
split_feature=6 84 84 86 20 55 10 1 0 86 22 20 86 22 0 26 53 1 20 20 12 86 12 76 10 46 1 20 86 46 46 48 50 44 10 22 10 53 0 48 53 48 65 19 27 24 76 26 19 20 22 12 0 46 0
split_gain=8496.2 4329.84 3912.84 2095.77 2077.61 1940.25 1791.42 1095 1083.38 1049.9 1038.06 1025.79 1023.21 907.265 804.461 586.336 565.247 561.195 561.03 554.513 542.967 542.578 536.048 536.002 505.93 503.48 499.873 477.702 472.548 430.841 362.77 334.93 319.341 316.785 310.917 310.884 310.465 310.216 299.015 298.465 293.021 292.507 292.073 289.544 287.455 284.72 283.625 277.172 275.605 275.428 274.408 271.276 266.195 262.388 239.996
threshold=1.0000000180025095e-35 1.0000000180025095e-35 1.0000000180025095e-35 1.0000000180025095e-35 1.0000000180025095e-35 1.0000000180025095e-35 1.0000000180025095e-35 1.0000000180025095e-35 1.0000000180025095e-35 1.0000000180025095e-35 1.0000000180025095e-35 1.0000000180025095e-35 1.0000000180025095e-35 1.0000000180025095e-35 1.0000000180025095e-35 1.0000000180025095e-35 1.0000000180025095e-35 1.0000000180025095e-35 1.0000000180025095e-35 1.0000000180025095e-35 1.0000000180025095e-35 1.0000000180025095e-35 1.0000000180025095e-35 1.0000000180025095e-35 1.0000000180025095e-35 1.0000000180025095e-35 1.0000000180025095e-35 1.0000000180025095e-35 1.0000000180025095e-35 1.0000000180025095e-35 1.0000000180025095e-35 1.0000000180025095e-35 1.0000000180025095e-35 1.0000000180025095e-35 1.0000000180025095e-35 1.0000000180025095e-35 1.0000000180025095e-35 1.0000000180025095e-35 1.0000000180025095e-35 1.0000000180025095e-35 1.0000000180025095e-35 1.0000000180025095e-35 1.0000000180025095e-35 1.0000000180025095e-35 1.0000000180025095e-35 1.0000000180025095e-35 1.0000000180025095e-35 1.0000000180025095e-35 1.0000000180025095e-35 1.0000000180025095e-35 1.0000000180025095e-35 1.0000000180025095e-35 1.0000000180025095e-35 1.0000000180025095e-35 1.0000000180025095e-35
decision_type=2 2 2 2 2 2 2 2 2 2 2 2 2 2 2 2 2 2 2 2 2 2 2 2 2 2 2 2 2 2 2 2 2 2 2 2 2 2 2 2 2 2 2 2 2 2 2 2 2 2 2 2 2 2 2
left_child=1 3 6 11 9 7 10 18 19 20 28 16 25 24 27 40 36 51 32 53 45 37 42 34 54 -6 -13 43 -2 47 -16 -17 -3 -21 -11 -22 -1 -9 -19 -18 -14 -24 -10 -8 -27 -4 -26 -15 -28 -30 -20 -12 -25 -5 -7
right_child=2 5 4 8 12 13 14 21 22 23 17 26 15 29 30 31 39 38 50 33 35 -23 41 52 46 44 48 -29 49 -31 -32 -33 -34 -35 -36 -37 -38 -39 -40 -41 -42 -43 -44 -45 -46 -47 -48 -49 -50 -51 -52 -53 -54 -55 -56
leaf_value=-0.00013867817120636925 0.03272001858857386 0.0005204993006185742 0.022880665996735907 -0.021852837872712822 0.0326391830743143 -0.042919888428381403 0.023089881967859119 0.00049106911204103553 0.022678642722168726 -0.021992661132443938 0.022927872253011322 0.03256721168185104 0.023567358091925988 -0.021321695156343058 0.05004995474556078 0.0014047133729404419 0.00082249355078803951 -0.021973545723431812 0.02204290797404013 0.001275850701142366 0.0013991292998124429 -0.033240829419036652 0.00092564944660027061 -0.042928553669858677 -0.00024692872049303995 -3.1063299476516364e-05 0.022462646216560706 0.032446254192277563 0.0010263949640239804 -0.051896012532877234 0.031946330524626206 -0.023076878364604453 -0.023442207472426264 -0.022498367004993615 0.0015153636065796273 -0.022146199663760073 0.023446020908671164 -0.023129797493306421 0.0011518339233199204 -0.022180806948303725 0.00066189852363579159 -0.021841902217538591 -9.4295740442459453e-05 0.00031582305891864884 0.022666677172640006 0.00031292546022037047 -0.022684669646150818 -0.043436950581372348 0.00029787232196247949 0.023262544793061779 -0.00011461621517142061 0.00092477952289591854 -0.021025332663857935 -0.043544594628682258 -0.022380376111594803
leaf_count=11166 22312 11127 11252 11112 22575 11331 11305 11210 11285 11215 11308 22152 11206 11351 22709 11251 11236 11346 11223 11367 11246 22664 11250 11238 11290 11138 11273 22550 11294 22560 22229 11221 11131 11158 11333 11276 11242 11076 11236 11407 11254 11402 11328 11264 11314 11204 11274 11333 11353 11223 11193 11325 11000 11236 11446
internal_value=0 -0.216069 0.219728 0.00408838 0.0108544 -0.435151 0.429796 -0.226325 -0.211592 -0.204543 0.229395 0.221107 0.226563 -0.641646 0.630854 0.0126043 0.00792875 0.0146676 -0.00439324 -0.432147 0.0118599 -0.446873 0.00714052 -0.421386 -0.441581 0.440618 0.43671 0.440934 0.446506 -0.842092 0.821707 -0.216407 -0.229261 -0.210025 -0.203887 -0.207996 0.233545 -0.225001 -0.209466 -0.215319 0.241749 -0.210685 0.225402 0.23447 0.228135 0.232399 -0.22916 -0.647412 0.22682 0.241209 0.219354 0.238329 -0.641903 -0.655406 -0.651933
internal_count=720000 360176 359824 179967 179723 180209 180101 89624 90138 89764 90044 89829 89959 90585 90057 44932 45051 45215 44674 44873 44978 44950 45265 44786 45341 45027 44778 45119 44829 45244 44938 22472 22258 22525 22548 22522 22408 22286 22582 22643 22460 22652 22613 22569 22452 22456 22564 22684 22626 22517 22416 22633 22238 22348 22777
shrinkage=0.05


Tree=5
num_leaves=56
num_cat=0
split_feature=6 84 53 22 55 46 84 12 53 10 84 20 22 53 76 46 55 0 86 19 0 44 20 86 1 55 0 14 3 20 20 46 14 86 25 81 20 10 20 10 26 24 27 19 0 20 80 22 26 22 46 1 27 0 24
split_gain=7689.94 3928.71 3730.32 2047.44 2029.52 1942.77 1730.09 1086.67 1069.71 1052.41 1022.36 1011.62 988.325 920.918 776.893 557.2 552.237 548.116 544.255 542.39 541.793 538.231 532.797 515.124 513.753 486.762 485.914 482.271 462.768 410.715 339.503 314.668 313.046 308.636 306.165 305.098 301.16 299.591 297.323 295.921 295.523 295.046 293.742 291.291 289.88 283.494 283.253 283.081 282.594 281.771 281.659 276.349 250.517 250.3 245.894
threshold=1.0000000180025095e-35 1.0000000180025095e-35 1.0000000180025095e-35 1.0000000180025095e-35 1.0000000180025095e-35 1.0000000180025095e-35 1.0000000180025095e-35 1.0000000180025095e-35 1.0000000180025095e-35 1.0000000180025095e-35 1.0000000180025095e-35 1.0000000180025095e-35 1.0000000180025095e-35 1.0000000180025095e-35 1.0000000180025095e-35 1.0000000180025095e-35 1.0000000180025095e-35 1.0000000180025095e-35 1.0000000180025095e-35 1.0000000180025095e-35 1.0000000180025095e-35 1.0000000180025095e-35 1.0000000180025095e-35 1.0000000180025095e-35 1.0000000180025095e-35 1.0000000180025095e-35 1.0000000180025095e-35 1.0000000180025095e-35 1.0000000180025095e-35 1.0000000180025095e-35 1.0000000180025095e-35 1.0000000180025095e-35 1.0000000180025095e-35 1.0000000180025095e-35 1.0000000180025095e-35 1.0000000180025095e-35 1.0000000180025095e-35 1.0000000180025095e-35 1.0000000180025095e-35 1.0000000180025095e-35 1.0000000180025095e-35 1.0000000180025095e-35 1.0000000180025095e-35 1.0000000180025095e-35 1.0000000180025095e-35 1.0000000180025095e-35 1.0000000180025095e-35 1.0000000180025095e-35 1.0000000180025095e-35 1.0000000180025095e-35 1.0000000180025095e-35 1.0000000180025095e-35 1.0000000180025095e-35 1.0000000180025095e-35 1.0000000180025095e-35
decision_type=2 2 2 2 2 2 2 2 2 2 2 2 2 2 2 2 2 2 2 2 2 2 2 2 2 2 2 2 2 2 2 2 2 2 2 2 2 2 2 2 2 2 2 2 2 2 2 2 2 2 2 2 2 2 2
left_child=1 4 6 10 9 11 14 21 22 15 26 25 28 23 30 47 41 54 48 33 49 44 34 40 -11 46 51 -16 -8 -15 -2 -19 -20 -9 -6 -17 -23 -22 -21 -30 -7 -12 -26 -24 -5 -18 -3 -1 -14 -13 -29 -4 -27 -25 -10
right_child=2 5 3 7 8 13 12 19 17 24 16 20 18 29 27 35 45 31 32 38 37 36 43 53 42 52 -28 50 39 -31 -32 -33 -34 -35 -36 -37 -38 -39 -40 -41 -42 -43 -44 -45 -46 -47 -48 -49 -50 -51 -52 -53 -54 -55 -56
leaf_value=0.022328171522719157 0.031173998220559447 0.0007053562379331971 0.022489329330043689 8.8299160345620153e-05 0.0012009921346599151 0.0010232979386182708 0.031592150546919072 0.0011564200100879665 -0.021940092479688873 0.032550545592286144 0.022769021701541041 0.0005227639868564583 0.022598779889741918 -0.051010859643697073 0.031621985549067713 -0.022979550998600808 -0.022109172426704977 0.0015314901623076959 0.001194363826658973 -0.04406770767078335 -0.0003343832827433519 -0.022368381398551726 0.022853300839729689 -0.042284401727814738 -0.00038094458028468112 -0.041845321138798658 0.032301287611247294 0.021990546954487399 -0.00029592770041574735 -0.031839199289125951 0.04869273169641964 -0.022310366023327491 -0.022422689991348901 -0.022422841816675122 -0.022012264241328197 0.00040657278034127576 0.0010026935145277592 0.022838565211449405 -0.021027590299143663 0.022798659470523942 -0.021880380461020338 -0.00016278226893617928 0.022480591772915004 7.1314543719255751e-05 0.022779241497842419 0.0004350683511675809 -0.021790655132894327 -0.00012907856585771829 0.00020482726168027127 -0.021872091459957572 -0.00051340804317725911 0.00032154585521798894 -0.020850025674191947 -0.021226716414340957 -0.042874455047727043
leaf_count=11314 22445 11237 11381 11413 11359 11290 22376 11332 11171 22253 11321 11224 11277 22273 22507 11128 11254 11199 11218 11265 11142 11018 11117 11358 11317 11306 22212 11360 11220 22501 22488 11040 11300 11052 11417 11278 11229 11223 11315 11126 11281 11315 11342 11468 11300 11143 11168 11249 11403 11295 11224 11497 11450 11267 11342
internal_value=0 -0.20705 0.207763 0.00321557 0.00263485 -0.415944 0.412505 -0.210971 -0.209711 0.216157 0.21775 -0.20812 0.216197 -0.624 0.610484 -0.000361886 0.00456753 -0.429481 0.0072672 -0.431649 0.00480812 0.00987719 0.00717042 -0.42241 0.433936 -0.41948 0.433184 0.423587 0.42783 -0.82746 0.798037 -0.206233 -0.213148 -0.210147 -0.208708 -0.224173 -0.212197 0.225546 -0.651209 0.223552 -0.208482 0.226086 0.221239 0.225667 0.22736 -0.218241 -0.210159 0.222085 0.226796 -0.21439 0.215577 0.226987 -0.625625 -0.635912 -0.649735
internal_count=720000 360009 359991 180047 179994 180015 179944 89924 90113 89881 90123 90045 89920 89970 90024 44969 45033 44752 45198 44964 44884 44960 45361 45196 44912 45161 45090 45091 44722 44774 44933 22239 22518 22384 22776 22406 22247 22365 22580 22346 22571 22636 22659 22585 22713 22397 22405 22563 22680 22519 22584 22878 22756 22625 22513
shrinkage=0.05


Tree=6
num_leaves=56
num_cat=0
split_feature=10 12 55 86 53 46 1 0 86 65 22 1 76 22 86 46 0 3 84 46 84 86 36 84 46 46 20 53 20 81 36 36 20 36 24 84 19 65 20 24 19 44 0 22 65 46 22 24 0 35 76 1 20 81 3
split_gain=7246.56 3712 3657.34 1932.41 1885.7 1810.16 1689.46 1005.76 1004.22 984.504 981.587 969.955 950.502 868.777 795.225 545.725 543.774 538.369 534.683 514.169 507.748 505.844 504.608 495.139 493.065 487.779 472.586 466.574 451.614 386.074 349.122 307.887 286.092 283.438 282.27 281.573 280.291 279.36 276.082 275.778 275.022 274.732 273.37 273.116 272.06 271.848 271.654 270.537 267.798 267.607 264.118 259.074 249.902 240.087 238.873
threshold=1.0000000180025095e-35 1.0000000180025095e-35 1.0000000180025095e-35 1.0000000180025095e-35 1.0000000180025095e-35 1.0000000180025095e-35 1.0000000180025095e-35 1.0000000180025095e-35 1.0000000180025095e-35 1.0000000180025095e-35 1.0000000180025095e-35 1.0000000180025095e-35 1.0000000180025095e-35 1.0000000180025095e-35 1.0000000180025095e-35 1.0000000180025095e-35 1.0000000180025095e-35 1.0000000180025095e-35 1.0000000180025095e-35 1.0000000180025095e-35 1.0000000180025095e-35 1.0000000180025095e-35 1.0000000180025095e-35 1.0000000180025095e-35 1.0000000180025095e-35 1.0000000180025095e-35 1.0000000180025095e-35 1.0000000180025095e-35 1.0000000180025095e-35 1.0000000180025095e-35 1.0000000180025095e-35 1.0000000180025095e-35 1.0000000180025095e-35 1.0000000180025095e-35 1.0000000180025095e-35 1.0000000180025095e-35 1.0000000180025095e-35 1.0000000180025095e-35 1.0000000180025095e-35 1.0000000180025095e-35 1.0000000180025095e-35 1.0000000180025095e-35 1.0000000180025095e-35 1.0000000180025095e-35 1.0000000180025095e-35 1.0000000180025095e-35 1.0000000180025095e-35 1.0000000180025095e-35 1.0000000180025095e-35 1.0000000180025095e-35 1.0000000180025095e-35 1.0000000180025095e-35 1.0000000180025095e-35 1.0000000180025095e-35 1.0000000180025095e-35
decision_type=2 2 2 2 2 2 2 2 2 2 2 2 2 2 2 2 2 2 2 2 2 2 2 2 2 2 2 2 2 2 2 2 2 2 2 2 2 2 2 2 2 2 2 2 2 2 2 2 2 2 2 2 2 2 2
left_child=1 3 6 11 12 8 14 24 22 28 16 26 25 23 30 32 33 49 48 52 41 40 35 38 34 -4 47 -16 42 -15 -2 -20 -11 -6 -5 -3 -19 -27 -7 -24 -12 -10 -8 -17 -21 -18 -29 -1 -13 -14 -25 -23 -9 -22 -32
right_child=2 5 4 7 10 13 9 19 20 15 21 18 17 29 27 43 45 36 31 44 53 51 39 50 -26 37 -28 46 -30 -31 54 -33 -34 -35 -36 -37 -38 -39 -40 -41 -42 -43 -44 -45 -46 -47 -48 -49 -50 -51 -52 -53 -54 -55 -56
leaf_value=0.021752627364379093 0.048572547046122912 0.022235142273308577 0.031213855152933342 0.00082010933212067348 0.00057218188997445422 -0.021032066164961321 -6.9003479416473185e-05 0.00045762435151426551 0.00081050040027829729 -0.00024130475422024086 0.001066718045102258 0.0001499582273823012 9.440712198689123e-05 -0.049379592505108226 0.030863991114008678 8.6861013538076117e-05 0.022422209410860223 0.0001605534370148571 0.00088294799090928022 0.00056716860467430775 -0.041879585039152456 -0.020614604037633287 0.00092251627281082728 -0.020086696361166164 -0.031321589967333023 0.021324051211375525 0.031195076680363434 0.021349402612906857 0.031151859837797686 -0.03080225610115328 0.041036761762810792 -0.022458961813873263 0.022452590277701877 -0.021837356576692037 -0.02154425472120337 -0.00025949325421574542 -0.022256529038759382 -0.00096474778765146354 0.001372489678537139 -0.021167634850794398 -0.021080767343656381 -0.021403465673572635 0.022065418188407522 -0.022087154530014572 -0.021471978265006977 0.00026050096467204135 -0.00080495222006016904 -0.00012314279229800573 0.022127695509893821 0.021950076252176598 -0.041804689545555752 -0.04204221162851169 0.021583441180728965 -0.021125802927099344 0.020292879322190979
leaf_count=11227 22154 11314 22240 11313 11332 11015 11224 11209 11354 11224 11265 11243 11380 22683 22407 11164 11237 11289 11369 11336 11187 11426 11337 11279 22550 11431 22535 11278 22543 22227 11384 11312 11296 11402 11374 11128 11193 11230 11187 11450 11303 11095 11265 11268 11178 11105 11082 11505 11172 11213 11202 11228 11323 11156 11177
internal_value=0 -0.201236 0.201652 0.00185902 -3.63788e-05 -0.405392 0.405284 -0.205479 -0.204354 0.210736 -0.204792 0.209529 0.205814 -0.607068 0.601258 0.000162654 0.00506622 -0.000124413 0.00124952 0.00667262 -0.416987 -0.413333 0.00687465 -0.408852 -0.416577 0.412694 0.417228 0.412069 0.420987 -0.803722 0.791668 -0.215219 0.221791 -0.213342 -0.207853 0.220631 -0.220052 0.205552 -0.195743 -0.203593 -0.200602 -0.203403 0.220111 -0.221471 -0.207544 0.227775 0.206739 0.213547 0.221881 0.218825 -0.618171 -0.624701 0.220963 -0.630344 0.615164
internal_count=720000 360260 359740 180646 180274 179614 179466 90283 90021 89984 90298 90363 89976 89593 89482 44952 45076 45075 45096 45046 44792 45222 45229 44683 45237 44901 45267 44767 45032 44910 44715 22681 22520 22734 22687 22442 22482 22661 22202 22787 22568 22449 22489 22432 22514 22342 22360 22732 22415 22593 22481 22654 22532 22343 22561
shrinkage=0.05


Tree=7
num_leaves=56
num_cat=0
split_feature=6 22 26 1 20 3 36 20 65 46 14 22 0 17 86 5 76 44 44 76 55 53 46 36 86 25 14 48 7 7 53 84 53 17 53 64 64 20 5 5 84 14 50 10 3 35 84 19 0 27 44 10 53 48 0
split_gain=6955.45 3609.67 3440.68 1871.51 1858.61 1774.55 1637.54 984.107 976.361 958.187 958.141 951.461 946.167 867.992 790.873 570.832 531.292 526.113 520.766 515.078 510.093 509.572 490.812 490.479 488.796 479.005 473.742 466.354 462.321 405.207 372.528 319.928 318.391 297.305 294.629 288.074 288.044 286.216 284.185 281.89 281.262 281.186 280.362 280.113 273.566 269.709 268.842 268.196 264.211 255.193 255.114 249.874 249.122 246.686 234.59
threshold=1.0000000180025095e-35 1.0000000180025095e-35 1.0000000180025095e-35 1.0000000180025095e-35 1.0000000180025095e-35 1.0000000180025095e-35 1.0000000180025095e-35 1.0000000180025095e-35 1.0000000180025095e-35 1.0000000180025095e-35 1.0000000180025095e-35 1.0000000180025095e-35 1.0000000180025095e-35 1.0000000180025095e-35 1.0000000180025095e-35 1.0000000180025095e-35 1.0000000180025095e-35 1.0000000180025095e-35 1.0000000180025095e-35 1.0000000180025095e-35 1.0000000180025095e-35 1.0000000180025095e-35 1.0000000180025095e-35 1.0000000180025095e-35 1.0000000180025095e-35 1.0000000180025095e-35 1.0000000180025095e-35 1.0000000180025095e-35 1.0000000180025095e-35 1.0000000180025095e-35 1.0000000180025095e-35 1.0000000180025095e-35 1.0000000180025095e-35 1.0000000180025095e-35 1.0000000180025095e-35 1.0000000180025095e-35 1.0000000180025095e-35 1.0000000180025095e-35 1.0000000180025095e-35 1.0000000180025095e-35 1.0000000180025095e-35 1.0000000180025095e-35 1.0000000180025095e-35 1.0000000180025095e-35 1.0000000180025095e-35 1.0000000180025095e-35 1.0000000180025095e-35 1.0000000180025095e-35 1.0000000180025095e-35 1.0000000180025095e-35 1.0000000180025095e-35 1.0000000180025095e-35 1.0000000180025095e-35 1.0000000180025095e-35 1.0000000180025095e-35
decision_type=2 2 2 2 2 2 2 2 2 2 2 2 2 2 2 2 2 2 2 2 2 2 2 2 2 2 2 2 2 2 2 2 2 2 2 2 2 2 2 2 2 2 2 2 2 2 2 2 2 2 2 2 2 2 2
left_child=1 3 6 12 8 9 14 25 19 17 23 20 21 24 30 52 40 34 48 33 -8 43 42 -6 38 32 -16 -14 37 50 -2 -17 -5 -4 -3 -21 -20 -11 -7 -18 -9 -19 -10 -1 -28 -24 -23 -29 -13 -25 -15 -22 -12 -27 -32
right_child=2 5 4 7 10 13 11 16 22 28 15 18 27 29 26 31 39 41 36 35 51 46 45 49 -26 53 44 47 -30 -31 54 -33 -34 -35 -36 -37 -38 -39 -40 -41 -42 -43 -44 -45 -46 -47 -48 -49 -50 -51 -52 -53 -54 -55 -56
leaf_value=-0.00027812056511259574 0.047998113159792924 0.022746823288091828 0.02269942613154079 0.001641159219949336 0.031270125375043839 0.0013283343642656069 0.031254236302033653 0.022608752248799855 0.0011870779049134744 -0.021790648299641259 0.022298726621000641 -0.0001906983712663063 0.03091817181122555 -0.020781845171045994 0.030209536444981713 0.00089843006502070234 0.00057526503746990136 0.00066669204794066585 -0.022236679224082786 -0.021708495578136422 -0.00086986522595705129 0.00041910449979277352 -0.042215475603296006 -0.00054711397636630476 -0.03049335813754453 -0.020311119573333477 0.020689397754706594 0.021686811334422403 -0.031424512725200943 -0.050246021381601003 0.019570392977721087 -0.022749875321391361 -0.02206282539555254 -0.00047040713113454338 -0.00016844589810499676 0.0010105204312540366 0.00040704055040046837 -0.00012399175161249007 -0.021087181170973884 -0.021949968998856907 0.00015946016222283743 -0.021659064510028091 -0.021249739621694689 0.022166452177996118 -0.0014951865569556889 -0.02019492148934093 -0.0214209717419169 -0.00028955805456469687 0.021678295268127652 0.020950856348416307 -0.041378994897764643 0.020386663879840089 0.00084273159457935092 -0.041328696881398404 0.040059614032723144
leaf_count=11208 22431 11188 11193 11375 22480 11535 22557 11309 11156 12306 11037 11175 22565 12130 22537 11584 11450 11404 11331 11299 11126 11436 11116 11232 22717 11183 11212 10957 20453 20269 11476 11674 11367 11158 11351 11213 11354 12185 11194 10929 11164 11253 11348 11181 11240 11280 11240 11415 11146 11225 12018 11244 10961 11227 11206
internal_value=0 -0.196957 0.197921 0.00396687 0.00113751 -0.397542 0.394678 -0.20038 -0.203055 -0.198844 0.206009 0.202585 0.20865 -0.596802 0.586525 -0.00101787 0.0103109 0.00720245 -0.00366631 0.00653684 0.410352 0.00328417 -0.412408 0.414692 -0.402099 -0.408987 0.39821 0.414754 -0.406062 -0.796012 0.775432 -0.221235 -0.204151 0.222602 0.224016 -0.207856 -0.218054 -0.220299 -0.194223 -0.208514 0.228264 -0.208441 -0.202569 0.218066 0.191628 -0.622522 -0.208604 0.209461 0.21434 0.203935 -0.620657 0.195591 0.231815 -0.616833 0.593533
internal_count=720000 360009 359991 180006 179956 180003 180035 90004 89763 90140 90193 89933 90002 89863 90102 45256 44852 45196 45006 44863 44927 45065 44900 44937 45446 45152 44989 44937 44944 44417 45113 23258 22742 22351 22539 22512 22685 24491 22729 22379 22473 22657 22504 22389 22452 22396 22676 22372 22321 22457 24148 22370 21998 22410 22682
shrinkage=0.05


Tree=8
num_leaves=56
num_cat=0
split_feature=19 84 27 1 24 3 12 12 36 46 22 3 17 64 50 0 27 3 14 65 1 80 55 44 17 46 14 53 14 65 26 64 50 5 86 64 53 48 1 84 37 10 55 48 86 20 5 46 17 0 26 53 26 86 76
split_gain=6774.58 3540.34 3366.52 1880.65 1821.74 1759.3 1607.74 999.746 995.163 971.114 947.919 905.371 880.716 859.778 823.35 531.534 531.107 525.311 516.179 508.657 503.181 498.886 487.358 471.574 470.215 458.318 438.286 430.293 423.11 390.285 360.488 301.35 293.655 291.098 282.953 281.776 276.058 276.01 275.155 261.578 261.092 261.083 260.464 259.436 258.488 257.117 257.02 255.959 254.394 254.134 252.974 251.98 248.91 246.751 242.823
threshold=1.0000000180025095e-35 1.0000000180025095e-35 1.0000000180025095e-35 1.0000000180025095e-35 1.0000000180025095e-35 1.0000000180025095e-35 1.0000000180025095e-35 1.0000000180025095e-35 1.0000000180025095e-35 1.0000000180025095e-35 1.0000000180025095e-35 1.0000000180025095e-35 1.0000000180025095e-35 1.0000000180025095e-35 1.0000000180025095e-35 1.0000000180025095e-35 1.0000000180025095e-35 1.0000000180025095e-35 1.0000000180025095e-35 1.0000000180025095e-35 1.0000000180025095e-35 1.0000000180025095e-35 1.0000000180025095e-35 1.0000000180025095e-35 1.0000000180025095e-35 1.0000000180025095e-35 1.0000000180025095e-35 1.0000000180025095e-35 1.0000000180025095e-35 1.0000000180025095e-35 1.0000000180025095e-35 1.0000000180025095e-35 1.0000000180025095e-35 1.0000000180025095e-35 1.0000000180025095e-35 1.0000000180025095e-35 1.0000000180025095e-35 1.0000000180025095e-35 1.0000000180025095e-35 1.0000000180025095e-35 1.0000000180025095e-35 1.0000000180025095e-35 1.0000000180025095e-35 1.0000000180025095e-35 1.0000000180025095e-35 1.0000000180025095e-35 1.0000000180025095e-35 1.0000000180025095e-35 1.0000000180025095e-35 1.0000000180025095e-35 1.0000000180025095e-35 1.0000000180025095e-35 1.0000000180025095e-35 1.0000000180025095e-35 1.0000000180025095e-35
decision_type=2 2 2 2 2 2 2 2 2 2 2 2 2 2 2 2 2 2 2 2 2 2 2 2 2 2 2 2 2 2 2 2 2 2 2 2 2 2 2 2 2 2 2 2 2 2 2 2 2 2 2 2 2 2 2
left_child=2 3 4 11 10 9 13 22 18 21 25 27 28 26 24 39 37 43 44 36 35 34 50 46 45 -1 -4 -2 -8 54 -15 -17 -19 -20 -3 -12 -9 -13 -26 -10 -23 -24 -18 -14 -6 -7 -11 -28 -29 -21 -5 -22 -27 -30 -16
right_child=1 5 6 7 8 14 12 19 15 23 20 16 17 30 29 31 42 32 33 49 51 40 41 -25 38 52 47 48 53 -31 -32 -33 -34 -35 -36 -37 -38 -39 -40 -41 -42 -43 -44 -45 -46 -47 -48 -49 -50 -51 -52 -53 -54 -55 -56
leaf_value=0.030660273243266437 0.030412702314757806 0.02236562277351679 0.029154775839705577 0.021816553859160297 0.022217571732527582 -0.020422468363391465 0.029734615112064645 0.0010708545549990896 -0.02059583847926252 0.00073184508252408529 -0.00083080846189963599 0.00066175557544327906 0.021663777750763002 0.047865545535786785 -0.019530202627757867 -0.021212434697676225 0.022447557165972323 0.00072268860501160069 0.0013944812886856385 -0.041982034439752146 -7.8953328182676402e-05 0.0010412256492698441 -0.020910939794529806 -0.030463186372130847 -0.019144268885681805 0.020930112881949948 0.020116465980219374 0.021509457273408632 0.020673283904958026 -0.048406283854856895 0.02982487987159271 0.0020312495005684514 -0.022260183372250213 -0.021480607850314404 -8.0071344795114619e-05 0.021670989465517279 -0.021197351036339847 -0.021570037793375112 -0.041338471013422973 -0.042080147959504523 -0.020571260059003751 0.00076437456594421972 0.00069410734924581479 9.6656159049825357e-05 0.00065464871628635583 0.001131870612698391 -0.020671005061227033 -0.0012767612202499333 9.2988185534515863e-05 -0.020553847651453482 0.00044566394376483847 -0.021363495223859389 -0.0001586130047034667 -0.00038967249283038645 -0.040361528814598577
leaf_count=22498 22699 11339 22391 11196 11167 11089 22360 11370 11494 11307 11172 11342 11269 22434 11442 11244 11089 11161 11082 11303 11134 11069 11006 22477 11297 11310 11199 11186 11321 22718 22335 11287 11283 11390 11267 11276 11169 11311 11172 11361 11434 11433 11244 11258 11314 11170 11254 11392 11297 11085 11322 11269 11305 11133 11074
internal_value=0 -0.195079 0.1948 0.00495696 0.000830141 -0.393511 0.389635 -0.200883 -0.20074 -0.195474 0.203293 0.210656 0.199546 0.579952 -0.591916 -0.410526 0.00844255 0.0008822 0.011328 -0.413045 -0.00315887 0.0126429 0.0113712 -0.403706 -0.39897 0.409465 0.383674 0.412192 0.398937 -0.7827 0.777204 -0.191378 -0.21665 -0.204001 0.223153 0.209436 -0.199622 -0.20884 -0.603644 -0.62622 -0.198815 -0.197819 0.228863 0.217712 0.226824 -0.192379 -0.198896 0.186227 0.214946 -0.627706 0.221297 -0.215862 0.207581 0.204154 -0.595548
internal_count=720000 360161 359839 180052 180303 180109 179536 89884 90339 90147 89964 90168 89785 89751 89962 45386 44986 44971 44953 44927 44851 45109 44957 45038 44728 45113 44982 45182 44814 45234 44769 22531 22444 22472 22606 22448 22539 22653 22469 22855 22503 22439 22333 22527 22481 22259 22561 22591 22483 22388 22518 22403 22615 22454 22516
shrinkage=0.05


Tree=9
num_leaves=56
num_cat=0
split_feature=0 1 55 14 3 53 86 37 76 20 86 22 46 65 37 65 22 3 36 44 20 64 14 1 46 81 75 6 35 44 10 6 44 76 80 76 24 20 84 86 63 50 80 35 19 46 55 46 50 24 6 44 81 37 96
split_gain=6684.37 3408.19 3355.44 1808.32 1755.46 1671.53 1552.75 954.27 940.234 926.469 897.353 896.923 891.383 836.217 757.038 548.368 510.742 500.902 499.024 498.428 491.976 490.126 479.193 461.359 460.293 442.789 437.06 433.015 432.409 401.379 336.677 278.423 276.072 271.335 270.841 270.06 268.037 267.209 266.351 265.426 264.326 263.296 263.192 259.734 256.657 256.516 255.571 251.735 249.403 248.672 247.447 247.278 243.216 237.728 236.244
threshold=1.0000000180025095e-35 1.0000000180025095e-35 1.0000000180025095e-35 1.0000000180025095e-35 1.0000000180025095e-35 1.0000000180025095e-35 1.0000000180025095e-35 1.0000000180025095e-35 1.0000000180025095e-35 1.0000000180025095e-35 1.0000000180025095e-35 1.0000000180025095e-35 1.0000000180025095e-35 1.0000000180025095e-35 1.0000000180025095e-35 1.0000000180025095e-35 1.0000000180025095e-35 1.0000000180025095e-35 1.0000000180025095e-35 1.0000000180025095e-35 1.0000000180025095e-35 1.0000000180025095e-35 1.0000000180025095e-35 1.0000000180025095e-35 1.0000000180025095e-35 1.0000000180025095e-35 1.0000000180025095e-35 1.0000000180025095e-35 1.0000000180025095e-35 1.0000000180025095e-35 1.0000000180025095e-35 1.0000000180025095e-35 1.0000000180025095e-35 1.0000000180025095e-35 1.0000000180025095e-35 1.0000000180025095e-35 1.0000000180025095e-35 1.0000000180025095e-35 1.0000000180025095e-35 1.0000000180025095e-35 1.0000000180025095e-35 1.0000000180025095e-35 1.0000000180025095e-35 1.0000000180025095e-35 1.0000000180025095e-35 1.0000000180025095e-35 1.0000000180025095e-35 1.0000000180025095e-35 1.0000000180025095e-35 1.0000000180025095e-35 1.0000000180025095e-35 1.0000000180025095e-35 1.0000000180025095e-35 1.0000000180025095e-35 1.0000000180025095e-35
decision_type=2 2 2 2 2 2 2 2 2 2 2 2 2 2 2 2 2 2 2 2 2 2 2 2 2 2 2 2 2 2 2 2 2 2 2 2 2 2 2 2 2 2 2 2 2 2 2 2 2 2 2 2 2 2 2
left_child=1 4 6 12 10 8 14 20 16 23 25 27 26 24 30 38 39 34 41 42 46 53 31 43 36 49 54 33 50 -15 -2 -9 -28 -8 -14 -19 -7 -23 -12 -3 -22 -11 -13 -5 -20 -18 -6 -21 -24 -1 -16 -17 -26 -10 -4
right_child=2 5 3 9 7 13 11 22 21 18 15 19 17 29 28 51 45 35 44 47 40 37 48 -25 52 -27 32 -29 -30 -31 -32 -33 -34 -35 -36 -37 -38 -39 -40 -41 -42 -43 -44 -45 -46 -47 -48 -49 -50 -51 -52 -53 -54 -55 -56
leaf_value=0.020645661414784938 0.029429213513224702 0.021988351604721762 0.019683918346938986 -0.020808872134231 0.00071868950238608835 0.0018393315881613281 0.021397041180544848 -0.020884336585130336 -0.020356956902091897 0.021520538264578639 0.022020623648252767 0.021442680371444204 0.021760025667339571 -0.029316890958080072 -0.00088031189403817058 -0.00059852092082714648 0.00056850196510373067 0.00044528105288311256 0.00030789559908599054 1.3306937844658925e-05 0.021926961443321218 -0.020481257780191178 -0.020036964087736461 -0.030381226752555269 -0.039912097401624325 0.029996562050861882 0.021338292552277767 0.03011791173838483 0.029484774626855056 -0.04827250197746763 0.046872013730797246 0.0014768116195462214 -0.00097638732950745604 -0.0006502503134206963 -0.00033174624524386098 -0.02162743408585506 -0.020142149464911399 0.0013763422397158965 0.0002874631625204608 0.00020270621161328105 0.00017548022002484629 -0.00019222677161387077 -0.00025025351274840475 0.00073482044296776378 -0.021094041998610081 -0.020820858982868423 -0.020588089715795212 -0.021353466602067772 -0.041220485192478562 -0.00058136328083718684 0.020376579439254562 -0.021645294306203749 -0.019059709038234965 -0.041073152526481777 0.040172922374681813
leaf_count=11197 22574 11402 11397 11282 11333 11117 11240 11324 11299 11350 11280 11293 11162 22516 11188 11307 11231 11198 11324 11222 11250 11324 11274 22429 11333 22674 11138 22527 22277 22481 22460 11180 11260 11255 11207 11128 11254 11249 11468 11241 11382 11214 11280 11236 11296 11372 11347 11011 11161 11182 11093 11201 11197 11051 11332
internal_value=0 -0.193415 0.193971 0.000513173 0.00185508 -0.38882 0.389183 -0.196322 -0.195416 -0.200355 0.20013 0.202593 0.202249 -0.582408 0.577353 0.000679854 0.00915846 0.00144449 0.00304961 0.00169708 0.00951214 -0.401212 -0.403815 -0.404051 -0.388558 0.401592 0.401626 0.403653 0.390973 -0.775746 0.761821 -0.196494 0.202358 0.207297 0.213822 -0.211179 -0.184454 -0.192394 0.220605 0.222985 0.219741 0.214586 0.21204 -0.201203 -0.207798 -0.204113 -0.199125 -0.211641 -0.611543 0.200651 0.192305 -0.221507 -0.590977 -0.612035 0.597949
internal_count=720000 360627 359373 179953 180560 180067 179420 90251 90169 90131 90309 89828 89822 89898 89592 45256 45246 44695 45184 44806 45312 44923 44939 44947 44901 45053 45127 45022 44558 44997 45034 22504 22398 22495 22369 22326 22371 22573 22748 22643 22632 22564 22573 22518 22620 22603 22680 22233 22435 22379 22281 22508 22530 22350 22729
shrinkage=0.05


Tree=10
num_leaves=56
num_cat=0
split_feature=65 36 35 12 17 86 44 64 48 27 84 46 10 75 53 86 10 17 3 3 10 12 0 12 22 76 27 20 14 97 20 84 1 20 35 55 48 19 3 1 55 81 26 20 6 36 86 53 24 50 84 26 80 53 25
split_gain=6479.96 3396.95 3233.2 1776.7 1771.22 1644.06 1590.91 957.932 935.865 903.963 889.983 883.732 874.368 827.337 764.267 519.637 510.695 496.348 493.322 483.866 482.987 480.883 480.417 479.617 479.355 437.675 431.231 425.188 422.472 372.107 360.364 273.316 268.066 265.332 263.87 263.563 258.054 256.865 256.81 256.499 255.882 254.272 253.663 252.726 251.793 251.075 246.443 246.364 246.141 242.667 242.118 241.199 240.532 238.992 238.933
threshold=1.0000000180025095e-35 1.0000000180025095e-35 1.0000000180025095e-35 1.0000000180025095e-35 1.0000000180025095e-35 1.0000000180025095e-35 1.0000000180025095e-35 1.0000000180025095e-35 1.0000000180025095e-35 1.0000000180025095e-35 1.0000000180025095e-35 1.0000000180025095e-35 1.0000000180025095e-35 1.0000000180025095e-35 1.0000000180025095e-35 1.0000000180025095e-35 1.0000000180025095e-35 1.0000000180025095e-35 1.0000000180025095e-35 1.0000000180025095e-35 1.0000000180025095e-35 1.0000000180025095e-35 1.0000000180025095e-35 1.0000000180025095e-35 1.0000000180025095e-35 1.0000000180025095e-35 1.0000000180025095e-35 1.0000000180025095e-35 1.0000000180025095e-35 1.0000000180025095e-35 1.0000000180025095e-35 1.0000000180025095e-35 1.0000000180025095e-35 1.0000000180025095e-35 1.0000000180025095e-35 1.0000000180025095e-35 1.0000000180025095e-35 1.0000000180025095e-35 1.0000000180025095e-35 1.0000000180025095e-35 1.0000000180025095e-35 1.0000000180025095e-35 1.0000000180025095e-35 1.0000000180025095e-35 1.0000000180025095e-35 1.0000000180025095e-35 1.0000000180025095e-35 1.0000000180025095e-35 1.0000000180025095e-35 1.0000000180025095e-35 1.0000000180025095e-35 1.0000000180025095e-35 1.0000000180025095e-35 1.0000000180025095e-35 1.0000000180025095e-35
decision_type=2 2 2 2 2 2 2 2 2 2 2 2 2 2 2 2 2 2 2 2 2 2 2 2 2 2 2 2 2 2 2 2 2 2 2 2 2 2 2 2 2 2 2 2 2 2 2 2 2 2 2 2 2 2 2
left_child=2 3 4 11 12 8 14 23 16 18 17 27 21 22 30 45 31 44 46 40 38 48 -7 32 39 -14 -12 51 -11 50 54 -3 -6 -24 -19 -26 -28 -20 -16 -13 -10 -30 -27 -17 -5 -9 -8 -21 -1 -25 -15 -2 -18 -23 -4
right_child=1 5 6 10 7 13 9 15 19 28 26 24 25 29 20 43 52 34 37 47 -22 53 33 49 35 42 36 -29 41 -31 -32 -33 -34 -35 -36 -37 -38 -39 -40 -41 -42 -43 -44 -45 -46 -47 -48 -49 -50 -51 -52 -53 -54 -55 -56
leaf_value=0.020894867015985891 0.020740105957448945 0.0010818232968558095 0.039116368705810298 9.9353835206850074e-05 0.0010064789046078774 -0.029715612129538688 0.020647938547149709 0.021899962261254687 0.00113315018866542 0.029416057808872673 -0.029851636907282122 0.021225263775097366 0.030010455444026037 -0.019040577268779821 0.019494177257517661 -0.020843580738253962 0.02178842730077081 -0.021352375169465237 -0.00012831456693589884 -0.019832949442767141 0.029677584141050619 0.00015510000809364232 -0.019846630769460999 -0.020036638133404654 0.00086420403521491956 0.020816295937483895 0.00085715815015606944 0.029884327981471788 -0.00078771209894863421 -0.047765726926069618 0.046628713518747159 -0.021089916729977485 -0.020805134055952246 0.0019073978185920313 0.00054321385152301081 -0.020880717372925853 -0.020793069883463643 -0.021641365543614458 -0.0019396219928373704 -0.00024962934868706481 -0.020173929760278597 0.020607136308412655 -0.00060543923525094724 0.0004648392940327351 0.021521520090092165 0.00068080522624624606 -0.00034622561743683747 -0.040954966316747471 -3.3002360919005057e-05 -0.040777648046841926 -0.039880470286815461 5.4629688007895164e-05 0.00086922530968936242 -0.020514383475160256 0.018460088882568049
leaf_count=11432 11395 11196 11210 11027 11445 22439 11177 11296 11367 22512 22069 11364 22290 11263 11314 11350 11259 11166 11058 11131 22317 11255 11303 11301 11090 11184 11011 22671 11222 22317 22844 11243 11354 11328 11160 11391 11156 11373 11232 11148 11466 11241 11225 11120 11249 11314 11448 11192 11262 11491 11216 11362 11063 11295 11396
internal_value=0 -0.191332 0.190226 0.00464199 2.85892e-05 -0.38649 0.380758 -0.198301 -0.193979 0.191587 -0.197222 0.203247 0.200048 -0.578393 0.569445 0.00963434 0.0122105 0.00397735 -0.00966557 -0.398286 0.383409 0.00348718 -0.386293 -0.403788 0.00378214 0.400154 -0.398487 0.401582 0.393398 -0.771643 0.753554 -0.201477 -0.197428 -0.179652 -0.208201 -0.203435 -0.200807 -0.220847 0.176326 0.211485 -0.192177 0.198367 0.201547 -0.206492 0.216819 0.225398 0.199958 -0.608668 0.210082 -0.609905 -0.589288 0.208013 0.228356 -0.204075 0.574064
internal_count=720000 359042 360958 179259 180614 179783 180344 90671 89917 90031 88838 90421 89943 89866 90313 45080 44761 44602 45056 45156 44863 45244 45070 45591 44993 44699 44236 45428 44975 44796 45450 22439 22799 22631 22326 22481 22167 22431 22546 22512 22833 22463 22409 22470 22276 22610 22625 22323 22694 22792 22479 22757 22322 22550 22606
shrinkage=0.05


Tree=11
num_leaves=56
num_cat=0
split_feature=26 55 53 46 6 24 24 14 17 75 27 7 22 22 12 1 36 6 20 44 19 48 14 50 86 50 50 37 84 5 44 20 17 86 20 35 19 84 36 76 20 63 67 5 20 19 84 27 92 10 6 6 76 24 57
split_gain=6352.45 3264.18 3204.77 1754.12 1699.99 1675.13 1506.78 949.944 888.291 880.748 879.889 867.11 847.004 805.147 721.788 516.958 492.882 479.616 475.34 474.478 472.944 471.466 464.562 452.111 444.324 438.909 426.446 419.873 401.787 361.739 342.594 290.627 286.315 285.668 274.574 272.128 270.582 269.491 266.743 260.489 258.942 257.671 257.1 254.16 253.196 252.812 252.431 251.944 246.988 244.818 241.467 239.9 236.318 234.142 230.77
threshold=1.0000000180025095e-35 1.0000000180025095e-35 1.0000000180025095e-35 1.0000000180025095e-35 1.0000000180025095e-35 1.0000000180025095e-35 1.0000000180025095e-35 1.0000000180025095e-35 1.0000000180025095e-35 1.0000000180025095e-35 1.0000000180025095e-35 1.0000000180025095e-35 1.0000000180025095e-35 1.0000000180025095e-35 1.0000000180025095e-35 1.0000000180025095e-35 1.0000000180025095e-35 1.0000000180025095e-35 1.0000000180025095e-35 1.0000000180025095e-35 1.0000000180025095e-35 1.0000000180025095e-35 1.0000000180025095e-35 1.0000000180025095e-35 1.0000000180025095e-35 1.0000000180025095e-35 1.0000000180025095e-35 1.0000000180025095e-35 1.0000000180025095e-35 1.0000000180025095e-35 1.0000000180025095e-35 1.0000000180025095e-35 1.0000000180025095e-35 1.0000000180025095e-35 1.0000000180025095e-35 1.0000000180025095e-35 1.0000000180025095e-35 1.0000000180025095e-35 1.0000000180025095e-35 1.0000000180025095e-35 1.0000000180025095e-35 1.0000000180025095e-35 1.0000000180025095e-35 1.0000000180025095e-35 1.0000000180025095e-35 1.0000000180025095e-35 1.0000000180025095e-35 1.0000000180025095e-35 1.0000000180025095e-35 1.0000000180025095e-35 1.0000000180025095e-35 1.0000000180025095e-35 1.0000000180025095e-35 1.0000000180025095e-35 1.0000000180025095e-35
decision_type=2 2 2 2 2 2 2 2 2 2 2 2 2 2 2 2 2 2 2 2 2 2 2 2 2 2 2 2 2 2 2 2 2 2 2 2 2 2 2 2 2 2 2 2 2 2 2 2 2 2 2 2 2 2 2
left_child=2 3 6 7 8 10 14 26 19 18 24 28 27 20 30 33 48 37 35 41 31 46 44 45 38 -16 -2 -8 -6 50 -1 -7 -17 -13 -28 -5 -23 -12 -3 -29 -18 -4 -19 -24 -10 -11 -9 -21 -14 -27 -15 -22 -20 -25 -30
right_child=1 5 4 9 11 13 12 21 22 23 17 15 16 29 25 32 40 42 52 47 51 36 43 53 -26 49 34 39 54 -31 -32 -33 -34 -35 -36 -37 -38 -39 -40 -41 -42 -43 -44 -45 -46 -47 -48 -49 -50 -51 -52 -53 -54 -55 -56
leaf_value=0.045984433863600321 0.030322275921784072 0.0016210016426030146 0.021195199531830286 -0.021321881209960064 0.030829509773702475 -0.020223874973161915 0.029379652594369112 0.020924029897611319 -0.020039625623596662 0.0013191780381314336 0.0012832798158007868 0.02200870195026694 0.021229884142052104 -0.039406430001581179 0.029114183977273268 0.0014180731802417407 -0.020869187705081001 0.021887064149036475 0.020822264659431357 -0.020747725798707737 -0.03971029813324134 0.00054029709486531495 -0.019438418362227389 -0.019450806055954201 -0.029182714586778319 -0.0012228694904272081 -0.00038802065309728398 0.020783808364958772 0.021563497069424672 -0.047141381047734722 0.028382608838806833 0.0025655501534366503 -0.020307647032409049 0.00038221655201373984 0.02183112709869698 0.00091765221695082994 -0.021485419854265789 -0.020599324340153626 -0.020142699917830617 -0.00091851444347216767 0.00051206585712299999 -0.00018856696468644703 0.00029984354935422416 -0.040756329129642346 0.0011559729699131824 -0.02017621138670217 -0.00047234582334125205 0.00048879417297744321 0.00010879816416458417 0.019856402022063194 -0.018588132574309309 -0.018971803823451434 0.00013116561896115499 -0.039919315223310985 0.00018393806675144207
leaf_count=22618 22439 11352 11317 11076 20250 11343 22385 11183 11429 10947 11354 12384 11239 11371 22422 12240 11517 11183 11324 11208 11368 11316 11518 11214 22509 11268 11264 11185 10096 22531 22303 11254 12341 12463 11358 11096 11322 11288 11378 11279 11352 11383 11133 11017 11269 11194 11219 11291 11177 11056 11071 11136 11108 11397 10265
internal_value=0 -0.189065 0.188839 0.00347519 -0.000337033 -0.379643 0.379251 0.202199 -0.194298 -0.196 -0.186166 0.19605 0.195469 -0.573307 0.56416 0.0168213 0.00174982 0.0128443 0.00405791 0.00469216 -0.38354 -0.00465731 -0.39311 -0.395354 -0.383863 0.383329 0.409366 0.392089 0.414215 -0.763206 0.744756 -0.178135 -0.18996 0.222173 0.213991 -0.203953 -0.209656 -0.192549 -0.185635 0.197488 -0.205632 0.209431 0.222364 -0.597228 -0.190473 -0.191036 0.202689 -0.201827 0.213929 0.18357 -0.582868 -0.589578 0.211379 -0.595402 0.215711
internal_count=720000 359728 360272 179457 180471 180271 179801 90101 90432 89356 90197 90039 90134 90074 89667 49428 45285 44958 44604 45199 45101 45040 45233 44752 45239 44746 45061 44849 40611 44973 44921 22597 24581 24847 22622 22172 22638 22642 22730 22464 22869 22700 22316 22535 22698 22141 22402 22499 22416 22324 22442 22504 22432 22611 20361
shrinkage=0.05


Tree=12
num_leaves=56
num_cat=0
split_feature=10 64 76 86 20 5 46 25 37 19 81 36 20 27 17 12 55 24 17 81 63 91 14 22 53 53 27 22 35 48 39 50 39 80 14 44 37 19 63 46 0 17 1 35 63 0 25 87 6 22 84 0 75 37 76
split_gain=6266.17 3224.49 3163.07 1736.35 1668.71 1624.45 1554.7 885.536 884.118 863.606 863.491 851.434 835.19 813.48 715.161 504.406 491.886 481.481 469.872 461.969 453.124 449.762 442.814 442.739 441.908 439.493 427.111 419.886 414.686 368.848 326.184 279.051 275.038 273.89 272.166 268.352 267.972 265.372 264.056 252.804 250.187 248.406 247.939 246.756 245.445 241.815 241.214 240.038 239.912 239.273 238.389 237.759 237.408 230.372 226.232
threshold=1.0000000180025095e-35 1.0000000180025095e-35 1.0000000180025095e-35 1.0000000180025095e-35 1.0000000180025095e-35 1.0000000180025095e-35 1.0000000180025095e-35 1.0000000180025095e-35 1.0000000180025095e-35 1.0000000180025095e-35 1.0000000180025095e-35 1.0000000180025095e-35 1.0000000180025095e-35 1.0000000180025095e-35 1.0000000180025095e-35 1.0000000180025095e-35 1.0000000180025095e-35 1.0000000180025095e-35 1.0000000180025095e-35 1.0000000180025095e-35 1.0000000180025095e-35 1.0000000180025095e-35 1.0000000180025095e-35 1.0000000180025095e-35 1.0000000180025095e-35 1.0000000180025095e-35 1.0000000180025095e-35 1.0000000180025095e-35 1.0000000180025095e-35 1.0000000180025095e-35 1.0000000180025095e-35 1.0000000180025095e-35 1.0000000180025095e-35 1.0000000180025095e-35 1.0000000180025095e-35 1.0000000180025095e-35 1.0000000180025095e-35 1.0000000180025095e-35 1.0000000180025095e-35 1.0000000180025095e-35 1.0000000180025095e-35 1.0000000180025095e-35 1.0000000180025095e-35 1.0000000180025095e-35 1.0000000180025095e-35 1.0000000180025095e-35 1.0000000180025095e-35 1.0000000180025095e-35 1.0000000180025095e-35 1.0000000180025095e-35 1.0000000180025095e-35 1.0000000180025095e-35 1.0000000180025095e-35 1.0000000180025095e-35 1.0000000180025095e-35
decision_type=2 2 2 2 2 2 2 2 2 2 2 2 2 2 2 2 2 2 2 2 2 2 2 2 2 2 2 2 2 2 2 2 2 2 2 2 2 2 2 2 2 2 2 2 2 2 2 2 2 2 2 2 2 2 2
left_child=1 5 6 11 7 8 14 18 17 24 22 27 21 29 30 45 51 50 47 49 36 44 39 35 -6 42 48 -4 41 -7 -2 -22 -29 -17 -26 -10 -13 -19 -18 -5 -20 -14 -15 -21 -8 -12 -23 -3 -16 -9 -1 -11 -27 -24 -25
right_child=2 4 3 10 9 13 12 19 23 16 15 20 28 25 26 33 38 37 40 43 31 46 53 54 34 52 -28 32 -30 -31 -32 -33 -34 -35 -36 -37 -38 -39 -40 -41 -42 -43 -44 -45 -46 -47 -48 -49 -50 -51 -52 -53 -54 -55 -56
leaf_value=0.021485508867498893 0.045846253042522198 0.00032380364560045309 0.029625983870243084 0.00080896924420650678 0.029686945413542949 -0.028782263623324686 0.02043763458264022 -0.019198655270750615 0.0016975972633268615 0.00019911500215749942 0.00019410708334720935 0.021248062202291747 0.020051073687342415 0.0015510611984294624 -0.00078626152379912713 0.0004711618087478096 0.00053517727334227575 0.001117357700337402 -0.020301346640637277 -0.019778540420055946 0.001275067168447685 0.00021283442203979516 -0.019601476998003197 -0.019140699179622724 0.020778385041349101 -0.018418735050051621 0.02911957146860902 0.021164547825860316 0.028896969182423557 -0.046968225143855555 0.028657342254997525 -0.021212256699356037 -0.0011725100331205951 -0.021703078881117499 -0.0013151426832040188 -0.020248849672773711 -0.00071901164429331475 -0.020533830815158787 -0.021268296288189589 -0.020490300799735635 0.00081239787236454743 -0.0012140679071314204 -0.01952245843022693 0.0011826636359314939 -0.00057084678011134116 0.021072751253704919 -0.020594823549397831 0.021001576432151208 0.02001737317123942 -0.039866379115151222 0.00071832695317436423 0.02089113523098117 -0.039128675301952465 -0.040035813505907118 -0.039329963177591999
leaf_count=11194 22546 11295 22296 11312 22524 22310 11207 11251 11188 11278 11221 11246 11291 11334 11354 11194 11030 11482 11343 11296 11169 11254 11154 11106 11317 11110 22481 11265 22593 22713 22510 11255 11141 11321 11250 11342 11329 11368 11367 11250 11271 11045 11232 11336 11257 11234 11247 11329 11203 11325 11141 11262 11233 11135 11263
internal_value=0 -0.187043 0.188441 -0.000662693 0.00282042 -0.377309 0.377397 -0.189532 -0.186592 0.196996 -0.198001 0.19821 0.190336 -0.568359 0.565103 -0.00106306 -0.000228161 0.0118828 0.00902581 -0.388241 0.00260088 -0.00295833 -0.395439 -0.386249 0.393944 -0.376944 0.385387 0.395738 0.385169 -0.759174 0.74516 -0.20034 0.201127 -0.21362 0.19512 -0.187117 0.204266 -0.193099 -0.210603 -0.19661 -0.19559 0.190395 -0.178979 -0.18557 0.198224 0.212383 -0.203776 0.213578 0.189379 -0.591437 0.221818 0.210247 -0.576615 -0.596267 -0.586147
internal_count=720000 360490 359510 179522 180474 180016 179988 90446 90084 90028 89821 89701 89894 89932 90094 44970 44937 45185 45238 45208 44999 44965 44851 44899 45091 44909 45038 44702 44929 45023 45056 22424 22406 22515 22567 22530 22575 22850 22397 22562 22614 22336 22566 22632 22464 22455 22501 22624 22557 22576 22335 22540 22343 22289 22369
shrinkage=0.05


Tree=13
num_leaves=56
num_cat=0
split_feature=84 12 14 48 44 5 27 76 39 6 46 19 55 24 55 0 20 25 46 22 3 36 50 27 63 25 48 12 81 6 4 86 65 7 87 86 81 55 7 1 48 86 87 54 0 35 0 50 6 81 81 37 37 64 19
split_gain=6107.53 3145.21 3048.74 1683.67 1647 1562.04 1456.37 885.016 884.755 855.687 849.886 847.133 831.655 762.73 699.825 495.761 481.987 478.177 468.88 464.124 462.943 458.682 455.574 435.095 433.377 432.757 429.866 411.703 408.776 388.318 298.975 265.841 265.729 261.787 260.383 257.71 252.075 250.21 249.238 247.635 247.07 244.722 243.49 241.935 241.654 239.592 239.573 239.352 238.738 237.758 233.474 232.508 230.76 227.451 215.686
threshold=1.0000000180025095e-35 1.0000000180025095e-35 1.0000000180025095e-35 1.0000000180025095e-35 1.0000000180025095e-35 1.0000000180025095e-35 1.0000000180025095e-35 1.0000000180025095e-35 1.0000000180025095e-35 1.0000000180025095e-35 1.0000000180025095e-35 1.0000000180025095e-35 1.0000000180025095e-35 1.0000000180025095e-35 1.0000000180025095e-35 1.0000000180025095e-35 1.0000000180025095e-35 1.0000000180025095e-35 1.0000000180025095e-35 1.0000000180025095e-35 1.0000000180025095e-35 1.0000000180025095e-35 1.0000000180025095e-35 1.0000000180025095e-35 1.0000000180025095e-35 1.0000000180025095e-35 1.0000000180025095e-35 1.0000000180025095e-35 1.0000000180025095e-35 1.0000000180025095e-35 1.0000000180025095e-35 1.0000000180025095e-35 1.0000000180025095e-35 1.0000000180025095e-35 1.0000000180025095e-35 1.0000000180025095e-35 1.0000000180025095e-35 1.0000000180025095e-35 1.0000000180025095e-35 1.0000000180025095e-35 1.0000000180025095e-35 1.0000000180025095e-35 1.0000000180025095e-35 1.0000000180025095e-35 1.0000000180025095e-35 1.0000000180025095e-35 1.0000000180025095e-35 1.0000000180025095e-35 1.0000000180025095e-35 1.0000000180025095e-35 1.0000000180025095e-35 1.0000000180025095e-35 1.0000000180025095e-35 1.0000000180025095e-35 1.0000000180025095e-35
decision_type=2 2 2 2 2 2 2 2 2 2 2 2 2 2 2 2 2 2 2 2 2 2 2 2 2 2 2 2 2 2 2 2 2 2 2 2 2 2 2 2 2 2 2 2 2 2 2 2 2 2 2 2 2 2 2
left_child=2 4 6 10 12 7 11 18 17 22 25 28 26 23 30 45 46 35 37 51 43 47 31 -7 36 -4 53 -16 44 -15 -8 -5 -20 -22 -25 -6 -10 -3 -29 -28 -19 -18 -27 -11 -1 -12 -13 -14 -23 -17 -31 -9 -24 -2 -21
right_child=1 5 3 9 8 13 14 19 24 20 15 16 21 29 27 49 41 40 32 54 33 48 52 34 -26 42 39 38 -30 50 -32 -33 -34 -35 -36 -37 -38 -39 -40 -41 -42 -43 -44 -45 -46 -47 -48 -49 -50 -51 -52 -53 -54 -55 -56
leaf_value=-0.00068420486002824155 0.019036592312353037 0.021529310016245529 0.02956548420223731 0.0017708018272794297 0.021666141972734868 -0.028721902187024036 0.028382410279801762 0.0012103938081711001 -0.020140526001095418 -1.5090062121875497e-05 -0.02089798017909722 -0.020856819388849101 0.020367729324806169 -0.046879020428510283 0.028490151016623739 0.00030995552218557136 0.020998101101554829 0.00066088773484437153 0.0013229139971561591 -0.019737033264090303 0.0019714486387002101 -0.020415923677434417 -0.019341364314975254 -0.019720835104209238 -0.02926172251354843 -0.00076858250815265621 0.019998934112177385 0.019800348553763732 0.02897107605076046 -0.038357828993108085 0.044900269545859482 -0.020126686039067036 -0.020439733860524247 -0.019875798982259024 0.0019155081966277757 0.00015387611203516709 0.0011115496300533924 0.00029957741067358095 -0.0013690038624312164 -0.0009813704057750278 -0.020360733597446869 -0.00014559906436950574 0.02035351577364642 0.020977070540728258 0.02020108545442988 -0.00019176265373504293 -0.00011493275875567762 -0.0002377443270839763 0.00034589217735024456 0.021012370511707391 -0.018135399685766728 -0.019211119850180272 -0.039642506489746585 0.039205316428824022 -0.039424029263865679
leaf_count=11278 11280 11271 22510 11087 11193 22165 22461 11166 11319 11268 11180 11382 11400 21837 22529 11262 11086 11284 11321 11315 10206 11294 11261 11200 22562 11231 11467 11287 22447 11448 22545 11292 11293 12412 11237 11284 11208 11143 11253 11295 11280 11303 11047 11227 11292 11428 11148 11325 11016 11274 11582 11326 11329 11353 11111
internal_value=0 -0.184668 0.186179 0.000762282 0.00258408 -0.372946 0.372119 -0.186072 -0.18957 -0.193944 0.19606 0.190615 0.194216 -0.560851 0.553851 0.00145932 -0.00522062 0.00958864 0.0129385 -0.385463 0.00353704 0.00115403 -0.389369 -0.374852 -0.388485 0.393632 0.386574 0.376928 0.386438 -0.745727 0.733139 -0.186194 -0.190933 -0.200463 -0.17769 0.216995 -0.191351 0.218978 0.184702 0.191418 -0.197 0.205471 0.194047 0.209313 0.194666 -0.208752 -0.212347 0.201966 -0.203213 0.213236 -0.563776 -0.181542 -0.590576 0.582932 -0.589753
internal_count=720000 359975 360025 180014 180560 179415 180011 89946 90130 90082 89932 89936 90430 89469 90075 45144 44919 45041 45028 44918 45113 45035 44969 44602 45089 44788 45395 45069 45017 44867 45006 22379 22614 22618 22437 22477 22527 22414 22540 22762 22564 22389 22278 22495 22570 22608 22530 22725 22310 22536 23030 22492 22590 22633 22426
shrinkage=0.05


Tree=14
num_leaves=56
num_cat=0
split_feature=22 3 46 25 35 1 6 27 20 36 14 37 86 44 7 87 80 44 92 53 48 20 84 48 14 7 50 0 5 50 97 17 17 39 0 71 12 53 87 19 55 87 64 6 19 20 26 12 57 25 55 76 37 17 92
split_gain=5959.87 3088.97 2963.16 1648.93 1624.54 1561.06 1449.67 872.242 856.523 844.836 839.628 834.556 825.536 780.728 723.978 512.209 471.95 464.239 462.983 457.661 451.902 446.107 441.221 439.799 434.17 431.651 424.484 393.471 384.706 381.01 295.098 278.935 273.551 267.368 256.945 251.218 248.229 245.767 245.224 245.051 242.522 241.061 240.899 240.372 240.036 238.861 237.268 236.152 234.39 232.457 230.864 230.748 228.165 221.242 211.699
threshold=1.0000000180025095e-35 1.0000000180025095e-35 1.0000000180025095e-35 1.0000000180025095e-35 1.0000000180025095e-35 1.0000000180025095e-35 1.0000000180025095e-35 1.0000000180025095e-35 1.0000000180025095e-35 1.0000000180025095e-35 1.0000000180025095e-35 1.0000000180025095e-35 1.0000000180025095e-35 1.0000000180025095e-35 1.0000000180025095e-35 1.0000000180025095e-35 1.0000000180025095e-35 1.0000000180025095e-35 1.0000000180025095e-35 1.0000000180025095e-35 1.0000000180025095e-35 1.0000000180025095e-35 1.0000000180025095e-35 1.0000000180025095e-35 1.0000000180025095e-35 1.0000000180025095e-35 1.0000000180025095e-35 1.0000000180025095e-35 1.0000000180025095e-35 1.0000000180025095e-35 1.0000000180025095e-35 1.0000000180025095e-35 1.0000000180025095e-35 1.0000000180025095e-35 1.0000000180025095e-35 1.0000000180025095e-35 1.0000000180025095e-35 1.0000000180025095e-35 1.0000000180025095e-35 1.0000000180025095e-35 1.0000000180025095e-35 1.0000000180025095e-35 1.0000000180025095e-35 1.0000000180025095e-35 1.0000000180025095e-35 1.0000000180025095e-35 1.0000000180025095e-35 1.0000000180025095e-35 1.0000000180025095e-35 1.0000000180025095e-35 1.0000000180025095e-35 1.0000000180025095e-35 1.0000000180025095e-35 1.0000000180025095e-35 1.0000000180025095e-35
decision_type=2 2 2 2 2 2 2 2 2 2 2 2 2 2 2 2 2 2 2 2 2 2 2 2 2 2 2 2 2 2 2 2 2 2 2 2 2 2 2 2 2 2 2 2 2 2 2 2 2 2 2 2 2 2 2
left_child=2 4 6 12 7 8 10 26 24 27 25 17 28 20 30 31 43 36 -16 48 38 33 39 41 42 45 40 44 -4 53 -8 -9 -19 -11 -21 -20 -5 -18 -7 -12 -2 -13 -3 -14 -6 -1 -30 -17 -10 -27 -24 -23 -22 -15 -26
right_child=1 5 3 11 9 13 14 15 19 21 22 23 16 29 18 47 37 32 35 34 52 51 50 -25 54 49 -28 -29 46 -31 -32 -33 -34 -35 -36 -37 -38 -39 -40 -41 -42 -43 -44 -45 -46 -47 -48 -49 -50 -51 -52 -53 -54 -55 -56
leaf_value=0.018189146022322914 0.0010941533856526568 -0.019385287750416674 0.028740860568328436 0.021011867062626421 0.020557664427987569 -0.018833597707812816 0.046147690684031954 0.0010475410470692065 0.021314990797073694 0.00099598766740820774 0.020200398465861302 -0.019682559185879456 -7.2597737212718995e-05 -0.01793852870928507 0.029111230344352042 0.021505086093187506 0.00031678219374839953 0.00091186934240289818 -0.00082439258480171418 -0.02001114451996075 -0.018463137861789065 0.020010762578830249 1.8035715143512465e-05 -0.029173760945561584 -0.018966919374414568 0.018967253168230169 -0.028949661969969839 0.028874611777190973 0.02045172602244371 -0.046451213084521069 0.028885882777165223 -0.021341728891163203 -0.021444830771462222 -0.020825441868475229 0.0014812397532098071 0.019641327163749518 -0.00016640184219052757 -0.020757959933554695 0.0021479066257270949 -0.00084109395929824957 -0.019845867719985172 0.0010936163299259472 0.0014777073411973974 0.020741395939926646 -0.00027795719843197268 0.038070084886179412 -0.000237741876605943 0.00091299845997901054 0.00070081626182643504 -0.0024896379523889046 -0.020316450700345195 -0.00016353288665153608 -0.038666396958712157 -0.037997590659597215 -0.038399663968596114
leaf_count=12189 11143 11164 22417 11224 11089 11344 20383 11197 11165 11298 11243 11339 11134 11188 24489 11312 11160 11234 12295 11349 11329 11539 11144 22538 11313 10311 22733 22572 11276 22505 20375 11330 10965 11357 11178 12355 11243 11221 11191 11220 11229 11305 11193 11311 11297 12297 11266 11241 11258 10143 11336 11468 11265 11029 11311
internal_value=0 -0.182526 0.183988 0.00131871 0.00321657 -0.369153 0.367572 -0.187868 -0.181705 0.193577 0.187649 -0.19155 0.194351 -0.556513 0.550399 0.010137 0.00148182 0.00375172 0.384753 0.0151788 -0.369878 0.000948281 -0.00655155 -0.38443 -0.377498 0.382303 -0.385514 0.38961 0.387716 -0.744691 0.750352 -0.204436 -0.202743 -0.198844 -0.187207 0.188634 0.207981 -0.205163 -0.168308 0.193534 -0.18882 -0.186201 -0.178815 0.207568 0.200743 0.562618 0.201703 0.224537 0.219292 0.166496 -0.204883 0.198819 -0.570753 -0.557959 -0.573651
internal_count=720000 360587 359413 179633 180805 179782 179780 90185 89931 90620 89883 89848 89785 89851 89897 45080 44826 44666 49139 44950 45129 45662 44943 45182 44981 44940 45105 44958 44959 44722 40758 22527 22199 22655 22527 24650 22467 22381 22535 22463 22372 22644 22357 22445 22386 24486 22542 22553 22423 20454 22480 23007 22594 22217 22624
shrinkage=0.05


Tree=15
num_leaves=56
num_cat=0
split_feature=24 80 76 10 17 20 1 86 1 17 5 64 26 14 65 7 97 25 84 39 39 12 53 12 48 39 26 0 44 44 27 6 46 3 19 5 97 57 86 46 50 86 87 5 84 73 48 65 0 72 86 3 53 53 65
split_gain=5975.7 3096.64 2944.23 1711.81 1591.55 1573.19 1424.84 849.001 847.253 827.476 817.658 805.04 796.529 772.697 691.502 475.284 466.118 463.814 458.551 448.576 441.637 431.721 430.898 417.783 413.52 413.255 412.138 399.317 391.495 351.377 317.071 278.532 276.495 271.308 263.846 255.009 254.445 243.929 242.136 240.362 239.851 238.202 237.571 234.655 234.299 232.045 231.564 231.402 229.743 228.862 225.814 225.639 222.232 221.062 216.68
threshold=1.0000000180025095e-35 1.0000000180025095e-35 1.0000000180025095e-35 1.0000000180025095e-35 1.0000000180025095e-35 1.0000000180025095e-35 1.0000000180025095e-35 1.0000000180025095e-35 1.0000000180025095e-35 1.0000000180025095e-35 1.0000000180025095e-35 1.0000000180025095e-35 1.0000000180025095e-35 1.0000000180025095e-35 1.0000000180025095e-35 1.0000000180025095e-35 1.0000000180025095e-35 1.0000000180025095e-35 1.0000000180025095e-35 1.0000000180025095e-35 1.0000000180025095e-35 1.0000000180025095e-35 1.0000000180025095e-35 1.0000000180025095e-35 1.0000000180025095e-35 1.0000000180025095e-35 1.0000000180025095e-35 1.0000000180025095e-35 1.0000000180025095e-35 1.0000000180025095e-35 1.0000000180025095e-35 1.0000000180025095e-35 1.0000000180025095e-35 1.0000000180025095e-35 1.0000000180025095e-35 1.0000000180025095e-35 1.0000000180025095e-35 1.0000000180025095e-35 1.0000000180025095e-35 1.0000000180025095e-35 1.0000000180025095e-35 1.0000000180025095e-35 1.0000000180025095e-35 1.0000000180025095e-35 1.0000000180025095e-35 1.0000000180025095e-35 1.0000000180025095e-35 1.0000000180025095e-35 1.0000000180025095e-35 1.0000000180025095e-35 1.0000000180025095e-35 1.0000000180025095e-35 1.0000000180025095e-35 1.0000000180025095e-35 1.0000000180025095e-35
decision_type=2 2 2 2 2 2 2 2 2 2 2 2 2 2 2 2 2 2 2 2 2 2 2 2 2 2 2 2 2 2 2 2 2 2 2 2 2 2 2 2 2 2 2 2 2 2 2 2 2 2 2 2 2 2 2
left_child=2 3 6 8 12 7 14 22 15 28 20 19 25 21 30 47 41 51 36 49 -5 42 43 -13 38 -3 44 39 -8 50 -1 -18 -21 -17 -24 -19 -14 -25 -10 -16 -22 -12 -6 -4 -9 -26 -20 -2 -27 -7 -15 -11 -28 -23 -30
right_child=1 4 5 10 13 11 9 26 24 17 16 23 18 29 27 33 31 35 46 32 40 53 34 37 45 48 52 -29 54 -31 -32 -33 -34 -35 -36 -37 -38 -39 -40 -41 -42 -43 -44 -45 -46 -47 -48 -49 -50 -51 -52 -53 -54 -55 -56
leaf_value=0.027759789441116508 0.020756054957422075 0.010182998969096526 0.020699264827871537 0.029778280008143445 -0.018995955489187144 0.020249540420077511 0.028337938558038324 0.00084919836073636212 0.00076217947161667115 0.020049769447019264 0.020985153000335901 0.028694682110304764 0.0025165427313133832 -0.018357939083949212 0.019518409477360832 0.0009197945500757556 -0.021290809773776436 0.00025701196231022285 -0.018369835419981311 0.0011757172364114821 0.020180809324963089 -0.018375758778305204 0.0014447947232863359 0.019762950439592399 -0.039062125711735736 -0.019422693441218414 -0.018851722706356648 0.028041582821606875 0.019395367105893485 -0.046226612365679584 0.044757576801518414 0.0012306000343474746 -0.021125752902497477 -0.020981121815838104 -0.02038072429419617 -0.021203475187655085 -0.018902922456235899 -0.0012351751532922832 -0.020024681038047571 -0.0013218211345255946 -0.00071609034933099844 0.00026397403217411942 0.0018443847972640607 9.0075885431701111e-05 -0.019658619653708992 -0.018700666838872844 -0.038677758054620454 0.00033182349625345605 0.0010739457981974081 -0.00014284142297973264 -0.03847013314646644 -0.00013598841819372211 -0.038891463781122682 -0.038304310281784937 -0.00037193523974499821
leaf_count=22392 11260 22447 11187 22365 11171 11253 22809 11192 11300 11246 11420 22789 11255 11304 11207 11463 10931 11194 11361 11289 11178 11218 11329 11288 11315 11123 11314 22497 11375 22367 22374 11429 11327 11435 11089 11260 11331 11203 11364 11277 11188 11175 11060 11221 11316 11314 11309 11188 11092 11145 11317 11225 11027 11351 11144
internal_value=0 -0.182838 0.184317 0.00371078 -0.369938 0.00219832 0.36679 -0.186165 -0.190899 0.188168 0.201707 0.190552 -0.180416 -0.559525 0.547037 0.00354096 0.00954245 -0.00545592 -0.368588 -0.000387417 0.394928 -0.372129 0.00989531 0.380718 -0.385387 0.0106788 -0.381487 0.370491 0.380433 -0.745734 0.724853 -0.196956 -0.200736 -0.20043 -0.187189 -0.210113 -0.164639 0.186022 -0.193362 0.180691 0.194465 0.213987 -0.172613 0.207504 -0.18948 -0.577647 -0.570037 0.211523 -0.184169 0.201995 -0.568799 0.199181 -0.574759 -0.568189 0.192041
internal_count=720000 360031 359969 180325 179706 179969 180000 89675 90639 90253 89686 90294 89918 89788 89747 45346 44955 44925 45256 45014 44731 44800 44826 45280 45293 44662 44849 44981 45328 44988 44766 22360 22616 22898 22418 22454 22586 22491 22664 22484 22366 22595 22231 22408 22508 22629 22670 22448 22215 22398 22621 22471 22341 22569 22519
shrinkage=0.05


Tree=16
num_leaves=56
num_cat=0
split_feature=0 50 3 81 25 44 37 10 19 97 53 55 102 51 22 86 36 84 14 75 5 50 17 27 80 35 80 27 14 25 48 6 6 91 6 25 26 35 36 72 20 57 84 35 65 103 97 102 39 37 10 91 6 86 17
split_gain=5777.71 3013.54 2929.23 1633.35 1567.16 1515.76 1441.87 863.089 836.257 803.519 792.814 790.67 778.218 751.447 685.029 474.814 456.286 442.036 437.486 434.879 431.529 429.903 429.381 422.223 414.484 414.411 399.97 397.107 392.332 344.995 312.547 266.797 246.686 246.338 244.362 243.326 240.808 240.167 240.058 239.386 239.3 238.848 233.695 233.466 231.397 230.214 228.52 228.52 227.775 225.597 221.648 217.444 216.702 215.709 215.313
threshold=1.0000000180025095e-35 1.0000000180025095e-35 1.0000000180025095e-35 1.0000000180025095e-35 1.0000000180025095e-35 1.0000000180025095e-35 1.0000000180025095e-35 1.0000000180025095e-35 1.0000000180025095e-35 1.0000000180025095e-35 1.0000000180025095e-35 1.0000000180025095e-35 1.0000000180025095e-35 1.0000000180025095e-35 1.0000000180025095e-35 1.0000000180025095e-35 1.0000000180025095e-35 1.0000000180025095e-35 1.0000000180025095e-35 1.0000000180025095e-35 1.0000000180025095e-35 1.0000000180025095e-35 1.0000000180025095e-35 1.0000000180025095e-35 1.0000000180025095e-35 1.0000000180025095e-35 1.0000000180025095e-35 1.0000000180025095e-35 1.0000000180025095e-35 1.0000000180025095e-35 1.0000000180025095e-35 1.0000000180025095e-35 1.0000000180025095e-35 1.0000000180025095e-35 1.0000000180025095e-35 1.0000000180025095e-35 1.0000000180025095e-35 1.0000000180025095e-35 1.0000000180025095e-35 1.0000000180025095e-35 1.0000000180025095e-35 1.0000000180025095e-35 1.0000000180025095e-35 1.0000000180025095e-35 1.0000000180025095e-35 1.0000000180025095e-35 1.0000000180025095e-35 1.0000000180025095e-35 1.0000000180025095e-35 1.0000000180025095e-35 1.0000000180025095e-35 1.0000000180025095e-35 1.0000000180025095e-35 1.0000000180025095e-35 1.0000000180025095e-35
decision_type=2 2 2 2 2 2 2 2 2 2 2 2 2 2 2 2 2 2 2 2 2 2 2 2 2 2 2 2 2 2 2 2 2 2 2 2 2 2 2 2 2 2 2 2 2 2 2 2 2 2 2 2 2 2 2
left_child=1 3 6 8 10 9 14 21 15 19 26 23 28 29 30 40 51 44 32 49 45 39 33 54 -16 -15 -4 43 -8 50 -2 -22 -12 -10 -17 -21 -29 -30 -27 -6 -1 -19 -18 -11 -14 -9 -20 -28 -26 -3 -7 -13 -23 -24 -5
right_child=2 5 4 11 7 13 12 20 22 27 18 16 17 25 24 34 42 41 46 35 31 52 53 -25 48 38 47 36 37 -31 -32 -33 -34 -35 -36 -37 -38 -39 -40 -41 -42 -43 -44 -45 -46 -47 -48 -49 -50 -51 -52 -53 -54 -55 -56
leaf_value=0.00038880408956776464 0.044640006731175123 0.020611204621407031 0.028375771836516014 0.019421638418300455 0.0011101931494634911 -0.037704546157194645 0.027908047940739873 0.00017857272483155439 0.0014933489487684865 -0.038110387670793174 -0.00063342441952920602 0.020384769761594701 0.020183352334464152 -0.027832872940337539 0.028158433287753221 -0.020262013222567363 0.00065605846917417233 0.00031458113257630494 0.00014320540661979833 0.0011829327131933718 -0.020428311790444631 -0.038792800424533536 -0.019030180494919648 0.029135543238048223 0.018861838165510635 0.0019519175127254613 0.01965662194488571 0.0013247499172967109 -0.0013857290362197033 -0.045398218129063764 0.027743289338248107 0.0015663569560309268 0.020530978932385098 -0.019693525977596119 0.00060598286678976467 -0.019706276079094191 -0.019492521728476885 0.019457641624457372 -0.018837360348005212 -0.019701139478494625 0.02123760635710379 -0.02032794221898928 -0.019739782775948664 -0.017663260329550616 -0.00037129556798313692 0.020663595158952129 -0.020223857307596637 -0.00087160664707693417 -0.0014216582298858618 0.00045294936067011347 -0.017701377886968291 0.00064769883898494526 -0.019076974933880921 -0.038741779206565609 -0.00032304372458793774
leaf_count=11206 22253 11202 22612 11251 11097 11280 22734 11190 11037 11264 11174 11392 11261 22655 22477 11424 11322 11280 11203 11276 11110 11403 11236 22427 11334 11160 10918 11419 11150 22533 22596 11384 11234 11214 11291 11349 11143 11325 11370 11289 11202 11383 11401 11364 11197 11198 11146 11154 11131 11331 11182 11207 11178 11256 11195
internal_value=0 -0.179365 0.181788 0.00502446 -0.000580672 -0.36321 0.363709 -0.18861 -0.18711 -0.178787 0.188449 0.196564 0.183774 -0.547845 0.545003 0.00648652 0.00942738 -0.00368407 -0.00104938 0.0112776 0.009906 -0.385299 -0.382063 0.386662 0.369576 -0.364409 0.378729 -0.368621 0.370915 -0.732003 0.722362 -0.187626 0.198262 -0.183709 -0.19821 -0.185973 -0.179377 0.182169 -0.170979 -0.187672 0.215135 -0.201099 -0.191771 -0.556957 0.19836 0.208485 -0.200299 0.185618 0.176147 0.209395 -0.555376 0.211911 -0.581217 -0.578146 0.191331
internal_count=720000 360589 359411 180061 179290 180528 180121 89849 89866 90348 89441 90195 90330 90180 89791 45123 45322 45121 44757 45158 44882 44967 44743 44873 44942 45185 44684 45190 45209 44995 44849 22494 22408 22251 22715 22625 22562 22475 22530 22386 22408 22663 22723 22628 22458 22388 22349 22072 22465 22533 22462 22599 22581 22492 22446
shrinkage=0.05


Tree=17
num_leaves=56
num_cat=0
split_feature=19 12 64 81 5 17 65 39 6 53 63 10 35 53 86 86 22 6 87 6 76 6 26 4 20 3 24 86 92 26 14 44 53 20 7 63 103 37 63 7 91 102 72 48 44 7 80 35 25 1 1 65 14 87 102
split_gain=5674.69 3038.17 2843.76 1558.65 1526.94 1485.18 1368.29 822.144 820.085 812.709 810.275 780.847 780.121 769.958 672.602 456.839 445.001 442.43 441.835 437.718 435.791 434.182 429.398 427.742 411.156 403.339 401.716 395.795 389.05 350.515 318.754 274.28 265.23 264.007 260.526 251.69 248.694 248.622 246.493 238.049 236.328 233.915 233.91 231.509 231.198 230.104 229.205 228.297 227.573 227.425 223.297 216.207 215.946 215.476 207.334
threshold=1.0000000180025095e-35 1.0000000180025095e-35 1.0000000180025095e-35 1.0000000180025095e-35 1.0000000180025095e-35 1.0000000180025095e-35 1.0000000180025095e-35 1.0000000180025095e-35 1.0000000180025095e-35 1.0000000180025095e-35 1.0000000180025095e-35 1.0000000180025095e-35 1.0000000180025095e-35 1.0000000180025095e-35 1.0000000180025095e-35 1.0000000180025095e-35 1.0000000180025095e-35 1.0000000180025095e-35 1.0000000180025095e-35 1.0000000180025095e-35 1.0000000180025095e-35 1.0000000180025095e-35 1.0000000180025095e-35 1.0000000180025095e-35 1.0000000180025095e-35 1.0000000180025095e-35 1.0000000180025095e-35 1.0000000180025095e-35 1.0000000180025095e-35 1.0000000180025095e-35 1.0000000180025095e-35 1.0000000180025095e-35 1.0000000180025095e-35 1.0000000180025095e-35 1.0000000180025095e-35 1.0000000180025095e-35 1.0000000180025095e-35 1.0000000180025095e-35 1.0000000180025095e-35 1.0000000180025095e-35 1.0000000180025095e-35 1.0000000180025095e-35 1.0000000180025095e-35 1.0000000180025095e-35 1.0000000180025095e-35 1.0000000180025095e-35 1.0000000180025095e-35 1.0000000180025095e-35 1.0000000180025095e-35 1.0000000180025095e-35 1.0000000180025095e-35 1.0000000180025095e-35 1.0000000180025095e-35 1.0000000180025095e-35 1.0000000180025095e-35
decision_type=2 2 2 2 2 2 2 2 2 2 2 2 2 2 2 2 2 2 2 2 2 2 2 2 2 2 2 2 2 2 2 2 2 2 2 2 2 2 2 2 2 2 2 2 2 2 2 2 2 2 2 2 2 2 2
left_child=2 4 3 10 8 9 14 19 18 20 17 16 29 24 30 41 47 39 36 34 46 35 33 -9 40 54 42 -10 -13 51 -4 -19 -25 -11 -6 -15 -2 -27 -22 -1 -5 -14 -12 -21 -18 -23 -3 -8 -29 -20 -30 -7 -17 -28 -16
right_child=1 5 6 13 7 12 11 23 27 22 26 28 15 21 25 52 44 31 49 43 38 45 -24 32 -26 37 53 48 50 -31 -32 -33 -34 -35 -36 -37 -38 -39 -40 -41 -42 -43 -44 -45 -46 -47 -48 -49 -50 -51 -52 -53 -54 -55 -56
leaf_value=-0.00033782366938216266 -0.019775589081854436 0.020736502943771482 0.044281038355045564 0.019622951168724666 0.00052417064453606896 -0.018022181775251441 -0.00028496583677923199 -0.029341033144859481 0.029173648952582683 -0.019740213674276724 0.0010399436769069853 0.028026000159437365 0.0023403923106337684 0.0008846592523085138 0.037126381763347725 -0.018257227428495251 9.3617307415497535e-07 0.021317679763955037 0.020109635066196362 0.020601066835877157 0.0011736728146607299 0.021384403763489081 -0.028446086044072616 0.0010243944520717614 0.028611549713732962 0.019124462054233075 -0.038144608968321982 0.020267501785569079 0.019267008368160417 -0.045672532973104113 0.027174913507952293 -0.00084616468208381895 -0.019973755035391911 0.0021771538563277529 -0.0214492548669598 -0.020337295589376338 0.00096510260164319362 -0.0021604956372244899 -0.019913386093544216 -0.021056541025128224 -0.0010354914536747147 -0.018134515015304754 -0.019599276426589155 0.00039929309564001956 -0.020309227392585311 0.00085415678114173453 0.0003864376969100215 0.020032930113508707 -0.00027894876238773286 0.00010367888756568811 -0.00092078966455172179 -0.037757478240348037 -0.038043881810646392 -0.01848906185149745 0.017862595636441256
leaf_count=12365 11719 11195 22150 11189 11988 11286 11173 20494 21987 11059 11171 22541 11372 11385 11482 11159 11448 11346 11620 11466 11267 10167 22440 12101 22279 11171 11339 10953 11256 22300 22485 11468 12348 11234 10013 11214 11669 11098 11230 10266 11266 11314 11176 11729 11226 12310 11362 11313 10986 11371 11097 11225 11190 11301 11241
internal_value=0 -0.178234 0.179815 0.00092585 0.0066796 -0.363605 0.359591 -0.178947 0.192063 -0.180265 -0.185886 0.184105 -0.546621 0.189172 0.536384 -0.359295 -0.00255479 0.00403374 0.00606412 0.0131419 0.0110583 0.00344554 -0.372374 -0.371989 0.37696 0.362851 -0.377671 0.390666 0.373107 -0.734629 0.712805 0.203163 -0.191938 -0.174361 -0.189545 -0.192944 -0.188575 0.170289 -0.187128 -0.194748 0.185147 -0.157551 -0.185672 0.207469 -0.201119 0.202634 0.209542 0.198698 0.199467 0.204077 0.184349 -0.557325 -0.563382 -0.566702 0.551969
internal_count=720000 360077 359923 180242 180444 179633 179681 90139 90305 89787 90432 90054 89846 89810 89627 45035 45160 45445 46379 45196 45054 45076 44733 44943 44734 44992 44987 43926 44894 44811 44635 22814 24449 22293 22001 22599 23388 22269 22497 22631 22455 22686 22347 23195 22674 22477 22557 22486 21939 22991 22353 22511 22349 22640 22723
shrinkage=0.05


Tree=18
num_leaves=56
num_cat=0
split_feature=55 54 48 20 81 36 6 27 7 1 5 14 44 44 14 65 0 81 4 10 75 80 91 3 64 25 54 5 24 39 35 96 84 17 87 36 63 64 6 65 25 25 25 64 67 39 22 17 50 39 63 26 92 48 46
split_gain=5649.4 2894.58 2880.33 1731.91 1516.8 1450.21 1261.09 911.18 847.169 844.395 792.77 778.265 777.656 737.082 603.463 479.896 469.538 444.689 443.376 426.174 425.488 409.534 409.446 399.964 399.659 399.595 399.287 382.283 375.59 339.972 279.018 272.419 268.284 261.636 248.224 245.787 245.609 245.454 243.057 234.206 229.626 228.287 228.25 224.924 224.818 223.691 220.233 219.465 218.666 216.593 213.064 212.473 212.222 211.998 211.554
threshold=1.0000000180025095e-35 1.0000000180025095e-35 1.0000000180025095e-35 1.0000000180025095e-35 1.0000000180025095e-35 1.0000000180025095e-35 1.0000000180025095e-35 1.0000000180025095e-35 1.0000000180025095e-35 1.0000000180025095e-35 1.0000000180025095e-35 1.0000000180025095e-35 1.0000000180025095e-35 1.0000000180025095e-35 1.0000000180025095e-35 1.0000000180025095e-35 1.0000000180025095e-35 1.0000000180025095e-35 1.0000000180025095e-35 1.0000000180025095e-35 1.0000000180025095e-35 1.0000000180025095e-35 1.0000000180025095e-35 1.0000000180025095e-35 1.0000000180025095e-35 1.0000000180025095e-35 1.0000000180025095e-35 1.0000000180025095e-35 1.0000000180025095e-35 1.0000000180025095e-35 1.0000000180025095e-35 1.0000000180025095e-35 1.0000000180025095e-35 1.0000000180025095e-35 1.0000000180025095e-35 1.0000000180025095e-35 1.0000000180025095e-35 1.0000000180025095e-35 1.0000000180025095e-35 1.0000000180025095e-35 1.0000000180025095e-35 1.0000000180025095e-35 1.0000000180025095e-35 1.0000000180025095e-35 1.0000000180025095e-35 1.0000000180025095e-35 1.0000000180025095e-35 1.0000000180025095e-35 1.0000000180025095e-35 1.0000000180025095e-35 1.0000000180025095e-35 1.0000000180025095e-35 1.0000000180025095e-35 1.0000000180025095e-35 1.0000000180025095e-35
decision_type=2 2 2 2 2 2 2 2 2 2 2 2 2 2 2 2 2 2 2 2 2 2 2 2 2 2 2 2 2 2 2 2 2 2 2 2 2 2 2 2 2 2 2 2 2 2 2 2 2 2 2 2 2 2 2
left_child=1 3 4 7 12 11 8 17 23 20 26 21 19 25 31 36 32 44 38 49 -5 40 39 46 -14 45 51 -10 -16 -15 -17 -8 -11 -18 -19 -20 -9 -22 -12 -13 -4 -25 -28 -23 -1 -7 -3 -21 -27 -2 -26 -6 -30 -29 -24
right_child=2 6 5 9 10 13 14 15 27 16 18 22 24 29 28 30 33 34 35 47 37 43 54 41 50 48 42 53 52 -31 -32 -33 -34 -35 -36 -37 -38 -39 -40 -41 -42 -43 -44 -45 -46 -47 -48 -49 -50 -51 -52 -53 -54 -55 -56
leaf_value=-0.018371413698714808 0.00034678341202826923 0.038940100615342622 0.020301775726046151 0.029178795853468123 0.018762724924060975 0.0018097945976733171 0.028194036395258013 0.021270807465931185 0.0088591327386490833 0.0016929386256144046 -0.022244640164295226 0.0017029790406102988 -0.027938271097186496 -0.027259432868741176 0.028841732009535923 -0.019720831408358196 0.021340220818918107 -0.019091248519593023 0.019141961801509282 0.020161107727298261 0.00028710768645130426 -0.01896648046206903 -0.01782408039894574 0.020131062953609766 0.00091308706148550748 -0.017392277144018264 0.037461063064085441 -0.00063433816476898928 0.019665715290626259 -0.044729891305366615 0.001813498400692426 0.044749605623486427 -0.01945653775908588 0.00036463280120436407 0.0011116863974001434 -0.00095198499447477218 0.00097258083508388433 0.020620994925712555 -0.00024374538696590454 -0.018810151131892529 -4.2075225127386276e-05 -0.00028199641100681996 0.017949151304120736 0.001134720423075832 -0.037753497382032673 -0.018258014869002689 0.018999379044426151 0.00020871594201120284 -0.037209835258279832 -0.019404066965175895 -0.018644173640176346 -0.0016787534649892314 -0.00086756253426060895 -0.022375209068482792 -0.037293712406552777
leaf_count=12037 11284 11190 11304 24469 10334 11192 20365 12062 18910 12168 9969 11269 22462 22632 20675 12208 12236 12276 12273 11171 12458 11437 11132 11007 11176 11354 12042 9022 10426 22470 12212 20711 12278 12225 12398 12412 12202 12011 10407 11285 11243 11176 12290 11167 12225 11308 11281 11247 11195 11186 11427 10296 10179 9142 11487
internal_value=0 0.180147 -0.177246 0.0140211 0.00306478 -0.356937 0.378095 -0.175294 0.201661 0.205173 0.187907 -0.176476 -0.181867 -0.53742 0.556053 0.0200893 0.0174747 -0.369247 -0.000846003 0.00579899 0.394084 0.0107635 -0.363167 0.38844 -0.368687 -0.355326 0.377169 -0.0232267 0.38334 -0.719249 -0.179146 0.730789 -0.179927 0.2166 -0.17881 0.180614 0.221179 0.204894 -0.220757 -0.171238 0.20304 0.19687 0.551978 -0.180849 -0.562764 -0.165557 0.577935 0.20275 -0.54464 -0.189754 -0.179528 0.171036 0.190315 -0.231679 -0.554523
internal_count=720000 359549 360451 195465 179976 180475 164084 97620 81728 97845 90023 90324 89953 90151 82356 48684 48907 48936 45061 44888 48938 45151 45173 44654 45065 45049 44962 37074 41280 45102 24420 41076 24446 24461 24674 24685 24264 24469 20376 22554 22547 22183 24332 22604 24262 22500 22471 22418 22549 22470 22603 20630 20605 18164 22619
shrinkage=0.05


Tree=19
num_leaves=56
num_cat=0
split_feature=26 17 86 6 75 53 35 7 44 7 7 55 46 50 14 25 50 6 51 76 46 12 10 3 92 3 46 92 5 37 1 22 97 87 37 20 37 97 48 4 87 27 91 5 36 84 48 53 35 24 5 73 19 48 15
split_gain=5556.71 2855.42 2799.37 1544.8 1500.52 1487.33 1361.73 814.365 810.237 808.086 788.637 787.408 780.823 726.168 642.51 469.483 467.266 459.725 457.245 438.448 423.391 421.486 412.751 393.006 382.886 375.282 368.321 364.471 344.665 338.657 306.631 270.141 252.43 248.195 243.594 242.365 241.356 236.961 235.868 230.831 226.978 226.924 224.295 223.841 221.729 217.694 217.19 215.221 215.067 213.868 211.813 210.215 209.2 207.715 204.769
